{
  "layers": [
    10,
    16,
    16,
    2
  ],
  "weightsFlat": [
    -0.248783529,
    -0.211591423,
    -0.251713276,
    0.3554268,
    -0.131784618,
    0.231657609,
    -0.4238907,
    -0.416450977,
    0.4707744,
    0.161750779,
    -0.203454435,
    -0.06531018,
    -0.127263486,
    -0.175753891,
    0.0926407,
    -0.4209212,
    0.160439357,
    0.305363536,
    -0.368104935,
    0.296877384,
    0.169482216,
    -0.1268813,
    0.0169250369,
    0.3070104,
    0.105864584,
    0.470634341,
    0.467479467,
    -0.453846455,
    0.4032116,
    -0.00509387255,
    -0.459571123,
    -0.0508015752,
    -0.0226899981,
    0.2939371,
    -0.4227091,
    0.2262287,
    -0.469102263,
    0.134287819,
    0.216151938,
    -0.06405407,
    0.177627072,
    -0.309485316,
    0.45445478,
    -0.115389287,
    0.210518226,
    0.2638185,
    -0.3765508,
    0.359264374,
    -0.2359727,
    -0.389248967,
    -0.0547376275,
    0.3979417,
    -0.133699477,
    0.496797562,
    0.2845453,
    -0.152267635,
    -0.3656243,
    0.360152841,
    0.277728081,
    0.322353482,
    -0.02182287,
    -0.457817435,
    0.04566878,
    -0.2504325,
    0.239223108,
    0.360796452,
    -0.135663927,
    -0.398905873,
    0.06014484,
    -0.00762063265,
    -0.2067247,
    -0.145644248,
    0.0327373147,
    0.17884694,
    0.06468207,
    -0.329218626,
    -0.408155084,
    -0.179946244,
    -0.3375969,
    0.313658237,
    0.06588024,
    -0.09263331,
    -0.154998839,
    0.0417045951,
    0.375972033,
    0.26182127,
    -0.420141339,
    -0.261010647,
    0.162176,
    0.300497532,
    -0.008071005,
    0.108662188,
    0.08284265,
    -0.44353807,
    0.0896409154,
    0.0136366487,
    -0.217838824,
    0.455114365,
    0.245117769,
    -0.3108828,
    0.40749228,
    0.218419537,
    0.167677388,
    0.3870684,
    -0.2722472,
    -0.367478967,
    -0.152834475,
    0.253569484,
    -0.281486154,
    0.4313997,
    0.1662731,
    0.2954656,
    0.07751566,
    -0.22872299,
    -0.417536736,
    -0.1508103,
    0.219992861,
    0.319291234,
    -0.0945887,
    0.140871152,
    0.08109146,
    -0.129290044,
    -0.0571500659,
    0.4505204,
    -0.162680209,
    0.2464913,
    0.277822018,
    0.333783746,
    -0.413784981,
    0.445919752,
    -0.0287340283,
    -0.170127332,
    0.404021263,
    0.20645152,
    0.08665365,
    -0.359673977,
    -0.0531129241,
    0.304144621,
    0.111285031,
    0.213273391,
    0.2585523,
    0.459240675,
    0.1439464,
    0.264091372,
    -0.495175362,
    -0.169041336,
    0.204283938,
    -0.47589612,
    0.356461525,
    0.456790447,
    -0.3446132,
    -0.01233083,
    -0.0265237689,
    -0.437096953,
    0.193979248,
    -0.4076823,
    -0.126443446,
    -0.167085469,
    0.350532651,
    0.4499439,
    -0.156612217,
    0.130486354,
    0.4290645,
    -0.08434945,
    0.1278541,
    -0.273363471,
    -0.008499205,
    -0.05798596,
    0.151231155,
    0.274564862,
    -0.0128129125,
    -0.361765385,
    -0.252028465,
    0.310708165,
    0.05813819,
    0.149797544,
    0.2007762,
    -0.355801463,
    -0.2356568,
    0.002420485,
    0.460171342,
    0.277020574,
    -0.13064748,
    -0.392715931,
    0.423684239,
    0.3113972,
    -0.4562044,
    -0.198256433,
    -0.3330164,
    0.291800857,
    -0.3021791,
    -0.380414844,
    -0.170598924,
    -0.45260036,
    0.09236413,
    -0.425836682,
    -0.108228624,
    -0.440001369,
    0.07109386,
    -0.398928046,
    -0.1651842,
    0.40094614,
    -0.0267532468,
    -0.316793084,
    -0.08092648,
    0.281541348,
    0.0466197133,
    0.06258649,
    -0.2873206,
    0.0809300542,
    0.0254117846,
    -0.470737338,
    -0.367262483,
    -0.06291014,
    0.456887245,
    -0.279789925,
    -0.184007347,
    0.07638425,
    0.09522241,
    -0.158312976,
    0.499151826,
    -0.23460108,
    0.05436176,
    -0.268164873,
    -0.2716787,
    0.422628641,
    -0.4527409,
    -0.1836744,
    0.43435514,
    -0.28008914,
    -0.0430025458,
    -0.296164274,
    -0.06110519,
    -0.47340107,
    -0.129681885,
    -0.377959,
    0.2019565,
    -0.181170642,
    0.473543167,
    0.0286563039,
    -0.138394177,
    0.0189631581,
    -0.468642354,
    0.4704106,
    0.373803377,
    0.3563038,
    -0.00652951,
    -0.312479377,
    -0.100120485,
    -0.0003196597,
    -0.0902892947,
    -0.277047873,
    -0.0316036344,
    -0.287955046,
    -0.130539715,
    -0.440807343,
    -0.0959126353,
    -0.347660422,
    0.23516129,
    0.0824638,
    -0.0951336,
    0.0207389,
    -0.33854115,
    0.0271998048,
    0.006798327,
    -0.4059298,
    -0.425712,
    -0.447633743,
    -0.2623657,
    -0.0323622823,
    -0.105899513,
    0.177822217,
    -0.409230947,
    -0.134318054,
    -0.390177369,
    -0.4217931,
    0.07722348,
    0.00120729208,
    0.390655279,
    0.0114309192,
    -0.355939746,
    0.4635092,
    0.0262729526,
    0.100451648,
    -0.1116125,
    0.246757492,
    0.0135992169,
    0.3569827,
    0.171262011,
    0.233755931,
    0.008170307,
    0.102224886,
    0.161365613,
    0.48014462,
    -0.2644651,
    -0.398898244,
    0.0718773,
    0.156997427,
    0.1562811,
    -0.333781481,
    -0.386378527,
    0.4055307,
    0.340723276,
    0.123385847,
    -0.4202261,
    -0.179528773,
    -0.124104917,
    -0.33561933,
    -0.247454822,
    -0.204763949,
    -0.201368153,
    -0.222088158,
    0.487243176,
    0.048447907,
    -0.207673371,
    0.419567347,
    -0.408215761,
    -0.104857266,
    -0.119804442,
    0.435575962,
    -0.385427117,
    -0.0549487472,
    -0.27870214,
    -0.469604254,
    0.414316773,
    0.0857918859,
    -0.364530325,
    0.4691031,
    -0.308385253,
    -0.287900925,
    -0.22015363,
    -0.0709857345,
    0.206277236,
    -0.00790590048,
    -0.3390242,
    0.316605568,
    -0.157300889,
    -0.040037334,
    0.4565897,
    0.01180917,
    0.192062959,
    0.482220531,
    -0.358789444,
    0.2964251,
    -0.202059329,
    -0.3629924,
    0.492845774,
    0.34020257,
    -0.435307264,
    -0.0302340388,
    -0.3716023,
    -0.454378,
    0.2493987,
    0.06387478,
    -0.2609011,
    -0.266002655,
    -0.148628771,
    -0.253218651,
    0.105850875,
    0.48378098,
    -0.18184346,
    -0.00171393156,
    -0.24320513,
    -0.0275573134,
    0.042480886,
    0.192136511,
    0.247264966,
    -0.29969728,
    -0.0234305263,
    0.06331736,
    0.229024991,
    -0.224084556,
    -0.244226992,
    -0.03129071,
    -0.07905835,
    0.01635462,
    0.427670717,
    -0.2908759,
    -0.2439428,
    -0.03559977,
    -0.276486039,
    0.229013428,
    0.295058131,
    0.0400967,
    -0.183362544,
    -0.312592745,
    0.241176829,
    -0.400488973,
    0.47380805,
    0.403059,
    0.277153254,
    -0.034632504,
    -0.026940167,
    -0.217755139,
    0.311892867,
    0.113588512,
    0.363918781,
    -0.133889139,
    -0.0514015555,
    0.307909,
    -0.287756562,
    -0.44195807,
    -0.300530076,
    0.44261384,
    -0.182975709,
    0.3151337,
    -0.3294376,
    -0.06539267,
    0.056070745,
    0.07314569,
    0.299483538,
    -0.1177209,
    -0.4062593,
    -0.330335855,
    -0.402517438,
    0.0112202764,
    0.3818637,
    0.2304946,
    -0.271410823,
    0.241114721,
    -0.268759251,
    -0.272748947,
    0.125910744,
    0.06391317,
    -0.36707437,
    0.321722865,
    -0.14312762,
    -0.399961948,
    0.222580537,
    -0.433956146,
    0.190829024,
    -0.201798022,
    0.107977092,
    0.1528487,
    0.0501793027,
    0.363262415,
    0.2807027,
    -0.246689737,
    -0.2965163,
    -0.4651581,
    -0.241522491,
    0.2256429,
    0.341616154,
    0.0780095458,
    0.126639232,
    0.04247278,
    0.378406763,
    0.121434629
  ],
  "biasesFlat": [
    0.3194276,
    0.459784627,
    -0.014611423,
    0.113459527,
    0.4338354,
    -0.349664569,
    -0.00361591578,
    0.29120183,
    -0.325803876,
    -0.206699669,
    0.452169061,
    0.368368626,
    0.452679038,
    -0.203820527,
    -0.04659909,
    0.429120064,
    0.03894967,
    -0.192519367,
    0.0506466031,
    -0.04900986,
    -0.1480195,
    0.4262216,
    0.178467974,
    -0.298717856,
    0.316714168,
    -0.2423392,
    0.0265728831,
    0.353930116,
    0.0458777547,
    -0.2190426,
    -0.229508221,
    -0.386817575,
    0.0627051,
    -0.389247775,
    0.481829882,
    0.415860057,
    -0.230247319,
    -0.434851885,
    0.3330419,
    -0.315529466,
    0.0553532243,
    -0.165195525,
    0.437386751,
    -0.404277921
  ],
  "weightShapes": [
    16,
    10,
    16,
    16,
    2,
    16
  ],
  "biasShapes": [
    10,
    16,
    16,
    2
  ]
}