{
  "Data": [
    {
      "layers": [
        10,
        16,
        16,
        2
      ],
      "weightsFlat": [
        0.0926396251,
        0.08397573,
        0.298102379,
        -0.407552,
        -0.06661433,
        -0.107292235,
        -0.141344845,
        0.161641225,
        -0.0292851329,
        -0.231115162,
        -0.4672686,
        -0.382436275,
        -0.0315646529,
        -0.05504948,
        -0.08576769,
        0.174699053,
        0.2707045,
        -0.0752328038,
        -0.4934672,
        -0.422310472,
        0.297626853,
        0.395984054,
        -0.391758442,
        -0.09015745,
        0.342630863,
        0.317886,
        -0.415195465,
        0.2102866,
        -0.226141989,
        -0.326827049,
        -0.00652986765,
        -0.405327082,
        0.456799865,
        0.412391782,
        0.340943933,
        0.0286110044,
        -0.193964541,
        0.479152918,
        0.197536692,
        -0.150367439,
        0.3272686,
        -0.442250252,
        0.270919681,
        0.295884132,
        -0.341807365,
        0.4268782,
        0.358478069,
        0.375850916,
        -0.331215024,
        -0.2197761,
        0.10156852,
        -0.2601359,
        -0.484326482,
        0.2779597,
        0.498707771,
        0.113802254,
        0.06418258,
        -0.00775259733,
        0.32934916,
        -0.37129724,
        0.251908064,
        0.231879458,
        0.162494883,
        0.0254850984,
        -0.3018794,
        -0.296810269,
        0.346889377,
        -0.487087369,
        0.126890287,
        0.06077677,
        0.410734177,
        0.4717015,
        0.179224476,
        -0.296010852,
        -0.0194339156,
        0.422993541,
        0.168112382,
        -0.3833394,
        0.3855946,
        -0.327964544,
        -0.0283632874,
        0.290501356,
        0.0709329247,
        0.493587255,
        -0.0853819251,
        0.0163831115,
        -0.18910116,
        -0.472079873,
        0.0126860738,
        0.376857162,
        -0.2627735,
        -0.431637168,
        0.00735169649,
        -0.292265058,
        0.0447986722,
        0.13753663,
        -0.007340491,
        -0.157557547,
        0.158864126,
        -0.4090191,
        0.08399266,
        0.227840647,
        -0.185499132,
        -0.2277779,
        0.120868981,
        0.143554315,
        0.239740476,
        0.335576177,
        0.496472478,
        -0.16384083,
        -0.0229818225,
        -0.08246201,
        0.239552483,
        0.290585518,
        -0.4724679,
        -0.333148,
        -0.4738146,
        -0.295591116,
        0.0230517983,
        0.474332929,
        0.33572793,
        0.227537617,
        0.1586114,
        0.09482902,
        0.093506515,
        -0.380355954,
        0.107040942,
        0.422374129,
        -0.4191811,
        -0.101998389,
        -0.0217283368,
        -0.194429934,
        -0.338334322,
        -0.23958236,
        0.4222393,
        -0.226269543,
        0.117295921,
        -0.357438684,
        0.483556151,
        0.322369933,
        0.148344859,
        0.3488884,
        0.18631874,
        -0.342611551,
        -0.208263218,
        -0.170336068,
        -0.228720129,
        -0.1924128,
        -0.409581065,
        0.222575292,
        -0.4077872,
        0.495950341,
        -0.287133336,
        -0.459714174,
        0.0708815455,
        0.0639796853,
        0.166435584,
        -0.06959134,
        -0.437921643,
        -0.391387463,
        0.277562857,
        -0.4248495,
        -0.339775681,
        -0.0321791768,
        0.2331085,
        -0.153302491,
        0.0526073575,
        0.496951818,
        -0.353383541,
        -0.0611442924,
        -0.2839507,
        0.443959832,
        0.230690584,
        0.047427237,
        -0.449210048,
        0.27590394,
        -0.038369,
        0.1138615,
        -0.419109821,
        -0.488446832,
        -0.276055932,
        0.175449356,
        0.3906256,
        0.329379678,
        -0.317814946,
        -0.346572876,
        0.022924602,
        0.117616117,
        -0.231409609,
        -0.4659258,
        -0.00767582655,
        0.007616937,
        -0.08620709,
        -0.35141325,
        -0.357301831,
        -0.0267872214,
        0.348659754,
        0.482051373,
        0.019602716,
        -0.4234593,
        0.191483721,
        -0.15183574,
        -0.2430808,
        -0.17663151,
        -0.08259362,
        0.468063235,
        -0.324465036,
        0.332571626,
        0.435343027,
        -0.37487042,
        0.208136067,
        0.104499161,
        -0.141576231,
        -0.1622861,
        0.136138067,
        0.1450672,
        0.3740872,
        -0.4799658,
        0.379458547,
        -0.04132563,
        -0.1515289,
        -0.055770576,
        -0.301653862,
        -0.422387362,
        -0.156202137,
        -0.288107276,
        -0.0137364268,
        0.324389935,
        -0.267596126,
        0.461920738,
        -0.223957,
        0.4166572,
        0.416941047,
        0.204434022,
        0.108749092,
        -0.153675616,
        0.387362242,
        -0.433549643,
        0.0867036,
        -0.2374149,
        -0.1844644,
        0.0620166659,
        0.262886763,
        -0.07492906,
        -0.379308343,
        0.153067216,
        -0.392005682,
        0.191674933,
        -0.20732969,
        0.142058477,
        -0.12580806,
        0.211579666,
        -0.139025629,
        0.07326466,
        -0.494828,
        0.406307578,
        -0.07108027,
        0.103431046,
        -0.0816012,
        0.249136671,
        -0.32689476,
        -0.356025457,
        -0.488078356,
        0.18450354,
        -0.372032881,
        0.479580045,
        -0.3637495,
        0.1579523,
        -0.269178271,
        0.235283837,
        0.216389164,
        0.428183556,
        0.351960778,
        -0.10929817,
        -0.125456274,
        0.152626023,
        -0.141501963,
        0.311846733,
        -0.372653842,
        0.05216533,
        -0.07902366,
        0.489033937,
        -0.2793002,
        0.238055214,
        0.123782694,
        0.3100276,
        -0.3135382,
        0.2703297,
        -0.00203055143,
        -0.1464296,
        0.0602502227,
        -0.224135935,
        -0.2889353,
        0.0132367015,
        -0.4347502,
        -0.28304565,
        0.0292103887,
        0.009611309,
        -0.214980185,
        0.463636518,
        -0.2686063,
        -0.267991066,
        0.285250783,
        0.07352394,
        0.07741505,
        -0.00727933645,
        0.39956522,
        -0.05048555,
        -0.339581966,
        0.113177359,
        -0.206765,
        0.386675358,
        0.06279451,
        -0.108971059,
        0.271160722,
        0.131614074,
        0.00331026316,
        -0.384269,
        0.309231043,
        0.4259349,
        0.007996261,
        -0.0472130179,
        0.30640626,
        -0.163069785,
        0.2538737,
        0.433185339,
        -0.09422809,
        -0.3765608,
        0.338268042,
        0.0796604753,
        0.470827579,
        0.251173615,
        0.09065324,
        0.44498384,
        0.464778662,
        0.263548851,
        0.0631142259,
        0.249391779,
        0.120381057,
        0.337924957,
        0.278660059,
        0.03501886,
        0.181446776,
        -0.321041346,
        -0.183630764,
        -0.3281871,
        -0.132878482,
        0.415905356,
        0.178545579,
        -0.250836,
        -0.328649044,
        -0.294613,
        0.274880171,
        0.200995669,
        -0.238119185,
        -0.3360461,
        0.0194175839,
        0.12944065,
        -0.28210485,
        0.4451977,
        -0.0693838,
        -0.427710056,
        0.408227563,
        -0.3099016,
        -0.0478132367,
        0.026260078,
        0.164152011,
        -0.32915175,
        -0.00359457731,
        -0.203029692,
        -0.412313461,
        0.412572384,
        0.07468015,
        0.1388155,
        -0.119909227,
        0.458099127,
        -0.07876915,
        0.217882857,
        0.345996857,
        -0.187898338,
        0.306728363,
        0.318431258,
        -0.399711847,
        -0.476273537,
        0.3303293,
        -0.029499948,
        0.07174498,
        -0.431795239,
        0.437922955,
        0.0824435353,
        0.125812873,
        -0.13658303,
        0.0610578656,
        0.116809666,
        -0.3363676,
        -0.344277024,
        0.3636266,
        0.295725822,
        -0.18421489,
        -0.166678131,
        -0.140353739,
        -0.165339887,
        0.1869279,
        0.171005,
        0.149210438,
        -0.106117666,
        -0.338031769,
        -0.1602779,
        -0.281953454,
        -0.213964283,
        -0.261900783,
        -0.126654327,
        -0.215616763,
        -0.354204535,
        -0.4198376,
        0.08373338,
        0.378944159,
        0.00407701731,
        -0.2167303,
        -0.3891816,
        0.149747714,
        0.39069736,
        0.157153592,
        -0.009883225,
        0.320188761,
        -0.25798142,
        -0.351354957,
        -0.106623471,
        -0.284477949,
        0.359933376,
        -0.173165977,
        0.224261746,
        -0.122734606,
        -0.262505174,
        -0.3425417,
        0.243743286,
        -0.14969641,
        -0.103438318,
        0.434035182,
        -0.04948908,
        -0.1600582,
        0.0559309125,
        0.113898456,
        0.2454227,
        -0.394920945,
        0.00529426336,
        -0.24597913,
        0.1678041
      ],
      "biasesFlat": [
        -0.4938233,
        0.0294232965,
        0.155246958,
        -0.1805976,
        0.3848977,
        0.104375184,
        0.110983193,
        -0.378681779,
        0.278061271,
        0.111301363,
        -0.3244468,
        0.293347239,
        -0.22453779,
        0.251663685,
        -0.07226759,
        0.3558985,
        -0.138753355,
        0.303504467,
        -0.470389366,
        -0.07514316,
        -0.08429748,
        -0.452187777,
        0.123161733,
        0.321899652,
        -0.109634936,
        -0.444200277,
        0.0407959819,
        -0.08370215,
        -0.4961059,
        0.320168972,
        -0.217123449,
        -0.144632161,
        -0.103841007,
        0.3374653,
        -0.191809118,
        -0.3531177,
        0.334853768,
        0.179596409,
        -0.49786377,
        0.106617033,
        0.152900562,
        0.221005186,
        -0.377634168,
        0.163293466
      ],
      "weightShapes": [
        16,
        10,
        16,
        16,
        2,
        16
      ],
      "biasShapes": [
        10,
        16,
        16,
        2
      ]
    },
    {
      "layers": [
        10,
        16,
        16,
        2
      ],
      "weightsFlat": [
        -0.118911684,
        -0.04988891,
        0.195014223,
        -0.4618417,
        -0.0296478868,
        0.141442284,
        0.342344046,
        0.3890251,
        -0.374524117,
        -0.205534875,
        0.36236763,
        -0.120132864,
        0.247374877,
        0.355003357,
        0.4805566,
        0.224530682,
        0.220770463,
        -0.146764815,
        -0.06416708,
        -0.35149765,
        0.208204731,
        0.186796054,
        -0.287189841,
        -0.271895051,
        -0.0475251079,
        -0.305051327,
        -0.3803587,
        0.158195481,
        -0.486845732,
        -0.0482752919,
        0.366186857,
        -0.334124684,
        -0.162171423,
        -0.451957464,
        0.428650856,
        0.141343459,
        0.092751205,
        0.115699708,
        -0.2989521,
        0.332402468,
        0.170627818,
        0.4202658,
        0.114502728,
        -0.0242055058,
        0.23325108,
        0.3125049,
        0.203927621,
        -0.4431864,
        0.1275507,
        0.24172996,
        -0.268915772,
        0.009215534,
        -0.3705405,
        0.07222897,
        -0.169043839,
        0.0629515052,
        -0.331362,
        -0.08986169,
        -0.231961071,
        -0.307494283,
        -0.324950218,
        0.4728341,
        0.31474185,
        0.108551562,
        0.0351708531,
        -0.0366483331,
        0.231218323,
        0.10711509,
        0.34087646,
        -0.2936287,
        0.020337522,
        -0.333100915,
        -0.337896228,
        -0.456796885,
        0.08411986,
        0.359191179,
        -0.0491631627,
        0.367084146,
        0.0965140462,
        0.0730901361,
        0.275425315,
        -0.443163753,
        -0.128169239,
        -0.4846102,
        -0.001501143,
        -0.363652229,
        -0.346637368,
        0.3772943,
        -0.0299704671,
        0.199478969,
        0.134063825,
        0.184610829,
        0.3555988,
        0.489745021,
        -0.0307455659,
        -0.234838784,
        -0.0764398,
        0.442836881,
        0.009293497,
        0.06253594,
        -0.375402927,
        0.4009291,
        -0.437000036,
        -0.3739109,
        -0.1940828,
        0.2632749,
        -0.0728792548,
        0.493042827,
        0.06324071,
        0.251460671,
        -0.09871572,
        -0.254583,
        0.0957759,
        -0.3434564,
        -0.168945372,
        0.1162433,
        0.288217783,
        0.107786715,
        0.469765067,
        0.116538584,
        0.2014923,
        -0.22939533,
        0.1794964,
        -0.14533335,
        -0.130484521,
        -0.13513118,
        -0.127402961,
        -0.422590971,
        0.466117024,
        0.4974568,
        0.0209506154,
        -0.470260739,
        -0.3391751,
        -0.457158923,
        0.0694268346,
        0.036950767,
        -0.309659243,
        -0.242916048,
        -0.413433671,
        0.40073812,
        0.326788068,
        0.03717071,
        -0.400658369,
        0.342730284,
        0.147019848,
        0.15069662,
        -0.319834948,
        -0.3945446,
        0.3726164,
        -0.42753768,
        0.16802,
        0.03159517,
        0.3628757,
        0.09814018,
        0.220102534,
        0.2996409,
        -0.246442139,
        -0.2492072,
        0.2621361,
        0.210846528,
        0.208160624,
        -0.495483637,
        0.0855971,
        0.3561325,
        -0.4041108,
        0.286283851,
        0.3358314,
        0.2992437,
        -0.4103316,
        -0.175691426,
        0.178099021,
        -0.465037465,
        -0.0208469033,
        -0.3282938,
        -0.4868045,
        -0.3070215,
        0.464485049,
        -0.3201213,
        -0.499516845,
        -0.42501688,
        -0.0517653823,
        -0.00556725264,
        0.121631682,
        0.009576261,
        -0.20922333,
        0.301739216,
        -0.279072642,
        -0.3660289,
        0.411559343,
        0.0442948937,
        -0.241842568,
        -0.0885767341,
        -0.173222363,
        -0.329507351,
        -0.1578713,
        -0.37392807,
        -0.428727269,
        0.296658516,
        0.009269893,
        -0.3938526,
        0.228782162,
        0.173019513,
        -0.002218783,
        0.421569,
        -0.000855147839,
        0.294195175,
        0.205656156,
        -0.2604369,
        -0.232506216,
        0.315389752,
        -0.383934975,
        0.146249518,
        0.399509668,
        -0.05174178,
        -0.20194751,
        -0.379236817,
        -0.04589182,
        0.232973322,
        -0.19254607,
        -0.294677377,
        0.120648444,
        -0.422815681,
        0.097153604,
        0.144204482,
        -0.331783533,
        -0.178897917,
        -0.008730233,
        0.1652702,
        -0.132214367,
        -0.007043183,
        0.258886576,
        -0.164959013,
        0.0390948653,
        -0.309852123,
        0.168469772,
        -0.233171165,
        -0.460152745,
        -0.497834921,
        -0.197177947,
        -0.03221017,
        -0.218092024,
        0.0464563966,
        0.308243155,
        -0.1914739,
        0.442189455,
        -0.235130847,
        0.33039844,
        0.161779627,
        -0.009641111,
        -0.0239982,
        0.08555657,
        0.4431008,
        -0.208494365,
        -0.0236281753,
        0.233887658,
        0.399703383,
        -0.3697666,
        -0.240732014,
        -0.494203925,
        0.190564379,
        -0.172108233,
        -0.495601773,
        0.33324635,
        -0.101627409,
        0.0991084,
        0.311416268,
        0.0986748338,
        -0.383494854,
        0.057523787,
        0.08524507,
        -0.24550432,
        0.0156362653,
        0.43704772,
        -0.445339918,
        -0.0993787646,
        0.07345599,
        -0.07007271,
        -0.122999251,
        0.2842245,
        -0.207149208,
        0.373017073,
        0.1540501,
        0.0516369939,
        0.00165694952,
        -0.494246721,
        0.216773018,
        -0.29822576,
        0.444011331,
        0.224302158,
        0.133314475,
        -0.393229365,
        -0.2747929,
        0.124619663,
        0.493754148,
        0.4382161,
        0.370151043,
        -0.358939767,
        -0.01995176,
        0.144931063,
        -0.0830737948,
        -0.36944747,
        0.06438416,
        0.166343674,
        -0.3129815,
        0.214520916,
        -0.0193806291,
        -0.104020774,
        -0.194547355,
        0.0296735168,
        -0.04977852,
        0.3027352,
        -0.112218082,
        -0.293801785,
        -0.2763344,
        -0.139564335,
        0.235129341,
        0.273149,
        0.4594282,
        -0.387913585,
        -0.378937721,
        -0.195047915,
        -0.296108723,
        -0.423629642,
        -0.05430776,
        -0.139307678,
        0.1448934,
        -0.461233258,
        0.4627397,
        0.294443727,
        0.08806628,
        -0.43837,
        -0.460873723,
        0.241221055,
        0.1433798,
        -0.056319654,
        0.355113268,
        -0.3520137,
        -0.0232509971,
        0.219498023,
        0.405341625,
        0.185214624,
        -0.0792127252,
        0.0611420274,
        0.125781879,
        0.05613643,
        -0.465407133,
        -0.110140026,
        -0.432696342,
        0.002097547,
        0.1447091,
        0.348578334,
        0.196656451,
        0.190044746,
        -0.150621355,
        0.382832885,
        0.400819659,
        0.284012675,
        0.3795135,
        0.146189556,
        -0.136200488,
        -0.396043181,
        -0.155388176,
        0.0426539779,
        0.4651761,
        -0.252978325,
        -0.400605559,
        0.444145441,
        -0.180643976,
        -0.481609821,
        0.06302434,
        0.00751692057,
        -0.136811316,
        -0.183135569,
        0.329913974,
        0.271332145,
        0.298241973,
        -0.2775873,
        -0.26091516,
        -0.202807367,
        0.109101951,
        -0.480714083,
        0.422587276,
        0.481986761,
        0.0223740935,
        0.208750948,
        -0.181386411,
        0.0424044728,
        0.01699251,
        -0.372589946,
        -0.266616821,
        -0.222508013,
        -0.4499184,
        -0.0506253839,
        -0.408778667,
        -0.0593045354,
        0.361742973,
        0.00024741888,
        0.24589704,
        0.4362017,
        -0.428430676,
        -0.0591656566,
        -0.273519754,
        0.3110423,
        -0.408146143,
        0.112669885,
        -0.0271059871,
        -0.242232144,
        -0.3495401,
        -0.389693737,
        -0.348970532,
        0.009590805,
        0.3539188,
        0.218762144,
        0.172612533,
        0.360296369,
        -0.375067472,
        0.410768747,
        -0.17720288,
        -0.318251848,
        -0.0192713141,
        0.232865557,
        0.3707732,
        -0.210235417,
        -0.493513346,
        0.030354321,
        0.317602515,
        -0.43613553,
        -0.225258529,
        -0.424526572,
        -0.364521265,
        0.09884852,
        0.232305512,
        0.154050812,
        -0.049028933,
        0.151613936,
        -0.260944,
        -0.0293589234,
        -0.3662094,
        -0.332325339,
        0.07537204,
        0.0660980344,
        -0.0302508473,
        0.0906313062,
        -0.3476163,
        -0.3144921,
        -0.4155606,
        0.04807955,
        0.323097467
      ],
      "biasesFlat": [
        0.08857435,
        0.09015745,
        0.126718983,
        -0.242170513,
        0.14536725,
        0.356814981,
        -0.237590134,
        -0.220189035,
        -0.289872646,
        0.443033338,
        -0.02674061,
        0.4736514,
        0.135208473,
        0.270516753,
        0.125384554,
        0.219113335,
        0.487586021,
        0.307629347,
        -0.132112086,
        0.0326983333,
        -0.3760419,
        -0.1954909,
        0.09760207,
        -0.118806183,
        -0.112723649,
        -0.228519261,
        0.2275617,
        0.239552364,
        0.403816938,
        0.2288755,
        0.06848186,
        0.365970969,
        0.09476727,
        -0.307026625,
        0.0515043139,
        0.2101656,
        0.341612458,
        0.3581152,
        0.165434346,
        -0.17518276,
        0.278641224,
        0.265791178,
        -0.397913337,
        -0.348680019
      ],
      "weightShapes": [
        16,
        10,
        16,
        16,
        2,
        16
      ],
      "biasShapes": [
        10,
        16,
        16,
        2
      ]
    },
    {
      "layers": [
        10,
        16,
        16,
        2
      ],
      "weightsFlat": [
        -0.108072937,
        0.0931462646,
        -0.373621821,
        -0.356898427,
        0.4833511,
        0.185166582,
        -0.0684708953,
        0.334921837,
        0.176479563,
        0.470479846,
        0.164642677,
        -0.250263453,
        0.461395979,
        0.405562878,
        -0.045201838,
        -0.300120115,
        -0.0141453147,
        0.157601222,
        3.31997871E-05,
        0.4373864,
        0.125906453,
        0.485623,
        -0.3179537,
        -0.253024578,
        -0.291524172,
        0.3945998,
        -0.08652192,
        -0.151082933,
        -0.016727984,
        -0.00508409739,
        -0.463368177,
        -0.1724295,
        0.4650439,
        0.08637053,
        -0.0044798255,
        -0.1607402,
        -0.3338424,
        -0.261742115,
        -0.183662236,
        0.4268049,
        0.171696767,
        0.0749385953,
        -0.213428915,
        -0.3698058,
        0.148512349,
        0.448209763,
        -0.102931321,
        -0.499071836,
        0.327044129,
        0.0305604339,
        -0.396970034,
        0.484625459,
        -0.339940548,
        -0.385359883,
        -0.478678823,
        -0.209757268,
        0.460944176,
        0.4488274,
        -0.1902445,
        -0.293889046,
        -0.3698784,
        0.467725039,
        -0.3052752,
        -0.0362353921,
        -0.466344953,
        0.104052484,
        -0.2794901,
        0.0366011262,
        0.202375278,
        0.487249017,
        0.362398028,
        0.150145039,
        -0.0676355958,
        0.296015382,
        -0.386474371,
        -0.32549572,
        0.106951416,
        -0.128851354,
        -0.009349287,
        0.4095949,
        0.239278659,
        -0.336902738,
        0.447866917,
        0.308011651,
        -0.3794812,
        -0.348155022,
        -0.1343587,
        -0.497344136,
        -0.0383457541,
        0.268012524,
        -0.203578889,
        0.0368685126,
        -0.290680051,
        -0.169373691,
        -0.284457564,
        0.136107787,
        0.492816329,
        -0.263295531,
        0.291329741,
        -0.203563631,
        -0.246776879,
        0.10100168,
        0.2875483,
        -0.308275819,
        0.147480473,
        -0.243464887,
        -0.0342158675,
        0.0829975,
        0.1420723,
        0.123985708,
        0.188322529,
        -0.437799335,
        0.09428853,
        0.4136771,
        -0.262574434,
        0.204919562,
        0.158614859,
        -0.10037452,
        -0.418846965,
        0.365152478,
        -0.459644079,
        0.311756968,
        0.256000519,
        -0.0120590329,
        -0.0465429425,
        0.0200081468,
        -0.4220128,
        -0.111248076,
        -0.3973087,
        -0.460223675,
        -0.08754486,
        -0.3452816,
        -0.392989635,
        0.388311625,
        -0.119425833,
        0.192029461,
        -0.34669292,
        -0.0983513,
        0.265339136,
        -0.298361182,
        0.49395752,
        0.464767456,
        -0.3566904,
        -0.390490651,
        0.499446869,
        0.394305944,
        -0.07220703,
        0.373491526,
        0.03402537,
        -0.0475154519,
        -0.442691684,
        -0.195119679,
        0.3266127,
        0.405217648,
        0.142284259,
        0.434613824,
        0.428944,
        0.0384071469,
        -0.3529185,
        0.03880042,
        -0.09157902,
        -0.003721416,
        -0.141728818,
        0.164077863,
        0.2644503,
        -0.354120016,
        -0.350363731,
        0.3904817,
        0.37929976,
        0.06535572,
        0.1563934,
        0.372490168,
        0.12125057,
        0.1396861,
        0.101745665,
        0.349542022,
        -0.2783854,
        -0.2835188,
        -0.09533185,
        0.07553631,
        0.144146189,
        0.353336573,
        -0.242195427,
        -0.463482738,
        0.113304675,
        -0.483857036,
        0.241041765,
        -0.173384964,
        -0.217162669,
        0.3785212,
        0.0899665952,
        -0.38153708,
        -0.0579716563,
        -0.350844383,
        0.1392784,
        -0.453196526,
        -0.4570874,
        -0.14422971,
        0.206631646,
        -0.0141889453,
        0.198377833,
        0.313356161,
        0.383141875,
        0.10182029,
        0.281563044,
        0.312284946,
        0.183924779,
        0.156295761,
        0.407526255,
        0.175033078,
        0.009354174,
        -0.3000263,
        -0.0966938138,
        0.2369114,
        -0.19449538,
        -0.3306322,
        0.407824039,
        0.39324832,
        -0.210273683,
        -0.4717896,
        -0.337525249,
        0.0420137048,
        0.237449512,
        0.05617243,
        -0.121589959,
        0.105458319,
        0.02366215,
        0.0604547858,
        0.0817697644,
        0.3701563,
        -0.457858324,
        0.169221744,
        0.459231734,
        0.471946359,
        0.488732219,
        -0.07962495,
        0.4722551,
        0.255967021,
        0.456089735,
        -0.193774879,
        0.355448961,
        0.386275172,
        -0.204885066,
        0.0178738236,
        0.413408518,
        -0.126743376,
        -0.28429985,
        0.1898744,
        -0.246062934,
        -0.299200058,
        0.0255709291,
        -0.4466821,
        0.0303320289,
        0.00646489859,
        0.235731825,
        0.355996847,
        0.07012051,
        0.267960548,
        -0.132952034,
        -0.43048346,
        -0.388884425,
        -0.165417135,
        0.322059751,
        -0.4240136,
        -0.0230538249,
        0.472821951,
        -0.487864017,
        0.207395419,
        0.07630116,
        -0.125085533,
        0.03838557,
        -0.472576737,
        0.451767564,
        -0.144790232,
        0.332556,
        0.07691318,
        0.1898198,
        -0.416066766,
        0.193868384,
        0.0962376,
        -0.3462894,
        0.194804534,
        -0.3393017,
        0.4883343,
        -0.0540635,
        0.000113427639,
        0.40237844,
        0.149142131,
        -0.3430351,
        -0.442250729,
        -0.448638916,
        0.0140445828,
        -0.1906076,
        -0.26255703,
        0.316091537,
        -0.07640654,
        0.0430554748,
        -0.179118574,
        0.271914124,
        -0.3364315,
        0.227164373,
        0.0711634755,
        -0.223500431,
        -0.481043577,
        0.222044811,
        0.225599751,
        0.251506567,
        0.421518564,
        0.29836154,
        -0.03828746,
        -0.432481647,
        0.172208175,
        -0.102375686,
        -0.1357289,
        -0.147008836,
        0.4446262,
        -0.337813735,
        0.025385797,
        0.178622112,
        0.172304258,
        0.437393546,
        -0.137877047,
        -0.3351705,
        -0.467244029,
        -0.384027481,
        0.004915178,
        0.40207243,
        -0.1558091,
        0.4696628,
        0.313330531,
        -0.387114525,
        0.173700675,
        0.233786926,
        -0.429779649,
        0.287585139,
        0.151547059,
        -0.351574063,
        0.0675513148,
        0.4908756,
        -0.137264788,
        -0.300271869,
        0.02702874,
        -0.0708707,
        0.2698567,
        -0.355440736,
        0.452644229,
        -0.183682621,
        -0.026519835,
        0.2993542,
        -0.381649852,
        0.189175233,
        -0.249003708,
        0.0460085273,
        -0.169967234,
        -0.0448737741,
        -0.09408015,
        0.269868851,
        -0.293023944,
        0.422124863,
        0.180347189,
        0.166293725,
        0.31123817,
        -0.124734581,
        -0.307754159,
        0.473635077,
        -0.292349577,
        -0.453128338,
        -0.0262714028,
        0.292829752,
        0.477270722,
        -0.07693964,
        -0.334635019,
        0.0499584079,
        -0.4015783,
        0.328891158,
        0.14066945,
        -0.0952208638,
        -0.241009653,
        -0.4386015,
        0.2706617,
        -0.353064179,
        0.462270856,
        0.3511138,
        0.486780047,
        0.473876476,
        -0.381428719,
        0.109366953,
        -0.150365531,
        0.432890534,
        0.0310049653,
        -0.368964672,
        -0.04886967,
        0.123264253,
        -0.495434046,
        0.432177663,
        -0.0454840064,
        -0.0511621833,
        -0.182531416,
        -0.298102856,
        0.371417284,
        -0.46148634,
        0.05473405,
        0.221360549,
        0.0717770457,
        -0.452534556,
        -0.336153865,
        0.211159214,
        0.187367186,
        -0.09647626,
        0.178234443,
        0.009687841,
        0.2537111,
        -0.3202747,
        -0.140555084,
        -0.238073528,
        -0.42931962,
        0.198386773,
        -0.3785391,
        -0.1565296,
        -0.109919727,
        0.3991089,
        0.4976219,
        -0.3642032,
        -0.485074162,
        -0.212764442,
        -0.0929563642,
        0.134036526,
        -0.07654184,
        0.104626596,
        -0.135868728,
        0.342878819,
        -0.492844343,
        -0.431523561,
        -0.449249148,
        0.437396884,
        -0.00691324472,
        -0.33242774,
        0.221868739,
        0.4214821,
        0.0551496148,
        0.0302861333,
        0.194938049,
        -0.08558816,
        0.453269124,
        0.296527267,
        0.137484655,
        -0.238468587,
        0.323374271
      ],
      "biasesFlat": [
        0.498222947,
        -0.04899746,
        0.134379968,
        -0.0409446359,
        0.406139731,
        -0.423912764,
        -0.474650979,
        0.357896566,
        0.333770037,
        0.247944459,
        0.323716879,
        -0.4276718,
        0.450012565,
        0.2783836,
        -0.244792521,
        -0.2536174,
        0.091273725,
        -0.0901959538,
        -0.475297332,
        0.08100754,
        -0.07799631,
        -0.3528329,
        -0.366695642,
        -0.08345777,
        -0.273447633,
        -0.3133719,
        0.437660933,
        -0.445456862,
        0.165449008,
        -0.3108847,
        -0.415349722,
        -0.243283927,
        0.03294784,
        -0.435063481,
        -0.4359162,
        0.08369619,
        0.101118743,
        0.167689785,
        -0.41866076,
        -0.165911019,
        0.486479282,
        -0.1483652,
        0.3534621,
        -0.444057226
      ],
      "weightShapes": [
        16,
        10,
        16,
        16,
        2,
        16
      ],
      "biasShapes": [
        10,
        16,
        16,
        2
      ]
    },
    {
      "layers": [
        10,
        16,
        16,
        2
      ],
      "weightsFlat": [
        0.251860857,
        0.316414237,
        -0.103715241,
        -0.016959846,
        -0.0924301744,
        -0.0367340446,
        -0.3343134,
        0.061686933,
        -0.200379312,
        0.357400417,
        0.3122288,
        0.309576273,
        0.2679038,
        0.161544427,
        0.112494767,
        -0.478887916,
        0.219017491,
        -0.278030634,
        -0.3770573,
        -0.09831542,
        -0.33235693,
        -0.478705645,
        0.213019833,
        0.120185316,
        -0.4332862,
        0.02157563,
        0.0285994411,
        -0.09864098,
        -0.483085155,
        0.334454179,
        -0.142285049,
        -0.441276073,
        0.135452017,
        -0.03026253,
        0.158690557,
        0.111572921,
        -0.226403177,
        -0.454480171,
        0.476225972,
        0.117792785,
        -0.2670033,
        0.39738965,
        0.03251034,
        0.209647879,
        0.130474791,
        0.005556643,
        -0.2856524,
        -0.486780882,
        0.4216447,
        -0.08593267,
        0.3154689,
        0.2502339,
        0.08882159,
        0.165722832,
        0.105371892,
        -0.172096789,
        0.313012958,
        -0.176060021,
        -0.2718668,
        0.405961037,
        0.366241574,
        -0.13747865,
        0.07855803,
        -0.2883445,
        0.3755592,
        -0.119369805,
        -0.276716,
        -0.105236232,
        -0.402410626,
        0.377928376,
        -0.1097551,
        -0.00373417139,
        0.42961812,
        -0.0271268487,
        -0.245506823,
        0.379156947,
        0.07161754,
        0.4490254,
        -0.210285008,
        -0.09721416,
        0.286786675,
        -0.1347943,
        0.193247065,
        0.40275383,
        -0.202467024,
        0.031899035,
        -0.4800799,
        0.16336678,
        -0.202663839,
        -0.340980768,
        0.310673952,
        -0.345712662,
        0.09047586,
        0.0192142129,
        0.03308183,
        -0.246867359,
        -0.4749061,
        -0.189009488,
        -0.0352763534,
        -0.01017946,
        0.06258315,
        -0.115208566,
        -0.2659601,
        0.448931217,
        -0.250365257,
        0.404841065,
        -0.381320357,
        0.29697597,
        0.391011477,
        -0.261193633,
        -0.175207555,
        -0.445035577,
        0.0767928958,
        0.394038677,
        0.29794085,
        -0.21114856,
        0.3523736,
        -0.103961289,
        -0.303948164,
        -0.08872098,
        -0.241505325,
        -0.291179061,
        0.0563358665,
        0.474998832,
        0.0586097836,
        0.494672656,
        -0.3273188,
        0.283617139,
        -0.0219023824,
        0.2732128,
        0.19107829,
        0.169103846,
        -0.138008654,
        -0.437320352,
        0.129329786,
        0.353714228,
        -0.212066948,
        0.456878781,
        0.142983183,
        -0.09923464,
        0.489144564,
        0.361913085,
        -0.108451784,
        -0.06861466,
        -0.125686824,
        0.313339949,
        -0.263517261,
        0.249467954,
        -0.108990252,
        -0.4959283,
        -0.0908137,
        0.2127391,
        -0.126980364,
        -0.09022516,
        -0.339035273,
        -0.0237836242,
        0.0534387231,
        -0.1442079,
        -0.0377923846,
        -0.288553,
        -0.249183,
        -0.4554839,
        0.0829110742,
        0.156914815,
        -0.00176781416,
        0.0258832574,
        0.021784246,
        0.2610743,
        0.4112605,
        -0.214273036,
        -0.282420874,
        0.207451567,
        0.0938171744,
        -0.146487653,
        0.266996145,
        -0.1039173,
        0.472371936,
        0.286468267,
        0.08116907,
        -0.2082246,
        0.0196436048,
        0.155860767,
        0.462231636,
        0.161206588,
        0.172763214,
        0.3153299,
        -0.3910898,
        -0.07583672,
        -0.0260890126,
        -0.470745683,
        0.210857615,
        0.06654793,
        -0.155114353,
        -0.4867543,
        0.398286223,
        -0.0217357278,
        -0.12771982,
        -0.254932284,
        0.09645134,
        0.335818172,
        0.162555084,
        -0.05869478,
        0.132943735,
        -0.165339053,
        -0.153236687,
        -0.107019007,
        -0.180765808,
        0.416583776,
        -0.297763467,
        -0.2034319,
        -0.108342588,
        -0.223489463,
        0.351592183,
        -0.242212474,
        -0.005772531,
        0.25110805,
        0.250537634,
        0.463061333,
        0.112919509,
        -0.1060999,
        -0.4106269,
        -0.360871315,
        -0.449700832,
        0.0696165,
        0.473634243,
        -0.05194217,
        0.192241892,
        0.35457015,
        -0.02364105,
        0.339500546,
        -0.234539926,
        -0.4175248,
        -0.3775531,
        -0.155568421,
        -0.169202149,
        -0.137942612,
        0.278380036,
        -0.135917127,
        -0.1683926,
        0.399412751,
        -0.305407524,
        0.196899757,
        0.340381742,
        0.349573374,
        0.287118435,
        0.476878047,
        0.30390358,
        -0.0947833657,
        -0.416580081,
        0.158170208,
        0.155655846,
        -0.215004027,
        0.278744817,
        0.288335681,
        -0.292002916,
        -0.161089,
        0.441577077,
        -0.276179552,
        -0.496334672,
        -0.3371513,
        -0.0877015,
        -0.3912121,
        0.031730473,
        -0.4272343,
        0.250087976,
        -0.04291755,
        0.408620477,
        0.465675235,
        -0.12979728,
        0.240140423,
        -0.4999764,
        -0.262883663,
        -0.253972173,
        0.1728531,
        -0.358636022,
        0.111072481,
        -0.479842782,
        0.152905568,
        0.288626075,
        -0.251458049,
        0.3195747,
        0.4287933,
        -0.258591652,
        0.1361215,
        -0.008916199,
        0.08090848,
        -0.111214936,
        0.440822363,
        -0.1877113,
        -0.0622455478,
        -0.356459618,
        -0.0252375,
        -0.2476303,
        0.207272992,
        0.2572862,
        0.2855562,
        -0.1353175,
        -0.292265415,
        0.210627422,
        -0.0960467458,
        0.0123342872,
        -0.247703612,
        0.0227126479,
        0.3526156,
        -0.327358723,
        -0.0520165563,
        0.3733648,
        -0.4683329,
        -0.416123271,
        0.401205778,
        0.147946939,
        0.3301735,
        0.431767583,
        -0.327977419,
        0.3489648,
        0.234067783,
        0.157993183,
        0.423591852,
        0.231884345,
        0.424694777,
        -0.229738772,
        0.218896136,
        0.410464525,
        0.265312433,
        -0.3581164,
        -0.0616247058,
        -0.387574553,
        0.4441719,
        0.334108472,
        0.495133519,
        -0.443636179,
        0.114536822,
        -0.06119746,
        -0.289206743,
        0.191790923,
        -0.4644457,
        -0.0415448546,
        0.29867816,
        -0.189257562,
        -0.391183257,
        -0.196589768,
        -0.4649067,
        0.4915402,
        0.3068583,
        -0.088567555,
        -0.358385444,
        0.102905691,
        0.12663506,
        -0.101595104,
        0.0206387639,
        -0.4906366,
        -0.059034884,
        -0.07665497,
        0.489475846,
        -0.09750408,
        0.140768036,
        -0.427348971,
        0.113976061,
        0.323624,
        0.4100318,
        0.03378004,
        0.238982543,
        -0.0199822783,
        0.460024,
        -0.310122848,
        0.4092424,
        -0.0901053548,
        0.460494876,
        -0.39474225,
        -0.398013234,
        -0.3546158,
        -0.2231453,
        -0.289082885,
        0.279158115,
        0.202790365,
        -0.0195242763,
        0.169869527,
        -0.09187442,
        -0.0509479642,
        0.2703309,
        0.3419093,
        0.121967852,
        0.123825252,
        -0.17579478,
        0.364959955,
        -0.154948771,
        -0.179740727,
        -0.291913748,
        -0.2162618,
        0.0751240849,
        -0.202022135,
        0.3133241,
        -0.25607264,
        -0.259277344,
        0.413569927,
        -0.305733562,
        0.415815353,
        0.463930964,
        0.232673988,
        -0.04947442,
        0.0255733132,
        -0.387063146,
        -0.139177859,
        0.0967161059,
        -0.0106689334,
        0.0379883647,
        0.479896426,
        0.0927618146,
        -0.266589642,
        0.05400008,
        -0.414534926,
        -0.223529518,
        0.325358152,
        -0.366850972,
        0.147031769,
        0.414549351,
        -0.161397636,
        0.122318804,
        0.350482583,
        -0.04788941,
        -0.308211446,
        -0.15158087,
        0.466119528,
        -0.280068278,
        0.393737674,
        -0.363545418,
        0.07847422,
        -0.302433968,
        0.234713539,
        0.492617249,
        0.13294588,
        0.201822624,
        -0.246939361,
        0.1435151,
        -0.348695278,
        0.08915216,
        0.127714977,
        -0.4824984,
        -0.111627519,
        -0.328701258,
        0.3048408,
        -0.396664023,
        0.230708823,
        0.4367069,
        -0.268584847,
        -0.06593984,
        0.421954632,
        -0.314748049
      ],
      "biasesFlat": [
        -0.257632375,
        0.280008674,
        0.3764435,
        -0.370814085,
        -0.382804275,
        0.4535836,
        -0.0054076314,
        -0.442777872,
        -0.05543846,
        -0.399992347,
        -0.326555252,
        0.464985967,
        0.0450939536,
        -0.4094844,
        -0.185560048,
        0.06028551,
        0.133504733,
        0.09766787,
        -0.394623637,
        -0.173269331,
        0.240435347,
        0.0665608048,
        0.260376453,
        0.287196875,
        -0.282993674,
        -0.459911823,
        -0.06880897,
        -0.211599052,
        -0.457324743,
        -0.42869854,
        0.145106778,
        -0.0191404223,
        -0.3530929,
        0.302426338,
        0.309770346,
        -0.3084426,
        -0.222992957,
        0.380668521,
        0.407671571,
        0.008968055,
        0.18298839,
        0.473001957,
        -0.300168872,
        -0.1153577
      ],
      "weightShapes": [
        16,
        10,
        16,
        16,
        2,
        16
      ],
      "biasShapes": [
        10,
        16,
        16,
        2
      ]
    },
    {
      "layers": [
        10,
        16,
        16,
        2
      ],
      "weightsFlat": [
        -0.4949814,
        0.203166708,
        0.486995339,
        -0.477407217,
        0.331096053,
        -0.298467159,
        0.466611147,
        0.242089257,
        -0.08799738,
        0.0547121167,
        0.298939943,
        0.282575846,
        0.17788206,
        0.222004637,
        0.403218746,
        -0.11290735,
        0.07505649,
        0.1782869,
        0.4765693,
        0.487064,
        0.412735581,
        0.0478045344,
        -0.143464744,
        0.114464343,
        -0.378065825,
        0.07041353,
        0.0824872851,
        0.116300285,
        0.452373862,
        -0.426817179,
        -0.102514327,
        -0.107718289,
        0.4144628,
        -0.130727232,
        0.280336618,
        0.03202027,
        0.0224660039,
        -0.20620662,
        -0.241770089,
        0.0263770223,
        0.0243863463,
        -0.149748027,
        -0.238946378,
        0.22867845,
        -0.286604762,
        -0.383548021,
        0.025695622,
        0.169923052,
        0.299589872,
        0.0601863265,
        -0.413771749,
        0.09243399,
        0.121818006,
        -0.345835924,
        0.0926711,
        -0.160923064,
        0.143338427,
        0.0981285,
        0.366135478,
        0.42407012,
        -0.216444314,
        0.391931653,
        -0.3805883,
        0.442765117,
        0.3277074,
        0.42933476,
        -0.3599888,
        -0.219202459,
        -0.3288864,
        0.111350596,
        -0.300941229,
        -0.341148973,
        0.27658236,
        -0.237549365,
        0.0564118028,
        -0.268805385,
        0.0217521787,
        0.0516049266,
        0.02885753,
        0.163012013,
        -0.295192719,
        0.448104382,
        0.339480519,
        -0.4881606,
        0.105700076,
        0.322142,
        0.3191229,
        -0.0517318845,
        -0.431774855,
        0.22763513,
        0.214457139,
        -0.496294856,
        0.490945816,
        0.24697803,
        0.371284842,
        0.327453732,
        -0.006886184,
        0.4565134,
        -0.162397921,
        0.253620625,
        0.4602257,
        0.447100282,
        0.264533281,
        -0.281728864,
        -0.4348985,
        -0.3245269,
        0.292007446,
        0.3905759,
        0.347064137,
        -0.164006174,
        0.1907079,
        0.297152162,
        -0.478571534,
        -0.388528228,
        -0.0483837724,
        0.494825721,
        -0.145936072,
        0.3242451,
        0.127944931,
        -0.0903388858,
        -0.377293468,
        -0.12377125,
        -0.429852843,
        -0.2345168,
        -0.155064046,
        0.17895864,
        -0.12514025,
        0.20465146,
        -0.46561408,
        -0.43064785,
        -0.4114921,
        -0.3280685,
        0.0449976325,
        0.178878412,
        -0.427152753,
        0.196180686,
        -0.05958563,
        0.4081601,
        0.219089016,
        -0.334793925,
        -0.3059306,
        -0.462206841,
        0.285553932,
        -0.4663477,
        0.199737176,
        0.357089877,
        -0.467992067,
        0.06638235,
        -0.0439828038,
        0.3853892,
        -0.330408931,
        0.221074685,
        0.1671891,
        -0.343492031,
        -0.0404198766,
        -0.227694809,
        0.353965282,
        -0.408918738,
        0.445133924,
        -0.02025479,
        0.00698941946,
        0.3507545,
        0.3207351,
        -0.200788438,
        0.43730092,
        -0.395409584,
        -0.09981018,
        -0.4828999,
        0.450320482,
        0.0318120122,
        0.23875998,
        0.05883473,
        -0.275596738,
        -0.397218347,
        0.2373216,
        -0.4400946,
        -0.185805976,
        -0.166119039,
        -0.168509066,
        0.119867384,
        0.315730572,
        -0.114234746,
        -0.230236351,
        -0.4638127,
        0.497439027,
        0.08504361,
        -0.4843129,
        -0.0592443347,
        -0.355830431,
        0.12875329,
        0.11115104,
        0.0997496247,
        0.41574347,
        0.416011333,
        -0.3471973,
        0.460751057,
        0.403599858,
        -0.0324748158,
        0.249808416,
        -0.1277191,
        0.237999663,
        -0.3723532,
        0.308559418,
        0.234371766,
        0.1470456,
        -0.164101183,
        -0.0398654342,
        0.3673396,
        0.0551100373,
        0.355346084,
        -0.385981917,
        0.3282324,
        0.050706327,
        0.183056578,
        0.125953421,
        0.303629875,
        0.334385276,
        0.0284437537,
        -0.336412668,
        -0.370720744,
        0.228718266,
        -0.07162756,
        0.358387947,
        0.468259931,
        0.158228621,
        0.174454316,
        0.008805454,
        -0.337136149,
        -0.14517194,
        -0.0627132058,
        -0.196868479,
        0.22753261,
        -0.213879645,
        0.340540767,
        0.0628865361,
        0.394172072,
        0.402975559,
        -0.004049957,
        0.391009927,
        -0.407189,
        -0.240573585,
        0.116527617,
        0.199270114,
        -0.00209993124,
        0.429839015,
        0.128163084,
        -0.4662639,
        -0.06543213,
        -0.0472840667,
        -0.4081266,
        0.4545015,
        -0.440277338,
        -0.103662074,
        0.46402204,
        0.113383949,
        -0.367348552,
        -0.0810474753,
        -0.124584854,
        -0.04531318,
        -0.153351963,
        -0.131510675,
        -0.002527535,
        0.248843655,
        -0.187736571,
        0.147817478,
        0.0267004371,
        0.08977479,
        0.06302601,
        -0.456450582,
        -0.306776881,
        0.375239134,
        -0.49115932,
        -0.480234861,
        -0.06092173,
        -0.4697746,
        0.0305598378,
        -0.100751817,
        0.3922994,
        0.101530015,
        0.05494243,
        0.343326569,
        -0.42266202,
        -0.14985162,
        0.336581469,
        0.4913758,
        -0.264902353,
        0.130133972,
        -0.494241357,
        -0.444209218,
        -0.172772229,
        -0.12865907,
        0.111592829,
        -0.476954341,
        -0.133043587,
        0.412901759,
        0.00299209356,
        0.342194438,
        0.0603448749,
        0.202949747,
        -0.07746929,
        0.3083924,
        -0.282833457,
        -0.0648486,
        0.108209908,
        0.243233189,
        -0.379271746,
        0.122710407,
        -0.312511921,
        -0.187425554,
        0.222105131,
        -0.449988246,
        0.0477196574,
        0.216272458,
        -0.07102758,
        -0.0393705964,
        -0.08565599,
        0.0589683652,
        0.2344924,
        0.4710673,
        0.2261027,
        0.362439275,
        -0.2624234,
        -0.180369318,
        -0.00653404,
        -0.0170277953,
        -0.28807056,
        -0.242427289,
        0.473592162,
        -0.2056951,
        -0.4484861,
        0.2163708,
        -0.239227116,
        -0.336574435,
        -0.0535127521,
        0.09452027,
        0.48633337,
        0.08169383,
        -0.0293741822,
        0.147065625,
        0.118282974,
        -0.310746431,
        -0.03200525,
        -0.30308342,
        -0.149407089,
        -0.30733788,
        -0.3373847,
        0.20968698,
        0.123375356,
        0.2777629,
        0.257483125,
        -0.351966262,
        -0.4130324,
        -0.2933911,
        0.03825909,
        0.181233987,
        -0.413889766,
        0.0992561,
        -0.4154955,
        0.362223148,
        0.177699789,
        0.176720724,
        -0.190825522,
        0.147297248,
        0.204901323,
        -0.0290758014,
        -0.009023368,
        0.242471084,
        0.231209859,
        -0.2174285,
        -0.3979087,
        -0.208680928,
        -0.2959764,
        0.4157554,
        0.4962355,
        0.309907556,
        -0.00887388,
        -0.121232092,
        0.391196132,
        0.3042804,
        0.447056651,
        0.3674692,
        0.490574479,
        0.434201121,
        -0.4127102,
        -0.142192185,
        0.395001531,
        0.143192872,
        0.203394637,
        0.0366716981,
        -0.3009987,
        0.3821646,
        0.170426473,
        -0.4455018,
        0.444244862,
        -0.182395279,
        -0.2539426,
        -0.10412997,
        -0.321078181,
        0.04654962,
        -0.08505815,
        0.09125191,
        0.3649404,
        0.219112977,
        0.0998731256,
        0.148204908,
        -0.44938302,
        0.0416172147,
        0.07602185,
        -0.435186028,
        -0.203107655,
        0.212618813,
        -0.397051215,
        0.0251764655,
        0.429731131,
        0.116599619,
        -0.458327055,
        0.0326603055,
        0.0794732,
        -0.4486462,
        -0.06115967,
        0.156954274,
        -0.211789191,
        0.3586824,
        -0.114196837,
        0.234653816,
        -0.454764724,
        0.3475455,
        0.0293620229,
        -0.0168716311,
        -0.4774016,
        0.308022141,
        -0.106084883,
        -0.187055647,
        -0.490182877,
        0.0357988477,
        0.124250114,
        -0.0523440242,
        0.203786358,
        -0.00373309851,
        0.491901278,
        -0.412744522,
        -0.22183603,
        0.09367305,
        0.0443854928,
        0.186062917,
        0.446336746,
        -0.0412444472,
        0.20190464
      ],
      "biasesFlat": [
        -0.228356421,
        -0.31017077,
        -0.223111331,
        0.412977934,
        0.427559733,
        -0.202467859,
        -0.187641561,
        0.168245181,
        -0.3854314,
        0.159908876,
        0.219047412,
        0.023314178,
        -0.0556383729,
        0.3817774,
        0.411143661,
        -0.430348754,
        -0.2342419,
        0.163578734,
        0.272547126,
        0.467960238,
        0.465028644,
        0.3681445,
        -0.167316258,
        0.216882214,
        -0.176181853,
        0.255693674,
        -0.244898975,
        -0.27804327,
        0.490570784,
        -0.458456278,
        -0.3526926,
        0.244258985,
        -0.183045089,
        0.290598869,
        0.132575855,
        -0.3330078,
        0.191820011,
        0.335149765,
        0.256891727,
        0.0554514527,
        0.0340448022,
        0.488377929,
        -0.0467023253,
        -0.352795482
      ],
      "weightShapes": [
        16,
        10,
        16,
        16,
        2,
        16
      ],
      "biasShapes": [
        10,
        16,
        16,
        2
      ]
    },
    {
      "layers": [
        10,
        16,
        16,
        2
      ],
      "weightsFlat": [
        0.0931717753,
        0.460784554,
        0.331805229,
        -0.3045888,
        0.18850337,
        -0.143614471,
        -0.442310452,
        -0.210843146,
        -0.09783691,
        0.143743739,
        -0.1845234,
        0.09334463,
        -0.400231481,
        0.49811542,
        0.408427119,
        0.0614798665,
        -0.358695149,
        -0.46664834,
        0.0116243958,
        -0.437443376,
        -0.406247616,
        0.0008955598,
        -0.16743809,
        0.1347966,
        -0.211016357,
        0.4493729,
        -0.06503314,
        -0.232899964,
        0.416744471,
        -0.246415913,
        0.335424542,
        -0.122487128,
        -0.223721445,
        0.220042214,
        0.4167887,
        0.01983267,
        0.233088836,
        -0.4308735,
        -0.269385338,
        -0.362834334,
        0.108592927,
        0.132244572,
        -0.06975907,
        0.366085172,
        0.2511859,
        -0.258481264,
        -0.263526678,
        0.458034277,
        0.496473432,
        0.133020982,
        -0.168190062,
        0.307334065,
        -0.122238219,
        -0.436560154,
        -0.242680848,
        0.353430867,
        0.268854141,
        0.358940959,
        0.0234029889,
        0.0517488122,
        0.47054553,
        -0.4686668,
        -0.229446709,
        -0.181680024,
        0.3797475,
        0.077020824,
        0.372981548,
        0.2222179,
        -0.142207444,
        -0.4567541,
        -0.437624454,
        -0.208584726,
        0.0814698339,
        0.196212873,
        0.123324811,
        -0.171640337,
        0.488516569,
        0.470527768,
        -0.08838624,
        0.3292719,
        -0.07537025,
        -0.204633772,
        0.197172388,
        -0.336479664,
        -0.438454747,
        -0.4992112,
        -0.0500760674,
        -0.0124405026,
        -0.1114952,
        -0.2838117,
        -0.07838827,
        -0.0338335633,
        0.248382077,
        -0.3638997,
        0.4254086,
        0.492817521,
        -0.0188477635,
        0.4628948,
        0.07482821,
        0.331238627,
        0.0298642516,
        -0.227284133,
        -0.222713172,
        0.0657751,
        0.0339873433,
        0.355642319,
        -0.14683038,
        0.0335094333,
        -0.401548743,
        -0.4204377,
        0.150737152,
        -0.19653362,
        -0.273450851,
        0.468268752,
        0.480288029,
        -0.200750291,
        -0.09901661,
        -0.362591863,
        0.2489476,
        0.37304914,
        0.268456459,
        -0.150258362,
        0.2943194,
        -0.433041573,
        0.05773896,
        -0.2687384,
        0.497336745,
        0.323638082,
        -0.412587643,
        0.255231023,
        -0.312805057,
        0.349680066,
        -0.05605334,
        -0.03855163,
        0.1512836,
        0.112693489,
        0.390602,
        0.435398459,
        0.46369803,
        0.370320082,
        -0.043287456,
        0.0307530761,
        0.36500442,
        -0.131058753,
        0.181531772,
        -0.2783581,
        -0.156790555,
        0.0165135264,
        0.17145358,
        -0.103094995,
        0.00930482149,
        -0.4733733,
        -0.09898895,
        -0.128385484,
        -0.2789321,
        0.163534388,
        -0.00316280127,
        0.0322987437,
        -0.120670617,
        0.34995985,
        0.104021728,
        0.04960209,
        0.186892971,
        -0.118667781,
        0.4488243,
        0.3812256,
        -0.493487239,
        0.294570923,
        0.309756041,
        0.274603248,
        -0.214071572,
        -0.409439445,
        0.052955687,
        -0.4909159,
        -0.162635744,
        0.116258681,
        -0.3183316,
        0.163679942,
        -0.358912826,
        -0.119628727,
        -0.181880772,
        0.48162353,
        -0.246235311,
        0.152088985,
        -0.115658462,
        0.214158162,
        6.5267086E-05,
        -0.337965369,
        -0.324235916,
        0.07289559,
        0.328243732,
        0.494034052,
        0.083542645,
        0.122490942,
        -0.0367872119,
        0.29628706,
        -0.35758698,
        0.0269059539,
        0.454988122,
        -0.2804457,
        -0.09566182,
        0.3658607,
        0.4026965,
        0.289268374,
        -0.346060038,
        0.351604819,
        -0.3451904,
        0.491987348,
        -0.4373567,
        0.319928169,
        0.221144781,
        -0.2766651,
        -0.09210402,
        0.0236514211,
        0.349004269,
        -0.1023671,
        -0.295175433,
        0.373821378,
        -0.365609527,
        0.4708414,
        0.2211821,
        0.235405549,
        0.376036525,
        -0.347463131,
        -0.387082219,
        0.184767351,
        0.4051093,
        -0.130734742,
        -0.131817281,
        -0.231888235,
        -0.3412348,
        -0.350188375,
        -0.271124125,
        -0.348811269,
        -0.357101083,
        0.223923311,
        0.4754293,
        -0.418050766,
        0.4294672,
        -0.261968255,
        -0.148737848,
        0.171433434,
        -0.233619988,
        0.451851249,
        -0.3446231,
        0.3467846,
        0.167502508,
        0.295971155,
        -0.123720467,
        0.00677591562,
        -0.490554929,
        -0.299295068,
        0.461259365,
        0.177342162,
        0.498538375,
        0.08497542,
        0.0321195722,
        0.205970749,
        -0.0293605924,
        0.349619985,
        -0.46862793,
        0.211570486,
        0.114549339,
        0.443503857,
        -0.390723348,
        -0.07041162,
        -0.295732856,
        -0.4771731,
        0.162701949,
        -0.2109552,
        0.477278829,
        0.09206265,
        0.273926139,
        0.4604633,
        0.233936653,
        0.367772579,
        -0.363406777,
        0.471272945,
        0.2654134,
        0.385472775,
        -0.06282967,
        -0.159421623,
        0.1862881,
        -0.175599992,
        -0.0282300115,
        0.07900423,
        0.4182006,
        -0.272958279,
        0.475847244,
        -0.09181255,
        0.12214309,
        -0.06662279,
        0.142773852,
        0.268431664,
        -0.131592214,
        -0.374764323,
        0.0850157142,
        -0.100045979,
        -0.2665888,
        -0.0584953427,
        -0.308640122,
        0.065607965,
        0.381423354,
        0.1576445,
        0.198894724,
        -0.0681257844,
        -0.006406963,
        0.122306168,
        0.438605428,
        0.115899146,
        -0.329859972,
        -0.0130674243,
        0.0616477132,
        -0.405296326,
        0.0615205169,
        -0.458144546,
        0.3536135,
        0.2514727,
        -0.293150663,
        0.432555318,
        0.4439,
        0.383765221,
        0.00703793764,
        0.487946153,
        -0.168823779,
        -0.200363934,
        -0.228564918,
        0.173513517,
        0.00168389082,
        0.405041933,
        -0.0959515,
        0.245957479,
        -0.227622211,
        0.120530665,
        -0.3965901,
        -0.124805868,
        -0.12773627,
        0.340075254,
        -0.06220025,
        0.18681632,
        -0.39125,
        0.211016878,
        -0.418081522,
        -0.212048352,
        0.182435617,
        -0.4040296,
        0.223925456,
        0.224611387,
        -0.266108274,
        0.230206117,
        0.44123745,
        0.331180573,
        0.43614006,
        -0.258008361,
        -0.195006788,
        -0.240085065,
        0.3516469,
        0.199857458,
        -0.330049634,
        0.177129135,
        -0.165189922,
        -0.3608688,
        -0.25402844,
        0.32949996,
        -0.008247077,
        0.345666051,
        0.4876536,
        0.0478742719,
        0.0969947,
        0.00837642,
        -0.09611696,
        0.24382399,
        -0.451161027,
        0.373335481,
        -0.07599491,
        0.433420181,
        0.105013549,
        -0.244742572,
        0.0315204263,
        -0.201370418,
        0.07945651,
        -0.449269652,
        0.153277263,
        -0.00603526831,
        0.250934482,
        -0.119471729,
        0.0908584,
        -0.269410253,
        -0.49631846,
        -0.11364466,
        0.245433912,
        0.4400388,
        0.487878323,
        -0.401267052,
        -0.005692899,
        0.4838972,
        0.0366552472,
        0.428138137,
        0.2979015,
        -0.15981406,
        0.110282362,
        0.117718041,
        -0.052036345,
        -0.425740957,
        0.3550409,
        0.443197727,
        -0.424809217,
        -0.124319136,
        -0.435254455,
        -0.497993231,
        -0.207208574,
        -0.471704245,
        0.462154627,
        -0.152762115,
        0.456467032,
        -0.112366736,
        -0.0198583,
        -0.180564821,
        -0.441172,
        -0.383170128,
        0.260403156,
        -0.15598923,
        -0.161623538,
        -0.196698487,
        0.0334941745,
        -0.269884467,
        0.4937904,
        -0.07490128,
        0.421708584,
        0.444189548,
        -0.09298676,
        0.32069695,
        -0.0543161035,
        -0.09460503,
        -0.335018039,
        -0.403903961,
        -0.115187466,
        -0.4620371,
        -0.338644981,
        0.164579615,
        0.122106135,
        -0.450183749,
        0.103337467,
        0.234346256,
        -0.160158217,
        0.0157457,
        -0.391077042,
        -0.00105959177
      ],
      "biasesFlat": [
        -0.381989717,
        0.137831554,
        0.467939854,
        0.4426577,
        -0.4197477,
        -0.4006213,
        -0.140616238,
        0.3484683,
        -0.4666165,
        0.05586046,
        -0.493190646,
        -0.08478171,
        -0.2967937,
        0.4778309,
        0.02355975,
        -0.02070278,
        -0.16738075,
        -0.1765241,
        0.114098489,
        -0.150387228,
        -0.177628338,
        -0.207313,
        -0.259473562,
        -0.372895,
        -0.3015102,
        0.06396431,
        -0.197323024,
        0.464867115,
        -0.0402328372,
        0.227364883,
        -0.351197481,
        0.41712296,
        -0.410534143,
        0.279242635,
        -0.2476446,
        0.130735621,
        -0.299358249,
        0.412853718,
        0.1418774,
        -0.355061769,
        -0.19268173,
        0.231804475,
        0.1431676,
        0.4142884
      ],
      "weightShapes": [
        16,
        10,
        16,
        16,
        2,
        16
      ],
      "biasShapes": [
        10,
        16,
        16,
        2
      ]
    },
    {
      "layers": [
        10,
        16,
        16,
        2
      ],
      "weightsFlat": [
        -0.0788434148,
        0.125507221,
        -0.290920854,
        0.435788751,
        0.199117765,
        -0.15384835,
        -0.0720862746,
        0.337766051,
        0.374276757,
        -0.445441,
        0.2750579,
        0.139891014,
        0.283677578,
        0.224191889,
        -0.206603944,
        0.320418239,
        0.3016435,
        -0.305347443,
        -0.447581053,
        0.449015737,
        -0.285732746,
        0.4207996,
        0.0158219934,
        -0.261353254,
        0.4140606,
        -0.138876855,
        -0.0864858,
        -0.328818321,
        -0.08628017,
        0.296305418,
        -0.179018915,
        -0.321287751,
        0.0522775054,
        -0.07481855,
        -0.244893491,
        -0.0506796241,
        -0.05567807,
        0.20867525,
        0.1263697,
        -0.205231249,
        0.398357153,
        -0.122495711,
        0.4168048,
        -0.37649405,
        -0.07553035,
        -0.340934634,
        0.433263659,
        -0.464428544,
        0.4020468,
        0.4863826,
        -0.292479157,
        0.153820261,
        0.294891238,
        0.3811127,
        -0.3471272,
        0.147872314,
        -0.322537541,
        -0.0258190036,
        0.238970026,
        -0.4525535,
        -0.0175793767,
        0.152952537,
        -0.387628555,
        -0.377411127,
        -0.3128364,
        -0.146919429,
        -0.279051065,
        -0.1986975,
        -0.0267875791,
        -0.321229219,
        0.2931583,
        -0.495632768,
        -0.274196744,
        0.352750421,
        0.2917707,
        -0.230705917,
        0.342135668,
        -0.04046136,
        -0.384070873,
        0.496923566,
        0.486297965,
        0.2816422,
        0.19795619,
        0.2729311,
        0.0493471026,
        -0.449096322,
        0.0558360219,
        -0.0940554738,
        -0.312930584,
        -0.251297235,
        0.46536994,
        -0.23404628,
        -0.08394581,
        0.259866,
        0.2443627,
        0.3635099,
        -0.238796532,
        0.328588128,
        -0.4718181,
        -0.365524054,
        -0.496853232,
        -0.124106228,
        -0.406601429,
        -0.2545836,
        0.15840064,
        0.232884631,
        -0.2895683,
        -0.111618221,
        -0.4504069,
        0.359318852,
        -0.335764885,
        -0.138190567,
        -0.07148844,
        0.366462827,
        0.09419531,
        0.2939868,
        0.400208354,
        -0.114119589,
        0.335856438,
        0.147977814,
        0.4480151,
        -0.308555961,
        0.154626355,
        0.207523569,
        0.359668255,
        -0.4029249,
        0.3430475,
        0.0328475833,
        -0.00517123938,
        0.354587317,
        -0.1959756,
        -0.145461619,
        0.0762018561,
        0.466774464,
        0.398440957,
        -0.254921079,
        0.172108755,
        -0.4629439,
        -0.267796278,
        -0.1060496,
        0.135270342,
        0.3208604,
        0.235660061,
        0.220671281,
        0.124886692,
        0.2740724,
        0.3981495,
        -0.485878468,
        -0.1537773,
        0.0390288234,
        -0.0066819787,
        -0.06702119,
        -0.475420117,
        0.06474441,
        0.03238529,
        -0.43374753,
        -0.06546754,
        -0.441140056,
        -0.196861207,
        0.396625519,
        0.129586563,
        0.0392263532,
        -0.3076234,
        0.409556866,
        0.228719577,
        -0.4820832,
        -0.173731148,
        -0.1256885,
        0.165933,
        0.1717603,
        -0.133176029,
        -0.242559731,
        -0.115525067,
        0.43420434,
        -0.310477018,
        0.233616933,
        -0.468110681,
        0.123881519,
        0.0494593978,
        0.429718018,
        -0.3304776,
        -0.4750378,
        -0.1524865,
        0.124998987,
        -0.421105146,
        0.421950817,
        0.0476068854,
        -0.004373014,
        0.2335081,
        -0.423773527,
        -0.442009926,
        0.06700081,
        0.07037848,
        -0.261477,
        -0.16928333,
        -0.2392866,
        0.357595325,
        -0.0895386338,
        -0.08088797,
        0.252182841,
        0.220452175,
        0.3254267,
        -0.0297873616,
        -0.432665348,
        -0.265720963,
        0.22826539,
        0.349374175,
        -0.186258018,
        -0.11749655,
        -0.2236417,
        -0.476258755,
        0.463311434,
        0.166916355,
        0.174844369,
        0.08673626,
        0.192350253,
        -0.191682279,
        0.45042932,
        0.213734254,
        0.175839528,
        0.2287855,
        0.425045848,
        -0.120248735,
        0.2937652,
        -0.0671038,
        -0.488564968,
        0.285609365,
        0.48432374,
        0.389265656,
        0.442539215,
        0.382633448,
        -0.484254956,
        -0.4490453,
        0.113599122,
        -0.126214087,
        -0.306909442,
        0.151785836,
        0.427575469,
        0.333595872,
        -0.181983888,
        0.08820349,
        -0.245659053,
        -0.4225204,
        -0.141703546,
        0.21896182,
        0.380796075,
        0.006468475,
        0.344293475,
        -0.457332373,
        -0.494666576,
        -0.179081261,
        -0.0075930953,
        -0.07529777,
        0.07161325,
        0.09698385,
        -0.02827853,
        0.361611247,
        -0.4960364,
        0.3186742,
        0.0266539454,
        0.3296821,
        0.352646828,
        0.427868843,
        -0.2573669,
        0.09351927,
        -0.155952156,
        -0.3654276,
        -0.0227038264,
        0.405395865,
        0.4851991,
        0.09911758,
        0.445749164,
        0.150032148,
        -0.4015019,
        -0.0231249928,
        0.139732108,
        0.36836493,
        0.408373356,
        0.229326949,
        0.22355257,
        0.466842771,
        0.123369992,
        -0.19426924,
        -0.0320149064,
        -0.243833721,
        -0.287206531,
        -0.158096254,
        0.353577137,
        0.2656896,
        -0.255427957,
        -0.178246915,
        -0.163175642,
        -0.226092041,
        0.231530771,
        -0.129068911,
        -0.247090876,
        -0.38469255,
        0.178703055,
        -0.4096192,
        0.0277819037,
        0.117000043,
        -0.199972212,
        -0.131714284,
        0.0180458426,
        0.292925715,
        0.202913031,
        -0.398103952,
        0.300573,
        -0.04540068,
        -0.2285381,
        -0.104937971,
        0.24708949,
        -0.415066361,
        0.3916905,
        -0.244256318,
        -0.0401203036,
        0.115088761,
        0.08371252,
        -0.332102776,
        0.06533319,
        0.434981585,
        0.349871755,
        -0.272679448,
        0.241152987,
        0.4394009,
        0.19191955,
        -0.403176069,
        0.240791783,
        -0.209014833,
        -0.442183256,
        0.4563985,
        -0.406997442,
        0.0398039222,
        -0.41398716,
        0.330121875,
        -0.147672474,
        -0.009520471,
        -0.00762337446,
        -0.40424192,
        0.387959957,
        -0.271461248,
        -0.321630239,
        0.202246174,
        0.181236848,
        -0.4688822,
        -0.210808456,
        0.0558683276,
        0.3161918,
        -0.117014587,
        -0.345521331,
        0.410572052,
        0.203980312,
        -0.408109069,
        0.07903427,
        -0.4931394,
        -0.270131826,
        0.328932881,
        0.202430353,
        0.108622491,
        0.343462944,
        0.1605358,
        0.0785169,
        -0.490827441,
        -0.412519574,
        -0.336290121,
        0.33192122,
        -0.05690056,
        -0.332079172,
        0.0480934978,
        -0.3914535,
        0.3556682,
        -0.08603448,
        -0.3994254,
        0.459891558,
        -0.2596208,
        -0.453248382,
        -0.0213236213,
        -0.384093285,
        -0.404144645,
        0.4989965,
        0.107246935,
        0.3598963,
        0.418645859,
        0.4345833,
        0.216413,
        -0.3836534,
        -0.329333663,
        -0.164492071,
        0.393499255,
        0.238292918,
        -0.377882957,
        -0.2538334,
        0.4076643,
        -0.199475348,
        -0.218012154,
        -0.2733394,
        -0.284404516,
        -0.279093027,
        0.428072929,
        -0.492261648,
        -0.311128736,
        0.15810822,
        0.03474933,
        0.167228088,
        0.18577157,
        -0.278672457,
        -0.4239471,
        0.132335886,
        0.286601067,
        -0.195963085,
        0.202579,
        0.310747027,
        0.373577833,
        0.2901683,
        0.212655768,
        -0.469824672,
        -0.04096955,
        -0.391047835,
        -0.49468255,
        -0.0212129951,
        0.051854074,
        0.233426079,
        0.1702361,
        0.260320067,
        0.2662866,
        -0.05031854,
        -0.445240021,
        -0.215332091,
        0.4870888,
        0.4245733,
        0.311046839,
        0.3828987,
        0.0118541121,
        0.415995,
        -0.300122976,
        -0.394786119,
        -0.363765359,
        0.0377821326,
        0.0545372367,
        -0.331800818,
        0.445093632,
        -0.4488852,
        -0.08598405,
        0.07533008,
        -0.0787287354,
        0.244919166,
        -0.2802409,
        0.09884018
      ],
      "biasesFlat": [
        0.4417324,
        -0.35978508,
        -0.394313335,
        0.0518913865,
        0.222015724,
        -0.366875172,
        -0.324023,
        -0.438534379,
        -0.326468825,
        0.250765681,
        0.472469568,
        0.09804016,
        -0.0841577649,
        0.05654329,
        0.4136392,
        -0.277498126,
        -0.162247837,
        -0.373029828,
        0.3855735,
        -0.04349488,
        -0.2458325,
        -0.252295136,
        -0.29608953,
        -0.181809723,
        -0.377907753,
        -0.191792309,
        0.34185493,
        0.255342,
        0.264535069,
        -0.4974898,
        0.0528623462,
        0.185453758,
        0.232091412,
        -0.324398518,
        -0.009356916,
        0.0255215764,
        -0.224065363,
        0.421984553,
        -0.04566306,
        0.2801944,
        0.270568132,
        -0.2698413,
        0.437324882,
        0.2968043
      ],
      "weightShapes": [
        16,
        10,
        16,
        16,
        2,
        16
      ],
      "biasShapes": [
        10,
        16,
        16,
        2
      ]
    },
    {
      "layers": [
        10,
        16,
        16,
        2
      ],
      "weightsFlat": [
        0.383836269,
        0.320021749,
        -0.341251969,
        0.3072207,
        0.4629737,
        -0.283489466,
        0.216179952,
        0.406579852,
        0.0930706859,
        -0.4290434,
        -0.03601092,
        -0.4754188,
        -0.111337483,
        0.2404946,
        -0.3677417,
        -0.416040778,
        0.158616766,
        0.321918368,
        -0.159650028,
        -0.462997675,
        -0.455497622,
        -0.0175861716,
        0.11456424,
        0.128926143,
        -0.377811432,
        -0.108041108,
        -0.333760738,
        0.384688377,
        0.2585218,
        -0.25481987,
        -0.225050986,
        -0.0613033175,
        0.254686952,
        -0.395109534,
        -0.110879242,
        0.455544233,
        0.201809034,
        -0.0138220191,
        -0.386521459,
        0.350597858,
        0.275609732,
        0.0759879947,
        0.07130414,
        0.3299117,
        0.381695271,
        -0.147460639,
        -0.4551623,
        -0.394712448,
        -0.444834948,
        -0.00354915857,
        0.251014829,
        0.488626719,
        -0.0797328353,
        -0.06465894,
        0.4022696,
        0.123069108,
        0.152276978,
        -0.135554969,
        -0.0519003272,
        -0.4528811,
        0.1891961,
        0.07845634,
        -0.351345778,
        -0.25112462,
        0.219379291,
        0.467130184,
        -0.299766779,
        0.0430535674,
        -0.265020132,
        -0.342140317,
        0.445069075,
        -0.155664384,
        0.160242543,
        0.331605673,
        0.05537635,
        0.0605104566,
        -0.398976326,
        -0.445092082,
        0.4679407,
        0.414942145,
        0.311462164,
        -0.2841549,
        0.26370573,
        -0.3720839,
        -0.4960991,
        -0.216411054,
        -0.396819472,
        0.120333016,
        -0.449393272,
        0.314606667,
        0.3240478,
        -0.44551158,
        -0.08569533,
        0.09883171,
        0.2716539,
        0.243910536,
        0.233226046,
        0.200283989,
        -0.403534532,
        -0.3374548,
        -0.493354082,
        -0.417843342,
        -0.114311039,
        0.309864879,
        -0.229747474,
        -0.3295411,
        0.291486263,
        0.467830658,
        0.397550941,
        0.206412777,
        0.018958509,
        0.3754505,
        -0.405806184,
        0.306103468,
        0.2981435,
        -0.263749242,
        0.257821918,
        0.0586288571,
        0.4811784,
        -0.196261108,
        -0.329062581,
        -0.394339919,
        0.220850572,
        -0.263519049,
        -0.1709165,
        -0.159940541,
        0.430403233,
        -0.3364662,
        -0.2978288,
        0.284395933,
        -0.467695,
        -0.47002244,
        0.103938878,
        0.0106042027,
        -0.129695237,
        -0.0478077531,
        -0.2818818,
        -0.121128857,
        -0.373628259,
        -0.378829956,
        0.393324137,
        0.291005135,
        0.49906683,
        0.202400431,
        -0.4443822,
        -0.292610765,
        0.127341971,
        0.438783884,
        -0.193970263,
        -0.2294597,
        -0.0222670436,
        0.122555912,
        -0.0142613053,
        0.403777957,
        0.1040892,
        -0.480270982,
        -0.2219916,
        0.174694642,
        -0.04636854,
        -0.0198825,
        0.408968925,
        0.203783855,
        -0.168542564,
        0.4331324,
        -0.455250025,
        0.163815841,
        0.48252213,
        0.09609717,
        -0.478061318,
        0.231400713,
        -0.141571224,
        0.22141479,
        -0.258561134,
        0.109796941,
        -0.42779696,
        0.168063626,
        0.313033342,
        -0.135527909,
        0.460806131,
        0.206187472,
        -0.243806183,
        0.471322656,
        -0.487824678,
        0.08102852,
        0.0222756267,
        0.107396424,
        0.241744623,
        0.294160366,
        0.210952386,
        0.42843318,
        0.0394555926,
        -0.150978744,
        -0.44873,
        0.0206728578,
        -0.268758535,
        0.130186185,
        0.383139849,
        -0.2888416,
        0.0925315,
        -0.0122292638,
        0.2077025,
        0.3421899,
        0.391388059,
        0.274383068,
        -0.214350283,
        -0.469970226,
        0.11689502,
        0.380120516,
        0.389065266,
        -0.442219973,
        0.138501868,
        0.3440789,
        -0.196560442,
        0.184934124,
        -0.336771846,
        0.389755368,
        -0.0391028523,
        -0.120507538,
        0.191679224,
        -0.284807444,
        0.436353922,
        -0.153680027,
        0.19414781,
        0.0428825021,
        0.4814378,
        0.0190842748,
        -0.175050557,
        0.06422073,
        0.228123173,
        0.111788332,
        -0.236073911,
        -0.344404578,
        0.125097379,
        -0.235943973,
        -0.497771144,
        -0.147617161,
        -0.325809479,
        0.3161621,
        0.165420279,
        0.205830082,
        0.115494311,
        -0.38642,
        -0.122048676,
        -0.174147666,
        0.225035891,
        0.423859477,
        0.172998771,
        -0.385047317,
        -0.0893078446,
        0.481398821,
        -0.150012076,
        -0.153063,
        0.4080919,
        0.2923962,
        -0.26330328,
        0.4430951,
        0.04543978,
        0.435826182,
        0.209118828,
        0.418609023,
        -0.294481874,
        -0.195177019,
        0.301644444,
        -0.285147071,
        -0.38328886,
        -0.2543862,
        -0.0416671634,
        0.04532665,
        0.4456302,
        0.09655076,
        -0.463643551,
        -0.361310363,
        0.1775726,
        -0.161477745,
        -0.289806,
        -0.362734556,
        0.204104409,
        -0.277983069,
        0.3841312,
        0.253087044,
        -0.2448898,
        -0.461794138,
        0.350337982,
        0.252080917,
        -0.226584375,
        -0.230858982,
        0.3323257,
        -0.368145466,
        -0.00329035521,
        0.350631237,
        0.4880321,
        -0.0667341352,
        0.437568069,
        -0.02063173,
        0.486548781,
        0.415670276,
        -0.24517256,
        0.427304268,
        -0.262170434,
        -0.149402916,
        -0.384328127,
        -0.490919352,
        -0.426812768,
        0.112882674,
        -0.04713744,
        0.428877115,
        0.127353415,
        -0.4381311,
        -0.02580589,
        -0.233586252,
        -0.105235636,
        0.407449245,
        -0.225615919,
        -0.49070096,
        0.348754644,
        0.3602891,
        -0.0586125255,
        0.367075562,
        0.0105505586,
        0.0418416858,
        -0.0165591836,
        0.3486457,
        -0.279788971,
        0.194460735,
        0.0714588761,
        0.17703031,
        -0.0199947953,
        -0.103226006,
        -0.429129481,
        0.08458358,
        0.421233654,
        -0.4792273,
        -0.317309141,
        -0.4766829,
        -0.250043869,
        0.15540348,
        0.47481823,
        0.212707266,
        -0.228847563,
        -0.170532882,
        0.0867673755,
        -0.388213754,
        -0.413958669,
        0.09789091,
        0.110187113,
        0.153481349,
        -0.398011327,
        -0.028277576,
        0.266208768,
        0.202309713,
        0.0166309476,
        0.0574682355,
        -0.0529591441,
        0.143720612,
        -0.186274946,
        -0.36708796,
        -0.0166973472,
        0.1775416,
        0.00231546164,
        0.217015371,
        -0.201219022,
        0.14814578,
        0.3387606,
        0.267405152,
        -0.332530379,
        -0.254794359,
        -0.36578095,
        -0.495977879,
        0.138156161,
        0.217823133,
        0.09040803,
        -0.430504322,
        0.0994420648,
        -0.191353381,
        -0.1237641,
        -0.3115722,
        0.0512539744,
        0.116920531,
        0.353863,
        -0.261605024,
        -0.4272704,
        -0.07570392,
        -0.4477284,
        -0.457203865,
        0.26122725,
        -0.4151386,
        -0.154283822,
        0.0250660777,
        0.136082873,
        0.06832856,
        -0.474816561,
        0.10551852,
        0.470284224,
        0.0216129422,
        -0.116929233,
        -0.290233731,
        -0.158435285,
        0.258833528,
        -0.266090274,
        0.375422955,
        0.436551929,
        -0.3785665,
        0.366531134,
        0.23572658,
        0.127589688,
        -0.175342619,
        0.0797084,
        -0.496498,
        -0.394065738,
        0.0994508862,
        0.002195537,
        -0.16273433,
        -0.0799501538,
        0.164257631,
        0.365092278,
        0.463693142,
        -0.346802,
        0.4208367,
        0.194729432,
        -0.208900273,
        -0.4376613,
        0.0109687448,
        0.1449561,
        0.413339376,
        0.0695249438,
        -0.0895971656,
        -0.0277200341,
        -0.298817873,
        0.482431173,
        0.386981249,
        0.207332715,
        0.421157241,
        -0.4754727,
        -0.204239786,
        0.388929725,
        0.07621497,
        0.303551078,
        -0.3965137,
        0.09201509,
        -0.101063669,
        0.378463984,
        -0.02397567,
        -0.0866379142,
        -0.476399779,
        -0.366282225,
        0.345862031,
        -0.3035246,
        -0.494462132
      ],
      "biasesFlat": [
        -0.478739977,
        0.296363235,
        -0.294392467,
        -0.07971853,
        0.102078378,
        -0.244625509,
        0.184694275,
        0.3927443,
        -0.380879521,
        -0.4667648,
        -0.442332149,
        0.09329063,
        0.43034327,
        0.02142924,
        -0.2771914,
        0.41930306,
        -0.230307519,
        -0.390432835,
        -0.3765812,
        0.383217573,
        -0.267312884,
        -0.0154266953,
        0.4620061,
        0.340304852,
        -0.0428199172,
        -0.004232228,
        0.177195773,
        0.0153933167,
        0.202757344,
        0.359652042,
        -0.149501026,
        0.425207734,
        -0.142535508,
        -0.4109949,
        -0.01275152,
        0.222677454,
        0.057035625,
        0.251322746,
        0.4921583,
        -0.268496156,
        0.283624053,
        -0.08620769,
        0.494657755,
        -0.4981619
      ],
      "weightShapes": [
        16,
        10,
        16,
        16,
        2,
        16
      ],
      "biasShapes": [
        10,
        16,
        16,
        2
      ]
    },
    {
      "layers": [
        10,
        16,
        16,
        2
      ],
      "weightsFlat": [
        0.41154182,
        0.329487681,
        0.131872281,
        -0.044844687,
        0.07667881,
        -0.004935205,
        -0.0902012,
        -0.381083846,
        -0.18897444,
        0.0203526616,
        0.434679151,
        0.136668786,
        0.03935927,
        -0.278636217,
        -0.112558186,
        -0.389404058,
        0.433124185,
        -0.111951053,
        0.271271944,
        -0.353335381,
        0.286497355,
        0.104029596,
        0.285585642,
        0.309668541,
        0.1614226,
        -0.280951023,
        0.0471248031,
        0.1403576,
        -0.0652439,
        0.2032951,
        0.4764712,
        0.2737373,
        0.1879208,
        0.007210076,
        -0.156159222,
        0.384489179,
        0.150730833,
        0.09842759,
        0.167575344,
        -0.183216035,
        -0.262284756,
        0.3070488,
        -0.0572561622,
        -0.0786656737,
        -0.396110535,
        0.464103341,
        -0.409969926,
        0.428752422,
        -0.161262691,
        -0.335778356,
        0.05813116,
        -0.4748485,
        -0.351571083,
        0.0266217589,
        -0.3287784,
        0.205869779,
        0.137265667,
        0.17005752,
        -0.10342294,
        0.383278131,
        0.0274308324,
        0.4858352,
        -0.488281,
        -0.320047021,
        -0.190660655,
        0.288474441,
        -0.383340478,
        -0.260669,
        0.200937852,
        -0.22585696,
        -0.308367729,
        -0.331141472,
        -0.3355769,
        -0.0316775441,
        -0.112636268,
        -0.404736757,
        -0.301614523,
        -0.114259422,
        0.119856417,
        -0.454601645,
        -0.444597721,
        -0.1713497,
        -0.159859717,
        -0.05265242,
        0.05131203,
        -0.1439423,
        0.45939362,
        -0.294297576,
        -0.19730705,
        0.382390141,
        -0.410314083,
        -0.373839021,
        0.436710954,
        0.384222984,
        0.4818803,
        0.4100778,
        -0.359683275,
        0.281229377,
        -0.15780741,
        -0.3409351,
        -0.455269456,
        0.134912714,
        0.179649338,
        -0.08823639,
        0.08996588,
        0.259295,
        0.320831537,
        0.1791092,
        0.2272365,
        0.127552375,
        -0.095757544,
        0.238539681,
        0.2481824,
        0.4714563,
        0.106060565,
        -0.298838019,
        0.07907647,
        -0.1397726,
        0.191186413,
        0.4128816,
        -0.0188295245,
        0.09060043,
        0.01276952,
        0.0525910258,
        0.0451119542,
        0.426145434,
        0.246957287,
        -0.04847032,
        -0.209025681,
        0.003128469,
        -0.483987451,
        0.139873371,
        -0.0489711165,
        -0.3497299,
        0.0491141677,
        -0.06527215,
        -0.0898986459,
        -0.145811617,
        0.143853173,
        -0.171192348,
        0.431306124,
        0.137865767,
        0.472564578,
        0.375505328,
        0.07967228,
        0.23287271,
        0.404544353,
        0.0418697,
        0.344779372,
        0.288971424,
        -0.11047703,
        -0.0355370641,
        0.43338,
        -0.101087391,
        0.204259977,
        -0.0049263835,
        -0.496284,
        -0.15823108,
        0.397819877,
        0.4602518,
        -0.4892156,
        0.231833443,
        -0.2586763,
        0.0356789231,
        0.0889430642,
        -0.2512759,
        -0.4559455,
        0.3664993,
        0.3296231,
        0.138927922,
        -0.317585826,
        -0.363127828,
        -0.168376267,
        -0.1582312,
        -0.386757135,
        0.2067989,
        -0.386648059,
        -0.161713064,
        0.37615,
        -0.4620117,
        -0.0478723645,
        -0.404329181,
        0.150172815,
        0.448248982,
        -0.0355312228,
        -0.3146571,
        -0.1296081,
        0.255170226,
        0.2564093,
        -0.1668492,
        -0.116120756,
        -0.129157245,
        0.120731652,
        -0.342640042,
        0.0515647531,
        0.287845969,
        -0.177150786,
        -0.104108989,
        0.420852065,
        -0.0216472745,
        -0.13511306,
        -0.186094582,
        -0.427834153,
        0.3493737,
        0.167024359,
        0.206748471,
        0.113219321,
        -0.0520257354,
        0.004519999,
        -0.216592014,
        0.174076185,
        0.2917236,
        0.221603617,
        -0.0532458425,
        -0.297509551,
        0.198649034,
        0.2819401,
        0.426721334,
        0.164314613,
        -0.269553423,
        0.127436742,
        -0.408302546,
        -0.0611035228,
        0.0243982673,
        -0.459258676,
        -0.440863848,
        -0.457409143,
        -0.1553033,
        0.195683941,
        0.2596532,
        -0.42064023,
        0.428074241,
        -0.451592922,
        -0.0194779038,
        0.299167871,
        -0.338166833,
        -0.362251282,
        0.175074086,
        0.140946969,
        -0.499569416,
        0.157441482,
        0.0495954156,
        0.20494245,
        0.134047017,
        -0.15474087,
        -0.219988286,
        0.218839869,
        -0.342306376,
        -0.37384975,
        0.15656279,
        0.0337097049,
        0.331578255,
        -0.3400401,
        -0.131880581,
        -0.435498,
        -0.0165993571,
        -0.497794867,
        0.213626251,
        -0.478498816,
        -0.303839684,
        0.414646983,
        -0.307875037,
        0.446300149,
        -0.24091059,
        -0.278314471,
        0.403552055,
        -0.174998939,
        -0.0588867068,
        0.250425339,
        0.244495019,
        -0.03716141,
        0.0110945106,
        -0.0505411029,
        0.0602981448,
        0.1259589,
        -0.123609722,
        0.459437251,
        0.0215502381,
        0.09168762,
        0.07212907,
        -0.485692978,
        -0.319820762,
        -0.345662236,
        0.256578445,
        -0.233381212,
        -0.22438544,
        -0.197338641,
        -0.309821129,
        -0.134128988,
        -0.04549223,
        0.109989345,
        0.0289497972,
        0.03602308,
        -0.11680001,
        0.2851237,
        0.485681772,
        -0.350565672,
        -0.461658359,
        0.0428779721,
        -0.364083052,
        0.19623445,
        -0.0180920959,
        0.3539281,
        0.3772534,
        0.287542,
        -0.293609619,
        0.2165054,
        0.3506148,
        0.3153069,
        0.409184575,
        -0.4006647,
        0.037106812,
        0.281389236,
        -0.04844898,
        0.4018277,
        0.165410385,
        -0.296742916,
        -0.422609329,
        0.255355835,
        -0.2976339,
        -0.293872118,
        0.00968045,
        -0.2543199,
        0.478468418,
        -0.364048123,
        0.338509917,
        -0.47901535,
        -0.054238975,
        -0.154523432,
        0.160062775,
        -0.119995415,
        -0.3794651,
        -0.377211928,
        -0.190934122,
        -0.133552849,
        0.308113456,
        -0.361280084,
        0.143305048,
        -0.09869403,
        0.0292984843,
        -0.0381268859,
        -0.111466587,
        0.384770036,
        -0.00237745047,
        0.247890338,
        -0.184866011,
        0.24048923,
        -0.3941747,
        0.174110159,
        -0.027648747,
        0.273409963,
        -0.325643659,
        -0.238578022,
        -0.2140891,
        -0.490715265,
        -0.2256127,
        -0.2517228,
        0.4328035,
        0.34569335,
        -0.471880078,
        0.227108464,
        -0.157126963,
        0.08351272,
        -0.0350881219,
        0.1979296,
        0.235029921,
        0.224603042,
        -0.419587255,
        -0.1881507,
        -0.467652559,
        -0.172683179,
        -0.123040736,
        -0.116142571,
        -0.366024852,
        0.113204658,
        -0.151703775,
        -0.192257226,
        -0.3226136,
        -0.4723792,
        0.4750328,
        0.467396617,
        0.179954037,
        -0.285257936,
        -0.4976343,
        0.1860113,
        -0.405378222,
        0.248501882,
        0.112131655,
        -0.3749416,
        -0.250944853,
        0.279524922,
        0.204934821,
        0.269404769,
        0.08031398,
        -0.308413148,
        0.4397738,
        0.0140867829,
        0.103438675,
        -0.2712133,
        -0.12385875,
        0.164749369,
        -0.193132937,
        0.104162514,
        -0.3997283,
        0.176988348,
        -0.06450981,
        0.1136058,
        -0.216532052,
        0.3545624,
        0.4814831,
        0.282260537,
        -0.2938907,
        -0.374568939,
        0.0129194856,
        0.05133754,
        0.161685809,
        -0.3298267,
        0.299471855,
        0.337902665,
        0.2723812,
        0.1263281,
        0.343943119,
        0.03607911,
        -0.4042076,
        -0.122889936,
        0.105580389,
        0.248132452,
        0.288750529,
        -0.3936963,
        0.2506373,
        -0.234468758,
        -0.293165565,
        -0.4428122,
        0.215059862,
        -0.4859923,
        0.29692018,
        0.4737376,
        0.382775068,
        -0.4345572,
        0.08827442,
        0.0428982377,
        -0.193691671,
        -0.142753422,
        -0.08724731,
        -0.109297693,
        0.291971326,
        -0.3154707,
        0.4685799
      ],
      "biasesFlat": [
        -0.108733237,
        0.255784035,
        0.475611925,
        -0.258949876,
        -0.320536971,
        -0.418737173,
        -0.0649026,
        0.280441046,
        0.471937656,
        0.44304657,
        0.160693631,
        -0.122857273,
        -0.347201824,
        0.0352424979,
        0.36351192,
        -0.312665462,
        -0.42806685,
        -0.285911083,
        -0.161600888,
        -0.0485928655,
        0.0395397544,
        0.342985153,
        -0.173371732,
        -0.463680744,
        -0.136238158,
        -0.309767246,
        0.140138969,
        -0.124705613,
        0.415898919,
        0.341859937,
        -0.168162286,
        -0.27203393,
        0.4761976,
        0.123121321,
        0.480800629,
        -0.170609891,
        -0.1852445,
        0.46692574,
        -0.308119178,
        -0.17198509,
        0.1524515,
        -0.442899,
        -0.005398333,
        0.392616749
      ],
      "weightShapes": [
        16,
        10,
        16,
        16,
        2,
        16
      ],
      "biasShapes": [
        10,
        16,
        16,
        2
      ]
    },
    {
      "layers": [
        10,
        16,
        16,
        2
      ],
      "weightsFlat": [
        0.0938398242,
        -0.403903484,
        -0.2667495,
        0.392511368,
        -0.3869251,
        0.20311974,
        -0.353058457,
        0.398939729,
        -0.403367877,
        -0.347125649,
        -0.304865479,
        0.419419765,
        0.167996153,
        0.160526618,
        -0.110057056,
        0.273814678,
        -0.08670074,
        -0.333524466,
        0.460227132,
        -0.2173577,
        0.02133745,
        0.153262839,
        0.488826871,
        -0.398237,
        0.4751941,
        0.000194013119,
        0.1637523,
        -0.126783788,
        0.345341444,
        0.008651078,
        -0.201511681,
        -0.2262755,
        0.135347113,
        0.0165426135,
        0.3735237,
        -0.4599949,
        0.280905128,
        0.358329654,
        -0.485256672,
        0.18805109,
        -0.143056333,
        0.148777708,
        -0.167723715,
        0.2980759,
        0.15325056,
        0.06403512,
        -0.254024029,
        -0.2515595,
        0.0842163,
        -0.06390375,
        0.327182055,
        0.3159306,
        -0.218638718,
        0.4256407,
        -0.100557625,
        -0.426618934,
        -0.0548394322,
        0.465369582,
        -0.129508078,
        0.2602564,
        0.299878359,
        -0.450795054,
        -0.25945127,
        -0.0562098622,
        0.161012515,
        -0.0433751941,
        0.352155924,
        0.07718092,
        0.329352975,
        -0.132118881,
        -0.344568,
        0.154858455,
        0.376178741,
        -0.238863647,
        0.478420138,
        0.211851463,
        0.364040375,
        -0.309468865,
        -0.06875545,
        0.2503562,
        0.424764633,
        0.106855214,
        -0.3314135,
        -0.457233071,
        -0.188629448,
        0.04795617,
        -0.469424248,
        -0.321714759,
        -0.428731084,
        0.403168678,
        0.0578860641,
        0.09222311,
        -0.226507962,
        0.250574,
        0.172049865,
        -0.169297516,
        -0.482552648,
        -0.487152576,
        -0.436528683,
        0.073771894,
        -0.3110541,
        0.198184714,
        0.4299425,
        -0.129194081,
        0.150070891,
        -0.4277798,
        0.2918024,
        0.497475147,
        0.471130848,
        0.238647327,
        -0.372897625,
        -0.07479578,
        0.333746433,
        0.393304467,
        0.117737472,
        -0.3042363,
        -0.4056456,
        -0.242374,
        0.4927082,
        -0.181967676,
        -0.336970448,
        0.143039808,
        0.405135632,
        -0.229120314,
        0.2003629,
        0.385507464,
        -0.4928552,
        0.0229477286,
        0.4322201,
        0.0611347556,
        0.000852763653,
        -0.0326773524,
        0.430540681,
        -0.4882692,
        0.22327815,
        -0.09254557,
        -0.4008988,
        -0.491304159,
        0.214340433,
        0.366312742,
        0.429474115,
        -0.27667737,
        0.0103154778,
        0.1988952,
        -0.209000409,
        -0.420739055,
        0.140879855,
        -0.46361208,
        0.234694228,
        -0.2783321,
        -0.210691392,
        0.211064324,
        -0.005896032,
        0.04595834,
        0.195532069,
        -0.3528664,
        -0.22849828,
        0.229197249,
        -0.3231765,
        0.3354857,
        0.387504935,
        0.332822919,
        0.355814934,
        -0.18658191,
        0.185168847,
        -0.2613325,
        0.481156468,
        0.468657017,
        0.155615434,
        0.362281561,
        -0.141728222,
        0.173637018,
        -0.3091185,
        0.256370664,
