{
  "networks": [
    {
      "layers": [
        18,
        16,
        16,
        2
      ],
      "weightsFlat": [
        0.5473811,
        -0.5630142,
        0.3095925,
        0.774990141,
        0.233265191,
        0.22064288,
        0.17514053,
        0.184552327,
        0.191585317,
        0.4551706,
        -0.6205694,
        0.113234431,
        0.270241439,
        -0.749717653,
        -0.450587958,
        -0.146066323,
        -0.5174818,
        0.05980608,
        0.195269033,
        0.944370449,
        -0.6201231,
        0.336081028,
        0.976491749,
        0.44536534,
        -0.09062795,
        -0.705697954,
        0.1742487,
        0.3615608,
        -0.0626562238,
        0.300788581,
        -0.800205231,
        0.4289601,
        -0.5457436,
        0.916403353,
        -0.101407364,
        0.113496915,
        0.9859799,
        -0.437080383,
        0.131350145,
        -0.439997852,
        0.08021662,
        0.7891084,
        0.4037852,
        0.05196774,
        -0.502582967,
        0.334101081,
        -0.0767979547,
        -0.773874342,
        0.41787082,
        0.5881701,
        0.07424992,
        0.003650038,
        0.208513945,
        0.87886405,
        0.4325551,
        0.206640214,
        0.217239365,
        0.215377867,
        0.3421581,
        -0.8352231,
        -0.588844061,
        -0.211032256,
        -0.04284731,
        -0.3678267,
        0.1345921,
        -0.262351245,
        -0.316126943,
        0.318762749,
        -0.857777834,
        -0.2476677,
        0.0477339476,
        0.343985558,
        0.2841725,
        0.551641762,
        -0.7536643,
        -0.880579,
        -1.30489028,
        -0.363328278,
        -0.117301032,
        0.315010339,
        -0.700737536,
        0.5443739,
        0.1304181,
        -0.668547034,
        -0.499219149,
        -0.155658022,
        -0.44554466,
        1.03084171,
        -0.598359048,
        0.753561854,
        0.0188183766,
        -1.00429487,
        -0.844157636,
        1.59362793,
        0.5700553,
        0.243154138,
        0.001195856,
        -0.035772793,
        0.0828467757,
        -0.127642751,
        0.5591535,
        -0.394554049,
        0.919015,
        0.4637084,
        0.574764252,
        0.523947656,
        0.445016831,
        -0.16596517,
        0.16674605,
        0.302231818,
        -0.494435966,
        -0.773730636,
        1.61282682,
        -0.1254905,
        -0.123779282,
        -0.7028809,
        -0.7787476,
        0.6232643,
        -0.245049745,
        0.5965752,
        -0.204425186,
        -0.0816949159,
        -1.26206875,
        -0.65098834,
        -1.2666297,
        -0.5603082,
        -0.410579264,
        -0.268380463,
        -1.55968523,
        -0.37981537,
        0.9385456,
        0.5755311,
        0.04902957,
        -0.207833514,
        0.8899668,
        0.908813,
        0.9241964,
        -0.5023645,
        0.5704805,
        0.11355415,
        -0.652316034,
        -0.329931,
        0.5610183,
        -0.402102262,
        -1.78857148,
        0.5001711,
        -0.993468046,
        0.207627162,
        0.3126776,
        -0.518552363,
        0.08378065,
        -0.355530471,
        0.432626724,
        0.5475009,
        -0.255722344,
        0.8449157,
        -0.551320255,
        -0.6058198,
        -0.909536,
        0.6225438,
        0.341152728,
        0.3085447,
        -0.6152049,
        0.0520611666,
        -0.0236688517,
        -1.24964178,
        0.132312208,
        0.07792529,
        0.4183379,
        1.3555057,
        0.4277316,
        0.105430543,
        0.0211316179,
        -0.233391255,
        1.08934021,
        -0.459920257,
        -0.04328976,
        0.758521855,
        -0.262689173,
        0.1542032,
        -0.273427725,
        0.508156,
        0.256687224,
        0.206195608,
        0.245033816,
        -0.220616922,
        0.538576543,
        -0.392000049,
        0.214188814,
        0.6748353,
        -0.88160634,
        -0.201482728,
        -0.6843258,
        0.132581368,
        -0.199346408,
        -0.4817601,
        0.3203976,
        -0.338593125,
        0.472206026,
        1.1632148,
        0.848662853,
        -0.805684566,
        -0.171301737,
        -0.116701372,
        -0.04279534,
        -0.000310377043,
        0.0146933757,
        0.0131768482,
        -0.188151136,
        0.174322575,
        0.3283303,
        0.0325283334,
        -0.102418087,
        0.289663076,
        -0.732105732,
        1.02969646,
        0.159787223,
        0.618110955,
        0.169868916,
        -0.165378809,
        0.7564921,
        -0.730932653,
        1.17279613,
        0.49163264,
        0.166563347,
        0.200915784,
        -0.00267444,
        0.300682366,
        -0.9927598,
        0.259680122,
        -0.553007066,
        0.431528717,
        -0.209491134,
        -0.9806917,
        0.375075936,
        -0.205870867,
        -0.261148363,
        0.39103654,
        -0.168218791,
        0.0590415969,
        -0.751171768,
        0.48087728,
        0.553040743,
        -0.5246416,
        -0.168484747,
        0.470627934,
        0.990924,
        -1.00137246,
        -0.7653127,
        0.19316341,
        -0.570897162,
        0.278096229,
        -1.34830856,
        -0.025302941,
        0.5935454,
        -0.853566647,
        -1.58391023,
        0.9997779,
        -0.391328067,
        -0.0688208938,
        -0.220563784,
        -0.1489502,
        0.306117356,
        0.258674532,
        0.1890746,
        0.7289104,
        -1.39445472,
        -0.278851658,
        0.201564759,
        0.0252816938,
        -0.07850512,
        -0.266534418,
        -0.8409439,
        0.13461946,
        -0.365232527,
        -0.976047039,
        -0.1573017,
        -0.196984768,
        0.0380378626,
        0.609397054,
        0.3821817,
        0.650024056,
        0.8187335,
        -0.427142769,
        0.00788438,
        0.349468768,
        -0.6972114,
        -0.5085877,
        -0.6380814,
        0.8489082,
        -0.243530542,
        -0.590953231,
        -0.0646482259,
        -0.6055223,
        0.5500157,
        0.2564799,
        0.173551947,
        0.4603945,
        0.408051342,
        0.5274341,
        -0.562534,
        0.719735146,
        -0.184546277,
        1.88081551,
        -0.828150451,
        -0.3662828,
        0.3962887,
        -0.66441226,
        -1.27107489,
        0.318029076,
        0.536866963,
        0.8451404,
        0.498290122,
        0.570202351,
        -0.967083156,
        0.076417625,
        -1.7590009,
        0.274183184,
        -0.1772777,
        0.8947438,
        0.2638216,
        0.239722058,
        0.609091,
        -0.392670065,
        0.0208762717,
        0.27080363,
        -0.4023998,
        -0.235839009,
        0.43258062,
        -0.67336005,
        0.153914526,
        0.2882124,
        -0.954677,
        -0.126753628,
        0.26685366,
        0.444027662,
        -1.27505362,
        0.106320247,
        -0.366119117,
        0.1446792,
        0.9000989,
        0.0489575341,
        -0.8410172,
        -1.2869333,
        0.3643528,
        -0.0346470065,
        0.751993656,
        0.1232878,
        0.9437801,
        -0.7443241,
        0.625866652,
        0.8704463,
        -0.22806941,
        -0.4842987,
        0.7307452,
        -1.138942,
        0.5148111,
        0.169905692,
        -0.9043883,
        -0.374147326,
        0.218260944,
        0.886029065,
        0.457142,
        0.04708786,
        0.8854854,
        0.356024384,
        0.0412075035,
        0.3454852,
        -0.5215528,
        0.05025802,
        0.3985706,
        -0.434818149,
        -0.9944361,
        -0.6907321,
        -0.104717985,
        -0.4497989,
        -0.499311537,
        0.4806933,
        -0.455268055,
        -0.03980103,
        -0.4496404,
        0.006009957,
        0.241307423,
        1.66339672,
        -0.6225154,
        -0.8835266,
        0.007224782,
        0.4224706,
        -0.2647415,
        -0.0272461679,
        -0.175344452,
        0.7164189,
        -0.08649265,
        0.522877038,
        0.518191934,
        -0.00159505336,
        -0.257603884,
        0.1684638,
        -0.520445,
        0.242015615,
        0.486604244,
        -1.60568583,
        -0.272597134,
        -0.3369345,
        0.615339,
        1.279451,
        0.352507561,
        0.8235539,
        0.197426572,
        -1.64105451,
        -0.142587721,
        0.6166905,
        -0.183250427,
        -0.6015672,
        0.66353184,
        0.604611933,
        -0.351181239,
        0.539324343,
        0.3588914,
        0.9544153,
        0.413806051,
        0.09755014,
        -0.477388442,
        -0.2830559,
        0.5291572,
        0.0753541142,
        0.4755727,
        0.06991089,
        -0.178524792,
        -0.297403157,
        -0.109599486,
        0.499109179,
        0.09016788,
        0.8438063,
        -0.185541645,
        -0.491639942,
        0.374847859,
        0.6387747,
        -0.09072517,
        -0.829894841,
        -0.0902577862,
        0.140791044,
        0.3262652,
        -0.6925234,
        -0.620571,
        0.142651409,
        0.261952966,
        -0.386277646,
        0.07632328,
        0.154694229,
        -0.665503263,
        -0.0993398,
        0.687119663,
        -0.767017245,
        0.661991537,
        -0.455408,
        -0.6468932,
        -0.174914762,
        0.610379934,
        0.3272647,
        -0.057035055,
        -0.385042042,
        -0.0167383011,
        0.502915263,
        -0.317552656,
        -0.6996286,
        0.23694177,
        0.0312582664,
        0.16467306,
        0.32950148,
        0.1976599,
        0.5874029,
        0.71036613,
        0.206833243,
        0.8178628,
        -0.0652695149,
        -0.5679747,
        -0.578878,
        -0.500409842,
        0.346843719,
        0.701153,
        0.5412222,
        -0.004800561,
        -0.39367643,
        0.5845853,
        -0.8360078,
        -0.162216678,
        0.05776454,
        -0.3674841,
        -0.506543636,
        -0.139617443,
        0.295000076,
        -0.411145836,
        0.108411543,
        0.6102028,
        0.279655725,
        -0.273426831,
        -0.6673748,
        0.6366035,
        0.507925332,
        -0.05425988,
        -0.4177088,
        -0.6924238,
        0.0624699257,
        0.8097294,
        -0.0007312018,
        0.516890347,
        1.06021047,
        0.6591003,
        -0.324017316,
        -0.123204462,
        0.191160485,
        0.4147686,
        0.489321232,
        -0.177618623,
        -0.6499211,
        -0.133700222,
        -0.286018133,
        -0.55223155,
        0.203154191,
        0.9121227,
        0.356429368,
        -0.4708048,
        0.026650643,
        -0.5231421,
        0.5296006,
        0.594214141,
        -0.183458731,
        -0.954678,
        -0.569081545,
        0.353580743,
        -0.6079452,
        0.287597626,
        0.194847345,
        -0.015189942,
        0.43230924,
        0.116478443,
        -0.217442423,
        0.182148248,
        -0.71297425,
        0.500975668,
        0.0293718148,
        -0.278031856,
        0.701000869,
        -0.04057268,
        -0.0165436938,
        -0.233724549,
        -0.7129063,
        -0.1911167,
        0.102193892,
        0.382387966,
        -0.2309415,
        0.2185143,
        -0.433056325,
        -0.371192783,
        1.10039914,
        -0.5865846,
        0.557551563,
        0.376864731,
        -0.442604035,
        -0.811068952,
        -0.360547066,
        -0.782969832,
        0.830530763,
        -0.326390862,
        -0.1869221,
        -0.5008843,
        0.110796288,
        0.08442382,
        -0.3931107,
        0.399468929,
        -0.338276237,
        -0.5314054,
        -0.315159947,
        -0.181114,
        0.330752015
      ],
      "biasesFlat": [
        -0.05294024,
        0.20858708,
        -0.138405636,
        0.42816487,
        -0.748325467,
        -0.335361034,
        0.331958652,
        -0.487074167,
        0.7760859,
        -0.253925383,
        0.199571565,
        0.5319536,
        -0.3590577,
        -0.9430737,
        0.834490538,
        0.376526356,
        0.0275047179,
        -0.1749522,
        -0.372624576,
        -0.354638219,
        0.0402732231,
        -1.28959715,
        -0.407946944,
        -0.244239479,
        0.357998073,
        -1.19428062,
        0.204771027,
        -0.7452051,
        -0.114217877,
        0.5716136,
        -0.952331066,
        -0.46895203,
        0.294578671,
        0.767826736
      ],
      "weightShapes": [
        [
          16,
          18
        ],
        [
          16,
          16
        ],
        [
          2,
          16
        ]
      ],
      "biasShapes": [
        16,
        16,
        2
      ]
    },
    {
      "layers": [
        18,
        16,
        16,
        2
      ],
      "weightsFlat": [
        0.5473811,
        -0.5630142,
        0.3095925,
        0.774990141,
        0.233265191,
        -0.0292395,
        0.17514053,
        0.4248653,
        0.191585317,
        0.2998959,
        -0.6228616,
        0.113234431,
        0.331518739,
        -0.85458523,
        -0.667929769,
        0.0209573135,
        -0.5174818,
        0.145746917,
        0.4846374,
        0.735305846,
        -0.812691748,
        0.08481596,
        0.976491749,
        0.44536534,
        -0.286785156,
        -0.705697954,
        0.1742487,
        0.436971515,
        0.2267876,
        0.300788581,
        -0.7378927,
        0.5350559,
        -0.5457436,
        0.916403353,
        -0.101407364,
        0.113496915,
        0.9859799,
        -0.437080383,
        0.407508373,
        -0.273349673,
        0.08021662,
        0.7891084,
        0.4037852,
        0.05196774,
        -0.502582967,
        -0.134370759,
        -0.0767979547,
        -0.588385761,
        0.41787082,
        0.630114,
        0.07424992,
        0.003650038,
        0.208513945,
        0.87886405,
        0.219625264,
        0.206640214,
        0.217239365,
        0.215377867,
        0.157207191,
        -0.8352231,
        -0.588844061,
        -0.211032256,
        0.124018729,
        -0.3678267,
        0.1345921,
        -0.0693296939,
        -0.473207742,
        0.06337713,
        -0.857777834,
        -0.321197718,
        0.0477339476,
        0.343985558,
        0.2841725,
        0.5246007,
        -0.7536643,
        -1.078602,
        -1.30489028,
        -0.350622267,
        -0.117301032,
        0.315010339,
        -0.700737536,
        0.5443739,
        0.1304181,
        -0.668547034,
        -0.6622828,
        -0.155658022,
        -0.44554466,
        1.03084171,
        -0.598359048,
        0.753561854,
        0.0188183766,
        -1.00429487,
        -0.844157636,
        1.39875722,
        0.3907053,
        0.785903037,
        0.0437652059,
        -0.035772793,
        0.0828467757,
        -0.127642751,
        0.5591535,
        -0.394554049,
        0.827993155,
        0.4637084,
        0.7944415,
        0.230716556,
        0.2818734,
        -0.16596517,
        0.0237105656,
        0.1777565,
        -0.494435966,
        -0.773730636,
        1.61282682,
        -0.1254905,
        -0.114931673,
        -0.7028809,
        -0.7787476,
        0.6232643,
        -0.38142,
        0.5965752,
        -0.06254314,
        -0.0816949159,
        -1.26206875,
        -0.383522123,
        -1.2666297,
        -0.5603082,
        -0.410579264,
        -0.129125267,
        -1.55968523,
        -0.210564464,
        0.67978996,
        0.5755311,
        0.04902957,
        -0.207833514,
        0.675014734,
        0.908813,
        0.9241964,
        -0.5023645,
        0.5704805,
        0.11355415,
        -0.652316034,
        -0.0408959575,
        0.5610183,
        -0.402102262,
        -1.78857148,
        0.5001711,
        -0.993468046,
        0.469947636,
        0.3126776,
        -0.518552363,
        0.08378065,
        -0.355530471,
        0.432626724,
        0.5475009,
        -0.255722344,
        0.8449157,
        -0.551320255,
        -0.6058198,
        -0.909536,
        0.6225438,
        -0.03130314,
        0.3085447,
        -0.6152049,
        -0.150361508,
        -0.0236688517,
        -1.24964178,
        0.426327258,
        0.6376564,
        0.4183379,
        1.3555057,
        0.724805832,
        0.105430543,
        0.0211316179,
        -0.233391255,
        1.08934021,
        -0.572762251,
        -0.04328976,
        0.758521855,
        -0.103478409,
        0.1542032,
        -0.273427725,
        0.508156,
        0.1986624,
        0.206195608,
        0.245033816,
        -0.220616922,
        0.350087881,
        -0.392000049,
        0.214188814,
        0.6748353,
        -0.88160634,
        -0.201482728,
        -0.6843258,
        0.132581368,
        -0.09031523,
        -0.4817601,
        0.3203976,
        -0.338593125,
        0.3367584,
        1.1632148,
        0.848662853,
        -0.805684566,
        -0.171301737,
        -0.20393914,
        -0.04279534,
        -0.179964215,
        0.4157333,
        0.0131768482,
        -0.188151136,
        0.174322575,
        0.5375199,
        0.1950306,
        -0.102418087,
        0.208936989,
        -0.732105732,
        0.9068116,
        0.159787223,
        0.618110955,
        0.412906229,
        -0.165378809,
        0.7564921,
        -0.985471547,
        1.10678267,
        0.49163264,
        0.166563347,
        0.279042631,
        -0.00267444,
        0.300682366,
        -1.178644,
        0.259680122,
        -0.553007066,
        0.431528717,
        -0.435271353,
        -0.9806917,
        0.375075936,
        -0.205870867,
        -0.273590237,
        0.39103654,
        -0.168218791,
        0.0590415969,
        -0.8235036,
        0.48087728,
        0.553040743,
        -0.5246416,
        -0.168484747,
        0.456786275,
        0.7276008,
        -1.00137246,
        -0.7653127,
        0.19316341,
        -0.570897162,
        0.278096229,
        -1.309235,
        -0.025302941,
        0.5935454,
        -0.853566647,
        -1.44216514,
        0.9997779,
        -0.391328067,
        -0.0688208938,
        0.251224846,
        -0.1489502,
        0.306117356,
        0.258674532,
        0.199792862,
        0.7289104,
        -1.39445472,
        -0.236373454,
        0.201564759,
        -0.0225025453,
        -0.07850512,
        -0.266534418,
        -0.8409439,
        0.5411566,
        -0.365232527,
        -0.976047039,
        -0.4383123,
        -0.196984768,
        0.0380378626,
        0.6984153,
        0.583764434,
        0.650024056,
        0.6358391,
        -0.7176473,
        0.00788438,
        -0.002755132,
        -0.6972114,
        -0.213743538,
        -0.650927365,
        0.7329741,
        -0.314507872,
        -0.499049246,
        -0.0646482259,
        -0.6055223,
        0.5500157,
        0.09352899,
        0.173551947,
        0.4603945,
        0.5038853,
        0.374014825,
        -0.562534,
        0.719735146,
        -0.008194603,
        1.88081551,
        -0.386858,
        -0.43313,
        0.527007937,
        -0.7124722,
        -1.27107489,
        0.318029076,
        0.536866963,
        0.8451404,
        0.498290122,
        0.570202351,
        -0.967083156,
        0.076417625,
        -1.77156878,
        0.274183184,
        -0.1772777,
        0.8947438,
        0.2638216,
        0.239722058,
        0.324660361,
        -0.236008212,
        0.242329314,
        0.27080363,
        -0.397645384,
        -0.235839009,
        0.43258062,
        -0.67336005,
        0.153914526,
        0.2882124,
        -0.7640586,
        -0.126753628,
        0.143719524,
        0.444027662,
        -1.27505362,
        0.106320247,
        -0.366119117,
        0.1446792,
        0.9000989,
        0.0489575341,
        -0.8410172,
        -1.2869333,
        0.3643528,
        0.234076783,
        0.751993656,
        0.08153043,
        0.752181947,
        -0.783669651,
        0.625866652,
        0.8704463,
        -0.288941741,
        -0.4842987,
        0.7307452,
        -1.09018135,
        0.5148111,
        0.169905692,
        -0.9043883,
        -0.374147326,
        0.218260944,
        0.886029065,
        0.457142,
        0.04708786,
        0.71952796,
        0.356024384,
        0.0412075035,
        0.3182378,
        -0.5215528,
        0.05025802,
        0.3985706,
        -0.434818149,
        -0.9944361,
        -0.6907321,
        0.00821871,
        -0.4497989,
        -0.499311537,
        0.4806933,
        -0.54836446,
        -0.03980103,
        -0.404690742,
        0.0166711435,
        0.241307423,
        1.42233765,
        -0.6225154,
        -0.8835266,
        0.007224782,
        0.4224706,
        -0.112808526,
        0.20171763,
        -0.175344452,
        0.7164189,
        -0.08649265,
        0.495948225,
        0.518191934,
        -0.00159505336,
        -0.257603884,
        0.1684638,
        -0.520445,
        0.242015615,
        0.486604244,
        -1.60568583,
        -0.272597134,
        -0.3369345,
        0.615339,
        1.279451,
        0.352507561,
        0.8235539,
        0.00533993,
        -1.64105451,
        -0.241242379,
        0.6166905,
        -0.183250427,
        -0.6015672,
        0.7539881,
        0.604611933,
        -0.351181239,
        0.539324343,
        0.3588914,
        0.695469558,
        0.251244932,
        0.09755014,
        -0.477388442,
        -0.2830559,
        0.6237892,
        0.0753541142,
        0.276988655,
        0.06991089,
        -0.178524792,
        -0.07367641,
        0.0374273472,
        0.277722239,
        0.199341491,
        0.5570827,
        -0.185541645,
        -0.491639942,
        0.374847859,
        0.6387747,
        -0.09072517,
        -0.829894841,
        -0.0902577862,
        0.140791044,
        0.3262652,
        -0.6925234,
        -0.6928991,
        0.142651409,
        0.261952966,
        -0.386277646,
        0.07632328,
        0.154694229,
        -0.665503263,
        -0.0993398,
        0.687119663,
        -1.00978613,
        0.661991537,
        -0.7024208,
        -0.6468932,
        -0.174914762,
        0.8516373,
        0.3048833,
        -0.057035055,
        -0.385042042,
        -0.0167383011,
        0.502915263,
        -0.5227474,
        -0.734259069,
        0.496973872,
        0.0312582664,
        0.16467306,
        0.32950148,
        0.1976599,
        0.5874029,
        0.71036613,
        0.206833243,
        0.8178628,
        -0.0652695149,
        -0.465269536,
        -0.578878,
        -0.500409842,
        0.346843719,
        0.701153,
        0.5412222,
        -0.004800561,
        -0.632019639,
        0.405958265,
        -0.8360078,
        -0.162216678,
        0.05776454,
        -0.3674841,
        -0.506543636,
        -0.2661624,
        0.295000076,
        -0.411145836,
        0.335001349,
        0.6102028,
        0.279655725,
        -0.273426831,
        -0.430148244,
        0.4382812,
        0.507925332,
        -0.05425988,
        -0.360066146,
        -0.5115345,
        0.0624699257,
        0.631239653,
        -0.180234686,
        0.501817644,
        1.06021047,
        0.6591003,
        -0.324017316,
        -0.123204462,
        0.191160485,
        0.685947061,
        0.222469687,
        -0.333622068,
        -0.8067321,
        -0.362144977,
        -0.19958204,
        -0.55223155,
        0.203154191,
        0.5919564,
        0.356429368,
        -0.4708048,
        -0.2424973,
        -0.5231421,
        0.5296006,
        0.594214141,
        -0.183458731,
        -0.954678,
        -0.569081545,
        0.1284032,
        -0.331015348,
        0.287597626,
        0.194847345,
        -0.015189942,
        0.43230924,
        -0.0497901253,
        -0.2614134,
        0.182148248,
        -0.71297425,
        0.500975668,
        0.0293718148,
        -0.278031856,
        0.701000869,
        -0.04057268,
        -0.0165436938,
        -0.233724549,
        -0.7129063,
        -0.1911167,
        -0.135590792,
        0.382387966,
        -0.2309415,
        0.00656646956,
        -0.7277177,
        -0.371192783,
        1.26425028,
        -0.5865846,
        0.557551563,
        0.376864731,
        -0.371729672,
        -0.811068952,
        -0.5015662,
        -0.67499727,
        0.830530763,
        -0.267029941,
        -0.1869221,
        -0.292535216,
        0.110796288,
        0.08442382,
        -0.324918747,
        0.399468929,
        -0.338276237,
        -0.5314054,
        -0.492925227,
        -0.181114,
        0.440113217
      ],
      "biasesFlat": [
        -0.05294024,
        0.20858708,
        -0.138405636,
        0.42816487,
        -0.748325467,
        -0.335361034,
        0.331958652,
        -0.487074167,
        0.62816757,
        -0.253925383,
        0.199571565,
        0.5319536,
        -0.3590577,
        -1.16009271,
        0.834490538,
        0.288012356,
        -0.259718269,
        -0.1749522,
        -0.372624576,
        -0.354638219,
        0.0402732231,
        -1.28959715,
        -0.206730321,
        -0.244239479,
        0.357998073,
        -1.07471538,
        0.204771027,
        -0.7452051,
        -0.213072643,
        0.453655958,
        -1.24178541,
        -0.498030931,
        0.000382965954,
        0.767826736
      ],
      "weightShapes": [
        [
          16,
          18
        ],
        [
          16,
          16
        ],
        [
          2,
          16
        ]
      ],
      "biasShapes": [
        16,
        16,
        2
      ]
    },
    {
      "layers": [
        18,
        16,
        16,
        2
      ],
      "weightsFlat": [
        0.258123517,
        -0.5630142,
        0.3095925,
        0.774990141,
        0.233265191,
        -0.0292395,
        0.17514053,
        0.312030643,
        0.346109152,
        0.4551706,
        -0.6228616,
        0.113234431,
        0.270241439,
        -0.85458523,
        -0.667929769,
        0.0209573135,
        -0.5174818,
        0.05980608,
        0.3497646,
        0.944370449,
        -0.38214,
        0.08481596,
        0.976491749,
        0.191140443,
        -0.233741343,
        -0.90017575,
        0.165234908,
        0.436971515,
        0.2267876,
        0.300788581,
        -0.7378927,
        0.2442398,
        -0.5457436,
        0.916403353,
        0.0323424041,
        0.03639735,
        0.9859799,
        -0.437080383,
        0.407508373,
        -0.273349673,
        0.08021662,
        0.7891084,
        0.4037852,
        0.05196774,
        -0.351590246,
        0.16403465,
        -0.0767979547,
        -0.588385761,
        0.41787082,
        0.630114,
        -0.1394822,
        -0.2620346,
        0.135959968,
        0.87886405,
        -0.07521217,
        0.206640214,
        0.217239365,
        0.215377867,
        0.157207191,
        -0.977821231,
        -0.588844061,
        0.0947934538,
        -0.04284731,
        -0.3678267,
        0.1345921,
        -0.006166931,
        -0.5073941,
        0.06337713,
        -0.934235,
        -0.2850505,
        0.04161713,
        0.343985558,
        0.2841725,
        0.3267647,
        -0.4867652,
        -1.078602,
        -1.30489028,
        -0.487317026,
        -0.117301032,
        0.315010339,
        -0.6485093,
        0.5443739,
        0.06956128,
        -0.52253443,
        -0.499219149,
        -0.155658022,
        -0.44554466,
        1.10814631,
        -0.598359048,
        0.753561854,
        0.0188183766,
        -1.00429487,
        -0.844157636,
        1.39875722,
        0.4316292,
        0.785903037,
        0.2988398,
        0.19072251,
        0.0828467757,
        -0.127642751,
        0.332955748,
        -0.394554049,
        0.827993155,
        0.4637084,
        0.574764252,
        0.230716556,
        0.2818734,
        -0.16596517,
        0.232769534,
        0.1777565,
        -0.7443395,
        -0.773730636,
        1.61282682,
        -0.414053679,
        -0.114931673,
        -0.52685827,
        -0.7787476,
        0.6232643,
        -0.38142,
        0.5965752,
        -0.06254314,
        -0.0816949159,
        -1.26206875,
        -0.383522123,
        -1.12313187,
        -0.5603082,
        -0.410579264,
        -0.129125267,
        -1.55968523,
        -0.210564464,
        0.757977962,
        0.7160074,
        -0.323864281,
        -0.207833514,
        0.764861166,
        0.908813,
        0.932397842,
        -0.5023645,
        0.5704805,
        0.07270541,
        -0.652316034,
        0.101249091,
        0.5610183,
        -0.402102262,
        -1.52593255,
        0.5001711,
        -0.993468046,
        0.469947636,
        0.3126776,
        -0.518552363,
        0.08378065,
        -0.3778246,
        0.432626724,
        0.5475009,
        -0.255722344,
        1.13890123,
        -0.551320255,
        -0.3718024,
        -0.909536,
        0.6225438,
        0.06840288,
        0.3085447,
        -0.720806062,
        -0.186559588,
        -0.0236688517,
        -1.24964178,
        -0.04914999,
        0.348612458,
        0.4183379,
        1.32306337,
        0.724805832,
        0.105430543,
        0.0211316179,
        -0.233391255,
        1.08934021,
        -0.572762251,
        -0.04328976,
        0.758521855,
        -0.103478409,
        0.0176947657,
        -0.273427725,
        0.508156,
        0.169384658,
        0.041664578,
        0.317761153,
        -0.220616922,
        0.5312763,
        -0.392000049,
        0.214188814,
        0.6748353,
        -0.88160634,
        -0.201482728,
        -0.6843258,
        0.132581368,
        -0.113662459,
        -0.08623623,
        0.21712327,
        -0.101586461,
        0.454467684,
        1.1632148,
        0.848662853,
        -0.7303528,
        -0.149009675,
        -0.20393914,
        0.09453683,
        -0.043067,
        0.263186872,
        0.0131768482,
        -0.188151136,
        0.174322575,
        0.288624346,
        0.1950306,
        -0.102418087,
        0.208936989,
        -0.732105732,
        0.9068116,
        0.159787223,
        0.618110955,
        0.315917939,
        -0.165378809,
        0.7564921,
        -0.49645412,
        1.10678267,
        0.49163264,
        0.166563347,
        0.279042631,
        -0.00267444,
        0.300682366,
        -1.11260509,
        0.259680122,
        -0.09431441,
        0.431528717,
        -0.435271353,
        -0.9806917,
        0.375075936,
        -0.205870867,
        -0.261148363,
        0.39103654,
        -0.4107171,
        0.0590415969,
        -0.751171768,
        0.48087728,
        0.4735738,
        -0.5246416,
        -0.6135551,
        0.345045,
        0.7276008,
        -1.00137246,
        -0.7653127,
        0.19316341,
        -0.570897162,
        0.348503232,
        -1.309235,
        -0.025302941,
        0.5935454,
        -1.00095892,
        -1.63357031,
        0.9997779,
        -0.764992952,
        -0.0688208938,
        0.06665383,
        -0.07331008,
        0.306117356,
        0.258674532,
        0.06351777,
        0.7289104,
        -1.39445472,
        -0.2669066,
        0.201564759,
        -0.0225025453,
        0.117129095,
        -0.157620415,
        -0.596863449,
        0.5411566,
        -0.537885,
        -0.8770449,
        -0.414305478,
        -0.196984768,
        0.0380378626,
        0.609397054,
        0.336082369,
        0.650024056,
        0.6358391,
        -0.7176473,
        0.00788438,
        0.0251413248,
        -0.8521871,
        -0.5085877,
        -0.650927365,
        0.8489082,
        -0.314507872,
        -0.212737024,
        -0.0646482259,
        -0.516266167,
        0.7845872,
        0.09352899,
        0.173551947,
        0.4603945,
        0.5038853,
        0.374014825,
        -0.5583094,
        0.719735146,
        -0.184546277,
        1.38650274,
        -0.386858,
        -0.43313,
        0.527007937,
        -0.7124722,
        -1.27107489,
        0.397372961,
        0.536866963,
        0.8707628,
        0.4297072,
        0.570202351,
        -1.09907985,
        0.264357984,
        -1.82905746,
        0.476007551,
        -0.250830144,
        0.8947438,
        0.2638216,
        0.239722058,
        0.226576447,
        -0.360182136,
        0.0208762717,
        0.27080363,
        -0.305272371,
        -0.4306317,
        0.2876073,
        -0.67336005,
        0.153914526,
        0.2882124,
        -1.00025582,
        -0.126753628,
        0.3227874,
        0.230701759,
        -1.50695515,
        0.106320247,
        -0.366119117,
        0.201120064,
        0.9000989,
        -0.0128863035,
        -0.8410172,
        -1.2869333,
        0.3643528,
        0.13402544,
        0.751993656,
        0.08153043,
        0.6231127,
        -0.783669651,
        0.625866652,
        0.8704463,
        -0.288941741,
        -0.440295,
        0.7307452,
        -1.138942,
        0.377916873,
        0.143042937,
        -0.9043883,
        -0.374147326,
        0.218260944,
        0.886029065,
        0.457142,
        0.324825019,
        0.72525537,
        0.214373454,
        -0.117368989,
        0.287073463,
        -0.5215528,
        0.05025802,
        0.278700322,
        -0.170558766,
        -0.9944361,
        -0.4530622,
        0.00821871,
        -0.4497989,
        -0.51239264,
        0.610586345,
        -0.54836446,
        -0.06610483,
        -0.4496404,
        0.0166711435,
        0.241307423,
        1.42233765,
        -0.6225154,
        -0.790877342,
        0.007224782,
        0.4224706,
        -0.2647415,
        0.16928643,
        0.07681719,
        0.55378896,
        0.151131526,
        0.63371,
        0.223550916,
        -0.218683779,
        -0.257603884,
        -0.136956,
        -0.5284967,
        0.242015615,
        0.486604244,
        -1.60568583,
        -0.38310343,
        -0.3369345,
        0.615339,
        1.279451,
        0.352507561,
        0.8791805,
        0.11349792,
        -1.64105451,
        -0.3926415,
        0.6166905,
        -0.183250427,
        -0.6015672,
        0.7539881,
        0.604611933,
        -0.3987702,
        0.5468065,
        0.3588914,
        0.704940259,
        0.251244932,
        0.09755014,
        -0.477388442,
        -0.331083179,
        0.851163745,
        0.0753541142,
        0.4755727,
        0.06991089,
        -0.178524792,
        -0.297403157,
        0.0374273472,
        0.499109179,
        0.09016788,
        0.5570827,
        -0.185541645,
        -0.491639942,
        0.374847859,
        0.5616274,
        -0.09072517,
        -1.00300741,
        -0.0902577862,
        0.140791044,
        0.3262652,
        -0.8344407,
        -0.405783176,
        0.142651409,
        0.261952966,
        -0.329640418,
        0.07632328,
        0.154694229,
        -0.665503263,
        -0.07865029,
        0.687119663,
        -0.8475291,
        0.661991537,
        -0.455408,
        -0.471078426,
        -0.428875059,
        0.8516373,
        0.3272647,
        -0.140230969,
        -0.385042042,
        -0.0167383011,
        0.502915263,
        -0.5227474,
        -0.734259069,
        0.3698712,
        0.0312582664,
        0.16467306,
        0.32950148,
        0.1976599,
        0.5874029,
        0.6313284,
        0.342386574,
        0.8178628,
        -0.040508952,
        -0.411183,
        -0.291800171,
        -0.500409842,
        0.5580476,
        0.701153,
        0.5412222,
        -0.004800561,
        -0.632019639,
        0.405958265,
        -0.696342647,
        -0.162216678,
        0.05776454,
        -0.324183851,
        -0.506543636,
        -0.2661624,
        0.295000076,
        -0.411145836,
        0.108411543,
        0.3223889,
        0.279655725,
        -0.273426831,
        -0.525706,
        0.4382812,
        0.323207676,
        -0.2675811,
        -0.360066146,
        -0.5794585,
        0.0624699257,
        0.631239653,
        -0.322437882,
        0.501817644,
        1.06021047,
        0.6591003,
        -0.324017316,
        -0.379925132,
        0.191160485,
        0.4147686,
        0.222469687,
        -0.05869669,
        -0.8067321,
        -0.3475736,
        -0.19958204,
        -0.55223155,
        0.24216646,
        0.6730485,
        0.256671578,
        -0.4708048,
        -0.2424973,
        -0.310533583,
        0.5296006,
        0.371373266,
        -0.183458731,
        -0.954678,
        -0.569081545,
        0.206424639,
        -0.331015348,
        0.109471954,
        0.194847345,
        -0.015189942,
        0.137442976,
        -0.165893823,
        -0.2614134,
        0.182148248,
        -0.71297425,
        0.500975668,
        0.0293718148,
        -0.278031856,
        0.701000869,
        -0.04057268,
        -0.0165436938,
        -0.233724549,
        -0.7129063,
        0.0296836235,
        -0.135590792,
        0.382387966,
        -0.477176875,
        0.00656646956,
        -0.3943329,
        -0.371192783,
        1.26425028,
        -0.5865846,
        0.557551563,
        0.376864731,
        -0.442604035,
        -0.811068952,
        -0.2172779,
        -0.67499727,
        0.830530763,
        -0.326390862,
        0.0975906551,
        -0.292535216,
        0.129741475,
        0.08442382,
        -0.324918747,
        0.416730821,
        -0.338276237,
        -0.5314054,
        -0.511397243,
        0.0493209474,
        0.330752015
      ],
      "biasesFlat": [
        -0.0491318144,
        0.186162919,
        -0.3698952,
        0.350863636,
        -0.748325467,
        -0.335361034,
        0.331958652,
        -0.369932175,
        0.919797838,
        -0.253925383,
        0.199571565,
        0.5319536,
        -0.3590577,
        -1.16009271,
        0.6623596,
        0.288012356,
        -0.259718269,
        -0.1749522,
        -0.372624576,
        -0.354638219,
        0.0402732231,
        -1.28959715,
        -0.0829867646,
        -0.244239479,
        0.357998073,
        -1.09086859,
        0.204771027,
        -0.7452051,
        -0.213072643,
        0.453655958,
        -0.9778315,
        -0.498030931,
        0.221518055,
        0.767826736
      ],
      "weightShapes": [
        [
          16,
          18
        ],
        [
          16,
          16
        ],
        [
          2,
          16
        ]
      ],
      "biasShapes": [
        16,
        16,
        2
      ]
    },
    {
      "layers": [
        18,
        16,
        16,
        2
      ],
      "weightsFlat": [
        0.5473811,
        -0.5630142,
        0.3095925,
        0.774990141,
        0.233265191,
        -0.0292395,
        0.17514053,
        0.184552327,
        0.191585317,
        0.4551706,
        -0.6228616,
        0.113234431,
        0.270241439,
        -0.749717653,
        -0.667929769,
        -0.146066323,
        -0.5174818,
        0.05980608,
        0.195269033,
        0.944370449,
        -0.6201231,
        0.08481596,
        0.976491749,
        0.44536534,
        -0.315960377,
        -0.705697954,
        0.1742487,
        0.244219452,
        -0.0626562238,
        0.300788581,
        -0.7378927,
        0.4289601,
        -0.5457436,
        0.916403353,
        -0.101407364,
        0.113496915,
        0.9859799,
        -0.437080383,
        0.131350145,
        -0.273349673,
        0.08021662,
        0.7891084,
        0.4037852,
        0.05196774,
        -0.502582967,
        0.334101081,
        -0.0767979547,
        -0.773874342,
        0.41787082,
        0.5881701,
        0.07424992,
        0.003650038,
        0.208513945,
        0.87886405,
        0.4325551,
        0.206640214,
        0.217239365,
        0.215377867,
        0.157207191,
        -0.8352231,
        -0.588844061,
        -0.211032256,
        -0.04284731,
        -0.3678267,
        0.1345921,
        -0.262351245,
        -0.316126943,
        0.318762749,
        -0.857777834,
        -0.2476677,
        0.0477339476,
        0.343985558,
        0.2841725,
        0.551641762,
        -0.7536643,
        -0.880579,
        -1.30489028,
        -0.363328278,
        -0.117301032,
        0.315010339,
        -0.700737536,
        0.5443739,
        0.1304181,
        -0.668547034,
        -0.499219149,
        -0.155658022,
        -0.44554466,
        1.03084171,
        -0.598359048,
        0.753561854,
        0.0188183766,
        -1.00429487,
        -0.844157636,
        1.59362793,
        0.5700553,
        0.410798132,
        0.001195856,
        -0.035772793,
        0.0828467757,
        -0.127642751,
        0.5591535,
        -0.394554049,
        0.827993155,
        0.4637084,
        0.574764252,
        0.523947656,
        0.2818734,
        -0.16596517,
        0.16674605,
        0.302231818,
        -0.494435966,
        -0.773730636,
        1.61282682,
        -0.1254905,
        -0.114931673,
        -0.7028809,
        -0.7787476,
        0.6232643,
        -0.245049745,
        0.5965752,
        -0.204425186,
        -0.0816949159,
        -1.26206875,
        -0.65098834,
        -1.2666297,
        -0.5603082,
        -0.410579264,
        -0.268380463,
        -1.55968523,
        -0.37981537,
        0.9385456,
        0.5755311,
        0.04902957,
        -0.207833514,
        0.8899668,
        0.908813,
        0.9241964,
        -0.5023645,
        0.5704805,
        0.11355415,
        -0.652316034,
        -0.329931,
        0.5610183,
        -0.402102262,
        -1.78857148,
        0.5001711,
        -0.993468046,
        0.207627162,
        0.3126776,
        -0.518552363,
        0.08378065,
        -0.355530471,
        0.432626724,
        0.5475009,
        -0.255722344,
        0.8449157,
        -0.551320255,
        -0.6058198,
        -0.909536,
        0.6225438,
        0.06840288,
        0.3085447,
        -0.6152049,
        -0.150361508,
        -0.0236688517,
        -1.24964178,
        0.132312208,
        0.348612458,
        0.4183379,
        1.3555057,
        0.724805832,
        0.105430543,
        0.0211316179,
        -0.233391255,
        1.08934021,
        -0.459920257,
        -0.04328976,
        0.758521855,
        -0.262689173,
        0.1542032,
        -0.273427725,
        0.508156,
        0.256687224,
        0.206195608,
        0.245033816,
        -0.220616922,
        0.538576543,
        -0.392000049,
        0.214188814,
        0.6748353,
        -0.88160634,
        -0.201482728,
        -0.6843258,
        0.132581368,
        -0.199346408,
        -0.4817601,
        0.3203976,
        -0.338593125,
        0.3367584,
        1.1632148,
        0.848662853,
        -0.805684566,
        -0.171301737,
        -0.116701372,
        -0.04279534,
        0.09341359,
        0.0146933757,
        0.0131768482,
        -0.188151136,
        0.174322575,
        0.3283303,
        0.1950306,
        -0.102418087,
        0.289663076,
        -0.732105732,
        1.02969646,
        0.159787223,
        0.618110955,
        0.446664631,
        -0.165378809,
        0.7564921,
        -0.730932653,
        1.10678267,
        0.49163264,
        0.166563347,
        0.200915784,
        -0.00267444,
        0.300682366,
        -0.9927598,
        0.259680122,
        -0.553007066,
        0.431528717,
        -0.209491134,
        -0.9806917,
        0.375075936,
        -0.205870867,
        -0.261148363,
        0.39103654,
        -0.168218791,
        0.0590415969,
        -0.751171768,
        0.48087728,
        0.553040743,
        -0.5246416,
        -0.168484747,
        0.470627934,
        0.7276008,
        -1.00137246,
        -0.7653127,
        0.19316341,
        -0.570897162,
        0.278096229,
        -1.34830856,
        -0.025302941,
        0.5935454,
        -0.853566647,
        -1.44216514,
        0.9997779,
        -0.391328067,
        -0.0688208938,
        0.06665383,
        -0.1489502,
        0.306117356,
        0.258674532,
        0.1890746,
        0.7289104,
        -1.39445472,
        -0.236373454,
        0.201564759,
        0.0252816938,
        -0.07850512,
        -0.266534418,
        -0.8409439,
        0.4167673,
        -0.365232527,
        -0.976047039,
        -0.1573017,
        -0.196984768,
        0.0380378626,
        0.609397054,
        0.336082369,
        0.650024056,
        0.8187335,
        -0.427142769,
        0.00788438,
        0.349468768,
        -0.6972114,
        -0.5085877,
        -0.6380814,
        0.8489082,
        -0.243530542,
        -0.590953231,
        -0.0646482259,
        -0.6055223,
        0.5500157,
        0.09352899,
        0.173551947,
        0.4603945,
        0.5038853,
        0.374014825,
        -0.562534,
        0.719735146,
        -0.184546277,
        1.88081551,
        -0.828150451,
        -0.43313,
        0.3962887,
        -0.66441226,
        -1.27107489,
        0.318029076,
        0.536866963,
        0.8451404,
        0.498290122,
        0.570202351,
        -0.967083156,
        0.076417625,
        -1.77156878,
        0.274183184,
        -0.1772777,
        0.8947438,
        0.2638216,
        0.239722058,
        0.609091,
        -0.392670065,
        0.0208762717,
        0.27080363,
        -0.305272371,
        -0.235839009,
        0.43258062,
        -0.67336005,
        0.153914526,
        0.2882124,
        -0.954677,
        -0.126753628,
        0.26685366,
        0.444027662,
        -1.27505362,
        0.106320247,
        -0.366119117,
        0.1446792,
        0.9000989,
        0.0489575341,
        -0.8410172,
        -1.2869333,
        0.3643528,
        -0.0346470065,
        0.751993656,
        0.1232878,
        0.752181947,
        -0.7443241,
        0.625866652,
        0.8704463,
        -0.288941741,
        -0.4842987,
        0.7307452,
        -1.138942,
        0.5148111,
        0.169905692,
        -0.9043883,
        -0.374147326,
        0.218260944,
        0.886029065,
        0.457142,
        0.04708786,
        0.8854854,
        0.356024384,
        0.0412075035,
        0.3454852,
        -0.5215528,
        0.05025802,
        0.3985706,
        -0.434818149,
        -0.9944361,
        -0.6907321,
        -0.104717985,
        -0.4497989,
        -0.499311537,
        0.4806933,
        -0.54836446,
        -0.03980103,
        -0.4496404,
        0.006009957,
        0.241307423,
        1.66339672,
        -0.6225154,
        -0.8835266,
        0.007224782,
        0.4224706,
        -0.2647415,
        0.16928643,
        -0.175344452,
        0.7164189,
        -0.08649265,
        0.522877038,
        0.518191934,
        -0.00159505336,
        -0.257603884,
        0.1684638,
        -0.520445,
        0.242015615,
        0.486604244,
        -1.60568583,
        -0.272597134,
        -0.3369345,
        0.615339,
        1.279451,
        0.352507561,
        0.8235539,
        0.00533993,
        -1.64105451,
        -0.142587721,
        0.6166905,
        -0.183250427,
        -0.6015672,
        0.7539881,
        0.604611933,
        -0.351181239,
        0.539324343,
        0.3588914,
        0.9544153,
        0.413806051,
        0.09755014,
        -0.477388442,
        -0.2830559,
        0.5291572,
        0.0753541142,
        0.4755727,
        0.06991089,
        -0.178524792,
        -0.297403157,
        -0.109599486,
        0.499109179,
        0.09016788,
        0.5570827,
        -0.185541645,
        -0.491639942,
        0.374847859,
        0.6387747,
        -0.09072517,
        -0.829894841,
        -0.0902577862,
        0.140791044,
        0.3262652,
        -0.6925234,
        -0.620571,
        0.142651409,
        0.261952966,
        -0.386277646,
        0.07632328,
        0.154694229,
        -0.665503263,
        -0.0993398,
        0.687119663,
        -0.767017245,
        0.661991537,
        -0.455408,
        -0.6468932,
        -0.174914762,
        0.8516373,
        0.3272647,
        -0.057035055,
        -0.385042042,
        -0.0167383011,
        0.502915263,
        -0.5227474,
        -0.734259069,
        0.23694177,
        0.0312582664,
        0.16467306,
        0.32950148,
        0.1976599,
        0.5874029,
        0.71036613,
        0.206833243,
        0.8178628,
        -0.0652695149,
        -0.5679747,
        -0.578878,
        -0.500409842,
        0.346843719,
        0.701153,
        0.5412222,
        -0.004800561,
        -0.632019639,
        0.405958265,
        -0.8360078,
        -0.162216678,
        0.05776454,
        -0.3674841,
        -0.506543636,
        -0.139617443,
        0.295000076,
        -0.411145836,
        0.108411543,
        0.6102028,
        0.279655725,
        -0.273426831,
        -0.6673748,
        0.6366035,
        0.507925332,
        -0.05425988,
        -0.360066146,
        -0.5794585,
        0.0624699257,
        0.8097294,
        -0.0007312018,
        0.516890347,
        1.06021047,
        0.6591003,
        -0.324017316,
        -0.123204462,
        0.191160485,
        0.4147686,
        0.222469687,
        -0.333622068,
        -0.3910147,
        -0.362144977,
        -0.286018133,
        -0.55223155,
        0.203154191,
        0.8735989,
        0.356429368,
        -0.4708048,
        -0.2424973,
        -0.5231421,
        0.5296006,
        0.594214141,
        -0.183458731,
        -0.954678,
        -0.569081545,
        0.353580743,
        -0.6079452,
        0.287597626,
        0.194847345,
        -0.015189942,
        0.43230924,
        0.116478443,
        -0.2614134,
        0.182148248,
        -0.71297425,
        0.500975668,
        0.0293718148,
        -0.278031856,
        0.701000869,
        -0.04057268,
        -0.0165436938,
        -0.233724549,
        -0.7129063,
        -0.1911167,
        0.102193892,
        0.382387966,
        -0.2309415,
        0.2185143,
        -0.433056325,
        -0.371192783,
        1.10039914,
        -0.5865846,
        0.557551563,
        0.376864731,
        -0.442604035,
        -0.811068952,
        -0.360547066,
        -0.67499727,
        0.830530763,
        -0.326390862,
        -0.1869221,
        -0.292535216,
        0.110796288,
        0.08442382,
        -0.3931107,
        0.399468929,
        -0.338276237,
        -0.5314054,
        -0.315159947,
        -0.181114,
        0.330752015
      ],
      "biasesFlat": [
        -0.05294024,
        0.20858708,
        -0.138405636,
        0.42816487,
        -0.748325467,
        -0.335361034,
        0.331958652,
        -0.487074167,
        0.7760859,
        -0.253925383,
        0.199571565,
        0.5319536,
        -0.3590577,
        -0.9430737,
        0.834490538,
        0.252854675,
        -0.259718269,
        -0.1749522,
        -0.372624576,
        -0.354638219,
        0.0402732231,
        -1.28959715,
        -0.407946944,
        -0.244239479,
        0.357998073,
        -1.19428062,
        0.204771027,
        -0.7452051,
        -0.126657,
        0.453655958,
        -0.952331066,
        -0.498030931,
        0.000382965954,
        0.767826736
      ],
      "weightShapes": [
        [
          16,
          18
        ],
        [
          16,
          16
        ],
        [
          2,
          16
        ]
      ],
      "biasShapes": [
        16,
        16,
        2
      ]
    },
    {
      "layers": [
        18,
        16,
        16,
        2
      ],
      "weightsFlat": [
        0.5473811,
        -0.3734686,
        0.3095925,
        0.774990141,
        0.233265191,
        -0.0292395,
        0.17514053,
        0.4248653,
        0.442537338,
        0.493081033,
        -0.6228616,
        0.113234431,
        0.331518739,
        -0.85458523,
        -0.667929769,
        0.0209573135,
        -0.5174818,
        0.145746917,
        0.4846374,
        0.518217444,
        -0.812691748,
        0.08481596,
        1.26135218,
        0.570737362,
        -0.286785156,
        -0.705697954,
        0.1742487,
        0.436971515,
        0.2267876,
        0.300788581,
        -0.7378927,
        0.5350559,
        -0.5457436,
        0.916403353,
        -0.101407364,
        0.113496915,
        0.9721213,
        -0.437080383,
        0.407508373,
        -0.273349673,
        -0.197878346,
        0.7891084,
        0.6311687,
        0.05196774,
        -0.502582967,
        -0.134370759,
        -0.0767979547,
        -0.5262273,
        0.41787082,
        0.7944846,
        0.08366314,
        0.003650038,
        0.44863084,
        0.87886405,
        0.219625264,
        0.206640214,
        0.3847119,
        0.215377867,
        0.157207191,
        -0.8352231,
        -0.588844061,
        -0.211032256,
        0.124018729,
        -0.3678267,
        0.1345921,
        -0.0693296939,
        -0.473207742,
        0.06337713,
        -0.857777834,
        -0.6103675,
        -0.01626213,
        0.343985558,
        0.2841725,
        0.5246007,
        -0.7536643,
        -0.9535154,
        -1.50082421,
        -0.350622267,
        -0.117301032,
        0.315010339,
        -0.700737536,
        0.5443739,
        0.1304181,
        -0.668547034,
        -0.6622828,
        -0.113881178,
        -0.44554466,
        1.05626667,
        -0.598359048,
        0.753561854,
        0.0188183766,
        -1.00429487,
        -0.844157636,
        1.39875722,
        0.3907053,
        0.785903037,
        0.0437652059,
        -0.035772793,
        0.0828467757,
        -0.127642751,
        0.5591535,
        -0.394554049,
        0.827993155,
        0.4637084,
        0.7944415,
        0.230716556,
        0.2818734,
        -0.16596517,
        0.08711701,
        0.1777565,
        -0.494435966,
        -0.773730636,
        1.61282682,
        -0.1254905,
        0.302772582,
        -0.970105469,
        -0.7787476,
        0.6232643,
        -0.38142,
        0.5965752,
        -0.06254314,
        0.128612727,
        -1.46757066,
        -0.383522123,
        -1.2666297,
        -0.5603082,
        -0.410579264,
        -0.129125267,
        -1.55968523,
        -0.210564464,
        0.8704843,
        0.5755311,
        0.04902957,
        -0.207833514,
        0.675014734,
        0.908813,
        0.9241964,
        -0.5023645,
        0.5704805,
        0.11355415,
        -0.652316034,
        -0.0408959575,
        0.5610183,
        -0.402102262,
        -1.78857148,
        0.5001711,
        -0.993468046,
        0.469947636,
        0.441410065,
        -0.518552363,
        -0.002772284,
        -0.355530471,
        0.432626724,
        0.5475009,
        -0.255722344,
        0.8449157,
        -0.551320255,
        -0.6058198,
        -0.909536,
        0.6225438,
        0.226460442,
        0.3085447,
        -0.6152049,
        -0.150361508,
        -0.0236688517,
        -1.24964178,
        0.426327258,
        0.6376564,
        0.4183379,
        1.3555057,
        0.724805832,
        0.105430543,
        0.0211316179,
        -0.233391255,
        1.08934021,
        -0.81325233,
        0.140630022,
        0.758521855,
        -0.103478409,
        0.1542032,
        -0.273427725,
        0.508156,
        0.1986624,
        0.206195608,
        0.245033816,
        -0.220616922,
        0.350087881,
        -0.392000049,
        0.277508765,
        0.6748353,
        -0.88160634,
        -0.201482728,
        -0.8467169,
        -0.140328512,
        -0.09031523,
        -0.4817601,
        0.3203976,
        -0.338593125,
        0.3367584,
        1.1632148,
        0.848662853,
        -0.805684566,
        -0.171301737,
        -0.20393914,
        -0.04279534,
        -0.179964215,
        0.6118521,
        0.0686896,
        -0.188151136,
        0.174322575,
        0.5375199,
        0.1950306,
        -0.224911615,
        0.208936989,
        -0.732105732,
        0.9068116,
        0.159787223,
        0.618110955,
        0.412906229,
        -0.165378809,
        0.7564921,
        -0.982796252,
        0.9820815,
        0.2089794,
        0.2639663,
        0.279042631,
        -0.00267444,
        0.300682366,
        -1.44405878,
        0.259680122,
        -0.553007066,
        0.154495224,
        -0.7150896,
        -0.9806917,
        0.375075936,
        -0.205870867,
        -0.273590237,
        0.39103654,
        -0.168218791,
        0.0590415969,
        -0.8235036,
        0.48087728,
        0.553040743,
        -0.651787,
        -0.168484747,
        0.456786275,
        0.7276008,
        -1.00137246,
        -0.7653127,
        0.19316341,
        -0.570897162,
        0.278096229,
        -1.57625222,
        -0.025302941,
        0.480515331,
        -0.853566647,
        -1.44216514,
        0.9997779,
        -0.406860262,
        -0.0688208938,
        0.251224846,
        -0.1489502,
        0.306117356,
        0.258674532,
        0.199792862,
        0.7289104,
        -1.39445472,
        -0.236373454,
        0.201564759,
        -0.0225025453,
        -0.07850512,
        0.0256582368,
        -0.8409439,
        0.377450824,
        -0.365232527,
        -0.6047473,
        -0.15160042,
        -0.196984768,
        0.0380378626,
        0.6984153,
        0.871162236,
        0.650024056,
        0.7361993,
        -0.7176473,
        0.00788438,
        -0.002755132,
        -0.944681942,
        -0.230454624,
        -0.650927365,
        0.7329741,
        -0.48009634,
        -0.499049246,
        -0.07499417,
        -0.8138512,
        0.5500157,
        0.09352899,
        0.173551947,
        0.4603945,
        0.5038853,
        0.374014825,
        -0.562534,
        0.719735146,
        -0.257518917,
        1.88081551,
        -0.386858,
        -0.5350312,
        0.527007937,
        -0.7124722,
        -1.27107489,
        0.318029076,
        0.536866963,
        0.8451404,
        0.498290122,
        0.570202351,
        -0.967083156,
        0.076417625,
        -1.77156878,
        0.274183184,
        -0.1772777,
        0.8947438,
        0.253654242,
        0.239722058,
        0.324660361,
        -0.236008212,
        0.242329314,
        0.4658444,
        -0.623698354,
        -0.235839009,
        0.279833227,
        -0.7184168,
        0.153914526,
        0.2882124,
        -0.6845496,
        -0.126753628,
        0.143719524,
        0.444027662,
        -1.27505362,
        0.106320247,
        -0.366119117,
        0.1446792,
        0.9000989,
        -0.0227363519,
        -0.8410172,
        -1.2869333,
        0.3643528,
        0.234076783,
        0.751993656,
        0.08153043,
        0.752181947,
        -0.783669651,
        0.625866652,
        0.8332915,
        -0.288941741,
        -0.48124066,
        0.7307452,
        -1.09018135,
        0.5148111,
        0.169905692,
        -0.9043883,
        -0.227848679,
        0.263340116,
        0.886029065,
        0.236676872,
        0.04708786,
        0.7311881,
        0.356024384,
        0.0412075035,
        0.3182378,
        -0.5215528,
        0.05025802,
        0.3985706,
        -0.434818149,
        -1.137775,
        -0.6907321,
        0.00821871,
        -0.4497989,
        -0.499311537,
        0.4806933,
        -0.54836446,
        -0.03980103,
        -0.588027,
        0.0166711435,
        0.241307423,
        1.42233765,
        -0.6225154,
        -0.8835266,
        0.007224782,
        0.4224706,
        -0.112808526,
        0.20171763,
        -0.175344452,
        0.7164189,
        -0.08649265,
        0.495948225,
        0.518191934,
        -0.00159505336,
        -0.257603884,
        0.1684638,
        -0.520445,
        0.242015615,
        0.486604244,
        -1.60568583,
        -0.272597134,
        -0.3369345,
        0.615339,
        1.279451,
        0.352507561,
        0.8235539,
        -0.0449858,
        -1.64105451,
        -0.241242379,
        0.5856066,
        -0.183250427,
        -0.6015672,
        0.7539881,
        0.604611933,
        -0.4499625,
        0.331991076,
        0.3588914,
        0.695469558,
        0.201652646,
        0.0264275949,
        -0.477388442,
        -0.2830559,
        0.6237892,
        0.0753541142,
        0.276988655,
        0.06991089,
        -0.178524792,
        0.0379213542,
        0.0374273472,
        0.266206384,
        -0.0582519025,
        0.5362664,
        -0.185541645,
        -0.491639942,
        0.374847859,
        0.6387747,
        -0.09072517,
        -0.829894841,
        -0.0902577862,
        0.140791044,
        0.0380273946,
        -0.6925234,
        -0.6928991,
        0.142651409,
        0.261952966,
        -0.439052075,
        0.07632328,
        0.154694229,
        -0.665503263,
        -0.0993398,
        0.687119663,
        -1.00978613,
        0.661991537,
        -0.7024208,
        -0.6468932,
        -0.174914762,
        0.8516373,
        0.3048833,
        -0.057035055,
        -0.481581748,
        -0.0167383011,
        0.502915263,
        -0.5227474,
        -0.7262563,
        0.496973872,
        0.0312582664,
        0.16467306,
        0.32950148,
        0.1976599,
        0.5874029,
        0.71036613,
        0.206833243,
        0.8178628,
        0.204659551,
        -0.465269536,
        -0.312862039,
        -0.500409842,
        0.346843719,
        0.701153,
        0.5412222,
        -0.004800561,
        -0.632019639,
        0.474824548,
        -0.8360078,
        -0.162216678,
        0.05776454,
        -0.3674841,
        -0.506543636,
        -0.2661624,
        0.295000076,
        -0.411145836,
        0.335001349,
        0.907970369,
        0.279655725,
        -0.273426831,
        -0.430148244,
        0.4382812,
        0.318420529,
        -0.163441092,
        -0.360066146,
        -0.5115345,
        0.0624699257,
        0.631239653,
        -0.180234686,
        0.501817644,
        1.06021047,
        0.6591003,
        -0.324017316,
        -0.123204462,
        0.191160485,
        0.685947061,
        0.0258193053,
        -0.333622068,
        -0.8067321,
        -0.362144977,
        -0.19958204,
        -0.55223155,
        0.203154191,
        0.5919564,
        0.356429368,
        -0.4708048,
        -0.2424973,
        -0.5231421,
        0.5296006,
        0.594214141,
        -0.183458731,
        -0.6687599,
        -0.569081545,
        0.1284032,
        -0.331015348,
        0.287597626,
        0.194847345,
        -0.015189942,
        0.343263268,
        -0.0497901253,
        -0.2614134,
        0.182148248,
        -0.71297425,
        0.500975668,
        0.0293718148,
        -0.278031856,
        0.701000869,
        -0.04057268,
        -0.0165436938,
        -0.233724549,
        -0.5931824,
        -0.3955967,
        -0.135590792,
        0.382387966,
        -0.2309415,
        0.00656646956,
        -0.7277177,
        -0.08851542,
        1.26425028,
        -0.5865846,
        0.557551563,
        0.376864731,
        -0.371729672,
        -0.811068952,
        -0.549701333,
        -0.67499727,
        0.830530763,
        -0.267029941,
        -0.1869221,
        -0.292535216,
        0.110796288,
        0.08442382,
        -0.324918747,
        0.399468929,
        -0.338276237,
        -0.5314054,
        -0.492925227,
        -0.181114,
        0.440113217
      ],
      "biasesFlat": [
        -0.05294024,
        0.205378234,
        -0.138405636,
        0.42816487,
        -0.748325467,
        -0.335361034,
        0.331958652,
        -0.5265855,
        0.62816757,
        -0.253925383,
        0.3949637,
        0.5319536,
        -0.3590577,
        -1.16009271,
        0.99530977,
        0.255999237,
        -0.259718269,
        -0.1749522,
        -0.372624576,
        -0.354638219,
        0.0402732231,
        -1.28959715,
        -0.206730321,
        -0.244239479,
        0.357998073,
        -1.07471538,
        0.245650381,
        -0.7452051,
        0.00636203261,
        0.412751526,
        -1.24178541,
        -0.498030931,
        0.000382965954,
        0.767826736
      ],
      "weightShapes": [
        [
          16,
          18
        ],
        [
          16,
          16
        ],
        [
          2,
          16
        ]
      ],
      "biasShapes": [
        16,
        16,
        2
      ]
    },
    {
      "layers": [
        18,
        16,
        16,
        2
      ],
      "weightsFlat": [
        0.5473811,
        -0.5630142,
        0.3095925,
        0.774990141,
        0.233265191,
        0.22064288,
        0.17514053,
        0.184552327,
        0.191585317,
        0.4551706,
        -0.6205694,
        0.113234431,
        0.270241439,
        -0.749717653,
        -0.450587958,
        -0.146066323,
        -0.5174818,
        0.225408465,
        0.195269033,
        0.944370449,
        -0.6201231,
        0.336081028,
        0.976491749,
        0.44536534,
        -0.09062795,
        -0.705697954,
        0.1742487,
        0.3615608,
        -0.0626562238,
        0.300788581,
        -0.800205231,
        0.4289601,
        -0.5457436,
        0.916403353,
        -0.3533982,
        0.113496915,
        0.9859799,
        -0.437080383,
        0.131350145,
        -0.439997852,
        0.08021662,
        0.7891084,
        0.4037852,
        0.05196774,
        -0.502582967,
        0.334101081,
        -0.0767979547,
        -0.773874342,
        0.41787082,
        0.5881701,
        0.07424992,
        0.003650038,
        0.208513945,
        0.87886405,
        0.4325551,
        0.4082037,
        0.217239365,
        0.215377867,
        0.3421581,
        -0.8352231,
        -0.588844061,
        -0.211032256,
        -0.318557024,
        -0.3678267,
        0.1345921,
        -0.2330879,
        -0.316126943,
        0.318762749,
        -0.857777834,
        -0.2476677,
        0.0477339476,
        0.343985558,
        0.2841725,
        0.551641762,
        -0.7536643,
        -0.880579,
        -1.30489028,
        -0.363328278,
        -0.117301032,
        0.315010339,
        -0.700737536,
        0.5443739,
        0.1304181,
        -0.668547034,
        -0.499219149,
        -0.155658022,
        -0.443737417,
        1.03084171,
        -0.598359048,
        0.753561854,
        0.0188183766,
        -1.00429487,
        -0.7184643,
        1.33184516,
        0.5700553,
        0.243154138,
        0.001195856,
        -0.035772793,
        0.0828467757,
        -0.127642751,
        0.5591535,
        -0.394554049,
        1.05880618,
        0.4637084,
        0.574764252,
        0.523947656,
        0.445016831,
        -0.16596517,
        0.16674605,
        0.302231818,
        -0.3544147,
        -0.5266041,
        1.61282682,
        -0.1254905,
        -0.123779282,
        -0.7028809,
        -0.7787476,
        0.6232643,
        -0.245049745,
        0.5965752,
        -0.204425186,
        -0.0816949159,
        -1.26206875,
        -0.65098834,
        -1.2666297,
        -0.5603082,
        -0.410579264,
        -0.268380463,
        -1.55968523,
        -0.37981537,
        0.699985862,
        0.491741061,
        0.04902957,
        -0.207833514,
        0.798566639,
        0.908813,
        0.9241964,
        -0.5023645,
        0.8326737,
        0.11355415,
        -0.652316034,
        -0.329931,
        0.5610183,
        -0.402102262,
        -1.78857148,
        0.5001711,
        -0.993468046,
        0.207627162,
        0.3126776,
        -0.518552363,
        0.08378065,
        -0.355530471,
        0.233335987,
        0.5475009,
        -0.392187327,
        0.8449157,
        -0.551320255,
        -0.6058198,
        -0.909536,
        0.6225438,
        0.341152728,
        0.3085447,
        -0.6152049,
        0.3297833,
        -0.0236688517,
        -1.24964178,
        0.132312208,
        0.07792529,
        0.4183379,
        1.3555057,
        0.4277316,
        0.105430543,
        -0.200819165,
        -0.233391255,
        1.08934021,
        -0.459920257,
        -0.04328976,
        0.758521855,
        -0.262689173,
        0.1542032,
        -0.273427725,
        0.508156,
        0.256687224,
        0.206195608,
        0.245033816,
        -0.220616922,
        0.538576543,
        -0.392000049,
        0.214188814,
        0.6748353,
        -0.88160634,
        -0.201482728,
        -0.6843258,
        0.132581368,
        -0.199346408,
        -0.20748198,
        0.3203976,
        -0.338593125,
        0.248599887,
        1.1632148,
        0.848662853,
        -0.805684566,
        -0.171301737,
        -0.116701372,
        -0.04279534,
        -0.000310377043,
        -0.09115826,
        0.0131768482,
        -0.188151136,
        0.174322575,
        0.3283303,
        0.0325283334,
        -0.102418087,
        0.289663076,
        -0.437107533,
        1.02969646,
        0.159787223,
        0.618110955,
        0.38435185,
        -0.165378809,
        0.7564921,
        -0.730932653,
        1.17279613,
        0.49163264,
        0.166563347,
        0.200915784,
        -0.00267444,
        0.300682366,
        -0.9927598,
        0.259680122,
        -0.553007066,
        0.431528717,
        -0.491102666,
        -0.9806917,
        0.375075936,
        -0.205870867,
        -0.261148363,
        0.39103654,
        -0.168218791,
        0.0590415969,
        -0.751171768,
        0.48087728,
        0.553040743,
        -0.5246416,
        -0.168484747,
        0.470627934,
        0.990924,
        -1.00137246,
        -0.7653127,
        0.19316341,
        -0.570897162,
        0.278096229,
        -1.36184943,
        -0.025302941,
        0.5935454,
        -0.853566647,
        -1.58391023,
        0.9997779,
        -0.391328067,
        -0.0688208938,
        -0.220563784,
        -0.1489502,
        0.306117356,
        0.258674532,
        0.1890746,
        0.797567,
        -1.39445472,
        0.008813911,
        0.277636379,
        0.0252816938,
        -0.07850512,
        -0.384378672,
        -0.8409439,
        0.221175313,
        -0.365232527,
        -0.976047039,
        -0.1573017,
        -0.196984768,
        0.0380378626,
        0.609397054,
        0.3821817,
        0.650024056,
        0.8187335,
        -0.427142769,
        0.00788438,
        0.349468768,
        -0.6972114,
        -0.5085877,
        -0.6380814,
        0.8489082,
        -0.243530542,
        -0.590953231,
        0.100283332,
        -0.6055223,
        0.5500157,
        0.2564799,
        0.173551947,
        0.4603945,
        0.408051342,
        0.5274341,
        -0.562534,
        0.719735146,
        -0.184546277,
        1.88081551,
        -0.828150451,
        -0.3662828,
        0.3962887,
        -0.66441226,
        -1.27107489,
        0.318029076,
        0.828943,
        0.8451404,
        0.498290122,
        0.570202351,
        -0.967083156,
        0.076417625,
        -1.7590009,
        0.274183184,
        -0.1772777,
        0.896966636,
        0.435155481,
        0.239722058,
        0.609091,
        -0.392670065,
        0.0208762717,
        0.27080363,
        -0.4023998,
        -0.235839009,
        0.43258062,
        -0.67336005,
        0.153914526,
        0.2882124,
        -0.954677,
        0.09515544,
        0.26685366,
        0.444027662,
        -1.27505362,
        0.106320247,
        -0.366119117,
        0.1446792,
        0.9000989,
        0.0489575341,
        -0.8410172,
        -1.42263436,
        0.614267,
        -0.0346470065,
        0.751993656,
        0.1232878,
        0.9437801,
        -0.7443241,
        0.625866652,
        0.8704463,
        -0.22806941,
        -0.4842987,
        0.7307452,
        -1.138942,
        0.5148111,
        0.169905692,
        -0.9043883,
        -0.374147326,
        0.218260944,
        0.886029065,
        0.457142,
        0.04708786,
        0.8854854,
        0.356024384,
        0.0412075035,
        0.3454852,
        -0.339226216,
        0.05025802,
        0.3985706,
        -0.434818149,
        -0.9944361,
        -0.6907321,
        -0.104717985,
        -0.4497989,
        -0.499311537,
        0.4806933,
        -0.455268055,
        -0.03980103,
        -0.4496404,
        0.006009957,
        0.241307423,
        1.66339672,
        -0.6225154,
        -0.8835266,
        0.007224782,
        0.4224706,
        -0.2647415,
        -0.0272461679,
        -0.175344452,
        0.7164189,
        -0.08649265,
        0.522877038,
        0.518191934,
        -0.00159505336,
        -0.257603884,
        0.1684638,
        -0.520445,
        0.242015615,
        0.486604244,
        -1.60568583,
        -0.336947978,
        -0.3369345,
        0.615339,
        1.279451,
        0.352507561,
        0.8235539,
        0.197426572,
        -1.64105451,
        -0.142587721,
        0.6166905,
        -0.183250427,
        -0.6015672,
        0.66353184,
        0.604611933,
        -0.351181239,
        0.539324343,
        0.3588914,
        0.9544153,
        0.413806051,
        0.09755014,
        -0.477388442,
        -0.2830559,
        0.5291572,
        -0.081886515,
        0.4755727,
        0.06991089,
        -0.178524792,
        -0.297403157,
        -0.109599486,
        0.499109179,
        0.09016788,
        0.8438063,
        -0.185541645,
        -0.491639942,
        0.374847859,
        0.6387747,
        -0.09072517,
        -0.829894841,
        -0.0902577862,
        0.140791044,
        0.3262652,
        -0.6925234,
        -0.620571,
        0.142651409,
        0.261952966,
        -0.386277646,
        0.07632328,
        0.06952308,
        -0.665503263,
        -0.264863372,
        0.687119663,
        -0.767017245,
        0.5940061,
        -0.455408,
        -0.7546061,
        -0.174914762,
        0.610379934,
        0.3272647,
        -0.180402026,
        -0.385042042,
        -0.0167383011,
        0.502915263,
        -0.317552656,
        -0.6996286,
        0.23694177,
        0.0312582664,
        0.16467306,
        0.32950148,
        0.1976599,
        0.5874029,
        0.71036613,
        0.206833243,
        0.8178628,
        0.197124347,
        -0.5679747,
        -0.578878,
        -0.500409842,
        0.346843719,
        0.701153,
        0.5412222,
        -0.004800561,
        -0.39367643,
        0.5845853,
        -0.8360078,
        -0.162216678,
        0.05776454,
        -0.3674841,
        -0.506543636,
        -0.139617443,
        0.295000076,
        -0.411145836,
        0.108411543,
        0.6102028,
        0.279655725,
        -0.273426831,
        -0.6673748,
        0.6366035,
        0.507925332,
        -0.05425988,
        -0.4177088,
        -0.6924238,
        0.0624699257,
        0.8097294,
        -0.0007312018,
        0.516890347,
        1.06021047,
        0.5889935,
        -0.324017316,
        -0.123204462,
        0.191160485,
        0.4147686,
        0.489321232,
        -0.177618623,
        -0.6499211,
        -0.133700222,
        -0.451268137,
        -0.55223155,
        0.343710631,
        0.9121227,
        0.356429368,
        -0.4708048,
        0.026650643,
        -0.5231421,
        0.5296006,
        0.594214141,
        -0.183458731,
        -0.954678,
        -0.65961045,
        0.353580743,
        -0.6079452,
        0.287597626,
        0.194847345,
        -0.015189942,
        0.43230924,
        0.116478443,
        -0.217442423,
        0.182148248,
        -0.71297425,
        0.500975668,
        0.0293718148,
        -0.278031856,
        0.701000869,
        -0.04057268,
        -0.0165436938,
        -0.233724549,
        -0.7129063,
        -0.1911167,
        0.102193892,
        0.382387966,
        -0.2309415,
        0.2185143,
        -0.433056325,
        -0.371192783,
        1.10039914,
        -0.304922342,
        0.557551563,
        0.376864731,
        -0.442604035,
        -0.811068952,
        -0.360547066,
        -0.782969832,
        0.830530763,
        -0.326390862,
        -0.1869221,
        -0.5008843,
        0.110796288,
        0.08442382,
        -0.3931107,
        0.399468929,
        -0.338276237,
        -0.5314054,
        -0.315159947,
        -0.181114,
        0.330752015
      ],
      "biasesFlat": [
        -0.05294024,
        0.20858708,
        -0.138405636,
        0.42816487,
        -0.748325467,
        -0.335361034,
        0.331958652,
        -0.487074167,
        0.7760859,
        -0.253925383,
        0.199571565,
        0.5319536,
        -0.3590577,
        -0.9430737,
        0.834490538,
        0.376526356,
        0.0275047179,
        -0.1749522,
        -0.372624576,
        -0.354638219,
        0.0402732231,
        -1.28959715,
        -0.4147628,
        -0.0542804934,
        0.357998073,
        -1.19428062,
        0.169743761,
        -0.5905904,
        -0.114217877,
        0.5716136,
        -0.952331066,
        -0.46895203,
        0.294578671,
        0.767826736
      ],
      "weightShapes": [
        [
          16,
          18
        ],
        [
          16,
          16
        ],
        [
          2,
          16
        ]
      ],
      "biasShapes": [
        16,
        16,
        2
      ]
    },
    {
      "layers": [
        18,
        16,
        16,
        2
      ],
      "weightsFlat": [
        0.5473811,
        -0.5630142,
        0.3095925,
        0.774990141,
        0.233265191,
        -0.0292395,
        0.17514053,
        0.4248653,
        0.191585317,
        0.2998959,
        -0.6228616,
        0.113234431,
        0.331518739,
        -0.85458523,
        -0.667929769,
        0.0209573135,
        -0.5174818,
        0.145746917,
        0.288609564,
        0.735305846,
        -1.03061473,
        0.08481596,
        0.976491749,
        0.44536534,
        -0.286785156,
        -0.705697954,
        0.1742487,
        0.436971515,
        0.06637075,
        0.300788581,
        -0.7378927,
        0.5350559,
        -0.5457436,
        0.916403353,
        -0.101407364,
        0.113496915,
        0.9859799,
        -0.188145757,
        0.407508373,
        -0.273349673,
        0.08021662,
        0.7891084,
        0.4037852,
        0.05196774,
        -0.502582967,
        -0.3147321,
        -0.0767979547,
        -0.634804845,
        0.41787082,
        0.630114,
        0.327838659,
        0.003650038,
        0.208513945,
        0.87886405,
        0.219625264,
        0.206640214,
        0.217239365,
        0.215377867,
        -0.0966000855,
        -0.8352231,
        -0.588844061,
        -0.211032256,
        0.124018729,
        -0.3678267,
        0.1345921,
        -0.0693296939,
        -0.473207742,
        0.172115311,
        -0.857777834,
        -0.321197718,
        0.0477339476,
        0.343985558,
        0.2841725,
        0.5246007,
        -0.7536643,
        -1.078602,
        -1.30489028,
        -0.350622267,
        0.03450092,
        0.349236071,
        -0.700737536,
        0.5443739,
        0.1304181,
        -0.668547034,
        -0.6622828,
        -0.155658022,
        -0.44554466,
        1.03084171,
        -0.598359048,
        0.753561854,
        0.0188183766,
        -1.00429487,
        -0.844157636,
        1.39875722,
        0.3907053,
        0.785903037,
        0.0437652059,
        -0.035772793,
        0.0828467757,
        -0.127642751,
        0.5591535,
        -0.394554049,
        0.827993155,
        0.4637084,
        0.7944415,
        0.230716556,
        0.2818734,
        -0.16596517,
        0.0237105656,
        0.1777565,
        -0.494435966,
        -0.647384763,
        1.61282682,
        -0.1254905,
        -0.114931673,
        -0.7028809,
        -0.7787476,
        0.6232643,
        -0.38142,
        0.532232642,
        -0.06254314,
        -0.0816949159,
        -1.26206875,
        -0.383522123,
        -1.2666297,
        -0.5603082,
        -0.410579264,
        -0.00302665029,
        -1.55968523,
        -0.210564464,
        0.67978996,
        0.5755311,
        0.04902957,
        -0.207833514,
        0.675014734,
        0.908813,
        0.9241964,
        -0.5023645,
        0.5704805,
        0.11355415,
        -0.652316034,
        -0.0408959575,
        0.5610183,
        -0.402102262,
        -1.78857148,
        0.5001711,
        -0.993468046,
        0.469947636,
        0.3126776,
        -0.518552363,
        0.00200847653,
        -0.355530471,
        0.432626724,
        0.5475009,
        -0.2783595,
        0.8449157,
        -0.551320255,
        -0.6058198,
        -0.909536,
        0.6225438,
        -0.03130314,
        0.3085447,
        -0.6152049,
        -0.150361508,
        0.07150331,
        -1.24964178,
        0.426327258,
        0.6376564,
        0.4183379,
        1.3555057,
        0.724805832,
        0.105430543,
        -0.27629897,
        -0.233391255,
        1.08934021,
        -0.572762251,
        -0.04328976,
        0.758521855,
        -0.103478409,
        0.1542032,
        -0.273427725,
        0.508156,
        0.1986624,
        0.206195608,
        0.245033816,
        -0.220616922,
        0.350087881,
        -0.392000049,
        0.214188814,
        0.6748353,
        -0.88160634,
        -0.201482728,
        -0.6843258,
        0.132581368,
        -0.09031523,
        -0.4817601,
        0.383076966,
        -0.338593125,
        0.3367584,
        1.1632148,
        0.848662853,
        -0.805684566,
        -0.171301737,
        -0.20393914,
        -0.04279534,
        -0.132136464,
        0.4157333,
        -0.0751910955,
        -0.188151136,
        0.174322575,
        0.5375199,
        0.1950306,
        -0.102418087,
        0.208936989,
        -0.732105732,
        0.9068116,
        0.159787223,
        0.618110955,
        0.412906229,
        -0.165378809,
        0.7564921,
        -0.985471547,
        1.10678267,
        0.49163264,
        0.203590184,
        0.279042631,
        -0.00267444,
        0.300682366,
        -1.178644,
        0.259680122,
        -0.553007066,
        0.431528717,
        -0.435271353,
        -0.9806917,
        0.375075936,
        -0.205870867,
        -0.273590237,
        0.39103654,
        -0.168218791,
        0.0590415969,
        -0.8235036,
        0.48087728,
        0.553040743,
        -0.5246416,
        -0.168484747,
        0.456786275,
        0.7276008,
        -1.00137246,
        -0.7653127,
        0.19316341,
        -0.570897162,
        0.278096229,
        -1.309235,
        -0.025302941,
        0.5935454,
        -0.853566647,
        -1.44216514,
        0.9997779,
        -0.55536747,
        -0.0688208938,
        0.251224846,
        -0.1489502,
        0.306117356,
        0.258674532,
        0.199792862,
        0.7289104,
        -1.39445472,
        -0.236373454,
        0.201564759,
        -0.0225025453,
        -0.07850512,
        -0.266534418,
        -0.8409439,
        0.5411566,
        -0.10742186,
        -0.976047039,
        -0.4383123,
        -0.196984768,
        0.0380378626,
        0.6984153,
        0.583764434,
        0.650024056,
        0.6358391,
        -0.7176473,
        0.00788438,
        -0.002755132,
        -0.6972114,
        -0.201258242,
        -0.650927365,
        0.7329741,
        -0.314507872,
        -0.499049246,
        -0.17208688,
        -0.6055223,
        0.5500157,
        0.09352899,
        0.173551947,
        0.4603945,
        0.5038853,
        0.374014825,
        -0.562534,
        0.719735146,
        -0.008194603,
        1.88081551,
        -0.386858,
        -0.43313,
        0.527007937,
        -0.7124722,
        -1.27107489,
        0.318029076,
        0.536866963,
        0.8451404,
        0.498290122,
        0.570202351,
        -0.967083156,
        0.076417625,
        -1.77156878,
        0.274183184,
        -0.1772777,
        0.8947438,
        0.2638216,
        0.239722058,
        0.324660361,
        -0.236008212,
        0.242329314,
        0.27080363,
        -0.397645384,
        -0.235839009,
        0.4847024,
        -0.67336005,
        0.153914526,
        0.2882124,
        -0.7640586,
        -0.126753628,
        0.143719524,
        0.444027662,
        -1.27505362,
        0.106320247,
        -0.366119117,
        0.1446792,
        0.9000989,
        0.0489575341,
        -0.8410172,
        -1.2869333,
        0.3643528,
        0.2530855,
        0.751993656,
        0.08153043,
        0.752181947,
        -0.783669651,
        0.625866652,
        0.8704463,
        -0.288941741,
        -0.4842987,
        0.7307452,
        -1.09018135,
        0.5148111,
        0.169905692,
        -0.9043883,
        -0.374147326,
        0.218260944,
        0.886029065,
        0.457142,
        0.04708786,
        0.9356401,
        0.356024384,
        0.0412075035,
        0.3182378,
        -0.5215528,
        0.05025802,
        0.3985706,
        -0.434818149,
        -0.9944361,
        -0.6907321,
        0.00821871,
        -0.4497989,
        -0.682956,
        0.4806933,
        -0.54836446,
        -0.03980103,
        -0.404690742,
        0.0166711435,
        0.129568055,
        1.42233765,
        -0.6225154,
        -0.8835266,
        0.0368188955,
        0.4224706,
        -0.230254561,
        0.20171763,
        -0.175344452,
        0.7164189,
        -0.08649265,
        0.495948225,
        0.518191934,
        -0.00159505336,
        -0.257603884,
        0.1684638,
        -0.520445,
        0.242015615,
        0.486604244,
        -1.60568583,
        -0.272597134,
        -0.3369345,
        0.615339,
        1.279451,
        0.352507561,
        1.00879991,
        0.00533993,
        -1.64105451,
        -0.241242379,
        0.6166905,
        -0.183250427,
        -0.6015672,
        0.7539881,
        0.604611933,
        -0.351181239,
        0.539324343,
        0.3588914,
        0.695469558,
        0.251244932,
        0.09755014,
        -0.477388442,
        -0.2830559,
        0.6237892,
        0.0753541142,
        0.276988655,
        0.06991089,
        -0.178524792,
        -0.07367641,
        0.0374273472,
        0.277722239,
        0.199341491,
        0.5570827,
        -0.185541645,
        -0.491639942,
        0.374847859,
        0.6387747,
        -0.09072517,
        -0.829894841,
        -0.0902577862,
        0.140791044,
        0.368842572,
        -0.6925234,
        -0.6928991,
        0.142651409,
        0.261952966,
        -0.386277646,
        0.07632328,
        0.154694229,
        -0.665503263,
        -0.0993398,
        0.687119663,
        -1.00978613,
        0.661991537,
        -0.7024208,
        -0.6468932,
        -0.174914762,
        0.8516373,
        0.3048833,
        0.130035579,
        -0.3468542,
        0.09164655,
        0.502915263,
        -0.5227474,
        -0.734259069,
        0.496973872,
        0.0312582664,
        0.16467306,
        0.32950148,
        0.08927084,
        0.5874029,
        0.71036613,
        0.206833243,
        0.8178628,
        -0.0652695149,
        -0.465269536,
        -0.578878,
        -0.500409842,
        0.346843719,
        0.701153,
        0.4059902,
        -0.004800561,
        -0.632019639,
        0.405958265,
        -0.8360078,
        -0.162216678,
        0.05776454,
        -0.3674841,
        -0.506543636,
        -0.2661624,
        -0.0006103573,
        -0.411145836,
        0.335001349,
        0.6102028,
        0.279655725,
        -0.273426831,
        -0.430148244,
        0.4382812,
        0.507925332,
        -0.05425988,
        -0.360066146,
        -0.5115345,
        0.0624699257,
        0.631239653,
        -0.180234686,
        0.501817644,
        1.06021047,
        0.6591003,
        -0.324017316,
        -0.123204462,
        0.191160485,
        0.963441432,
        0.222469687,
        -0.333622068,
        -0.8067321,
        -0.362144977,
        -0.19958204,
        -0.55223155,
        0.203154191,
        0.5919564,
        0.356429368,
        -0.4708048,
        -0.2424973,
        -0.5231421,
        0.5296006,
        0.594214141,
        -0.183458731,
        -0.954678,
        -0.569081545,
        -0.1527181,
        -0.331015348,
        0.287597626,
        0.194847345,
        -0.015189942,
        0.43230924,
        -0.0497901253,
        -0.2614134,
        0.0764254257,
        -0.71297425,
        0.500975668,
        0.0293718148,
        -0.278031856,
        0.701000869,
        -0.04057268,
        -0.0165436938,
        -0.233724549,
        -0.7129063,
        -0.1911167,
        -0.135590792,
        0.382387966,
        -0.265479416,
        0.00656646956,
        -0.7277177,
        -0.371192783,
        1.26425028,
        -0.5865846,
        0.557551563,
        0.376864731,
        -0.371729672,
        -0.811068952,
        -0.5015662,
        -0.67499727,
        0.830530763,
        -0.267029941,
        -0.1869221,
        -0.292535216,
        0.110796288,
        0.08442382,
        -0.324918747,
        0.399468929,
        -0.338276237,
        -0.5314054,
        -0.492925227,
        -0.181114,
        0.440113217
      ],
      "biasesFlat": [
        -0.05294024,
        0.20858708,
        -0.138405636,
        0.42816487,
        -0.748325467,
        -0.335361034,
        0.331958652,
        -0.487074167,
        0.62816757,
        -0.253925383,
        0.199571565,
        0.5319536,
        -0.3590577,
        -1.20675611,
        0.834490538,
        0.2229096,
        -0.259718269,
        -0.409170032,
        -0.372624576,
        -0.354638219,
        0.0402732231,
        -1.28959715,
        -0.206730321,
        -0.244239479,
        0.357998073,
        -1.07471538,
        0.204771027,
        -0.7452051,
        -0.213072643,
        0.453655958,
        -1.24178541,
        -0.684277534,
        0.000382965954,
        0.767826736
      ],
      "weightShapes": [
        [
          16,
          18
        ],
        [
          16,
          16
        ],
        [
          2,
          16
        ]
      ],
      "biasShapes": [
        16,
        16,
        2
      ]
    },
    {
      "layers": [
        18,
        16,
        16,
        2
      ],
      "weightsFlat": [
        0.258123517,
        -0.5630142,
        0.3095925,
        0.774990141,
        0.233265191,
        -0.0292395,
        0.446844876,
        0.312030643,
        0.346109152,
        0.4551706,
        -0.6228616,
        0.113234431,
        0.270241439,
        -0.8436162,
        -0.908808351,
        0.0209573135,
        -0.5174818,
        0.05980608,
        0.164545223,
        0.944370449,
        -0.38214,
        0.08481596,
        0.976491749,
        0.191140443,
        -0.233741343,
        -0.90017575,
        0.165234908,
        0.436971515,
        0.2267876,
        0.300788581,
        -0.7378927,
        0.2442398,
        -0.5457436,
        0.916403353,
        0.0323424041,
        0.03639735,
        0.9859799,
        -0.437080383,
        0.407508373,
        -0.273349673,
        0.08021662,
        1.08869445,
        0.698641241,
        0.05196774,
        -0.351590246,
        0.16403465,
        -0.0767979547,
        -0.588385761,
        0.41787082,
        0.630114,
        -0.1394822,
        0.00110961054,
        0.135959968,
        0.87886405,
        -0.07521217,
        0.206640214,
        0.217239365,
        0.215377867,
        0.157207191,
        -0.977821231,
        -0.588844061,
        0.0947934538,
        -0.04284731,
        -0.3678267,
        0.1345921,
        -0.006166931,
        -0.5073941,
        0.06337713,
        -0.934235,
        -0.2850505,
        -0.116032287,
        0.343985558,
        0.2841725,
        0.3267647,
        -0.4867652,
        -1.078602,
        -1.30489028,
        -0.487317026,
        -0.117301032,
        0.315010339,
        -0.6485093,
        0.5443739,
        0.06956128,
        -0.52253443,
        -0.499219149,
        -0.155658022,
        -0.44554466,
        1.10814631,
        -0.598359048,
        0.753561854,
        0.0188183766,
        -1.00429487,
        -0.844157636,
        1.16726053,
        0.4316292,
        0.785903037,
        0.2988398,
        0.402106524,
        0.0828467757,
        -0.127642751,
        0.332955748,
        -0.189025,
        0.6737832,
        0.4637084,
        0.574764252,
        0.19930023,
        0.2818734,
        -0.439392418,
        0.232769534,
        0.1777565,
        -0.7443395,
        -0.773730636,
        1.61282682,
        -0.414053679,
        -0.114931673,
        -0.52685827,
        -0.7787476,
        0.6232643,
        -0.38142,
        0.5965752,
        -0.06254314,
        -0.0816949159,
        -1.26206875,
        -0.383522123,
        -1.12313187,
        -0.5603082,
        -0.410579264,
        -0.129125267,
        -1.55968523,
        -0.210564464,
        0.757977962,
        0.7160074,
        -0.323864281,
        -0.207833514,
        0.764861166,
        0.908813,
        0.932397842,
        -0.5023645,
        0.5704805,
        0.07270541,
        -0.652316034,
        0.101249091,
        0.5610183,
        -0.402102262,
        -1.47764325,
        0.5001711,
        -0.993468046,
        0.469947636,
        0.293922663,
        -0.518552363,
        0.08378065,
        -0.3778246,
        0.432626724,
        0.5475009,
        -0.255722344,
        1.13890123,
        -0.551320255,
        -0.3718024,
        -0.909536,
        0.594901443,
        0.06840288,
        0.3085447,
        -0.76422286,
        0.105699785,
        -0.0236688517,
        -1.24964178,
        -0.04914999,
        0.348612458,
        0.4183379,
        1.32306337,
        0.724805832,
        0.105430543,
        0.0211316179,
        -0.233391255,
        1.08934021,
        -0.572762251,
        -0.04328976,
        0.758521855,
        -0.103478409,
        0.0176947657,
        -0.273427725,
        0.508156,
        0.169384658,
        0.041664578,
        0.317761153,
        -0.220616922,
        0.5312763,
        -0.392000049,
        0.214188814,
        0.6748353,
        -0.88160634,
        -0.1869054,
        -0.6843258,
        -0.07571258,
        -0.113662459,
        -0.08623623,
        0.21712327,
        -0.101586461,
        0.454467684,
        1.1632148,
        0.848662853,
        -0.7303528,
        -0.149009675,
        -0.20393914,
        0.09453683,
        -0.043067,
        0.263186872,
        0.0131768482,
        -0.188151136,
        0.174322575,
        0.288624346,
        0.1950306,
        -0.102418087,
        0.208936989,
        -0.732105732,
        0.9224722,
        0.159787223,
        0.618110955,
        0.315917939,
        -0.165378809,
        0.7564921,
        -0.49645412,
        1.10678267,
        0.49163264,
        0.245028064,
        0.279042631,
        -0.00267444,
        0.500927,
        -1.11260509,
        0.259680122,
        -0.09431441,
        0.431528717,
        -0.435271353,
        -0.9806917,
        0.375075936,
        0.0506918579,
        -0.261148363,
        0.39103654,
        -0.4107171,
        0.0590415969,
        -0.751171768,
        0.48087728,
        0.4735738,
        -0.5246416,
        -0.6135551,
        0.345045,
        0.7276008,
        -0.756552756,
        -0.516261041,
        0.19316341,
        -0.570897162,
        0.348503232,
        -1.309235,
        -0.025302941,
        0.5935454,
        -1.00095892,
        -1.63357031,
        0.9997779,
        -0.764992952,
        -0.0688208938,
        0.06665383,
        -0.07331008,
        0.306117356,
        0.5369318,
        0.06351777,
        0.7289104,
        -1.39445472,
        0.007043432,
        0.201564759,
        0.10705895,
        0.117129095,
        -0.157620415,
        -0.596863449,
        0.5411566,
        -0.537885,
        -0.8770449,
        -0.414305478,
        -0.196984768,
        0.0380378626,
        0.609397054,
        0.424245,
        0.650024056,
        0.6358391,
        -0.7176473,
        0.00788438,
        0.0251413248,
        -0.8521871,
        -0.5085877,
        -0.650927365,
        0.8489082,
        -0.558109939,
        -0.212737024,
        -0.0646482259,
        -0.516266167,
        0.7845872,
        0.09352899,
        0.173551947,
        0.4603945,
        0.5038853,
        0.210743144,
        -0.5583094,
        0.719735146,
        -0.184546277,
        1.38650274,
        -0.386858,
        -0.43313,
        0.527007937,
        -0.7124722,
        -1.27107489,
        0.397372961,
        0.536866963,
        0.8707628,
        0.4297072,
        0.570202351,
        -1.09907985,
        0.264357984,
        -1.82905746,
        0.476007551,
        -0.250830144,
        0.8947438,
        0.2638216,
        0.239722058,
        0.226576447,
        -0.360182136,
        -0.05587963,
        0.27080363,
        -0.305272371,
        -0.4306317,
        0.2876073,
        -0.67336005,
        0.153914526,
        0.2882124,
        -1.00025582,
        -0.126753628,
        0.3227874,
        0.230701759,
        -1.50695515,
        0.106320247,
        -0.366119117,
        0.201120064,
        0.9000989,
        -0.0128863035,
        -0.8410172,
        -1.2869333,
        0.3643528,
        0.13402544,
        0.751993656,
        -0.114231534,
        0.6231127,
        -0.783669651,
        0.625866652,
        0.8704463,
        -0.288941741,
        -0.315371633,
        0.7307452,
        -1.138942,
        0.377916873,
        0.143042937,
        -0.910463154,
        -0.374147326,
        0.218260944,
        0.886029065,
        0.457142,
        0.324825019,
        0.72525537,
        0.214373454,
        0.0699699447,
        0.287073463,
        -0.5215528,
        0.05025802,
        0.278700322,
        -0.170558766,
        -0.9944361,
        -0.4530622,
        0.00821871,
        -0.4497989,
        -0.51239264,
        0.610586345,
        -0.54836446,
        -0.06610483,
        -0.4496404,
        0.0166711435,
        0.3592618,
        1.42233765,
        -0.6225154,
        -0.790877342,
        0.007224782,
        0.4224706,
        -0.2647415,
        0.16928643,
        0.07681719,
        0.55378896,
        0.151131526,
        0.63371,
        0.356174,
        -0.218683779,
        -0.257603884,
        -0.136956,
        -0.5284967,
        -0.0471691228,
        0.486604244,
        -1.60568583,
        -0.6093249,
        -0.3369345,
        0.615339,
        1.279451,
        0.352507561,
        0.8791805,
        0.11349792,
        -1.64105451,
        -0.3926415,
        0.6166905,
        -0.183250427,
        -0.6015672,
        1.02869272,
        0.604611933,
        -0.3987702,
        0.5468065,
        0.3588914,
        0.704940259,
        0.251244932,
