{
  "networks": [
    {
      "layers": [
        18,
        16,
        16,
        2
      ],
      "weightsFlat": [
        0.347138882,
        -0.278641731,
        0.19797188,
        0.774990141,
        0.233265191,
        0.130858988,
        0.17514053,
        0.312030643,
        0.5104386,
        0.447441518,
        -0.6228616,
        -0.169295728,
        0.270241439,
        -1.09154391,
        -1.10807824,
        0.0209573135,
        -0.265454948,
        0.05980608,
        0.3976907,
        0.683029,
        -0.4514727,
        0.08710085,
        0.976491749,
        0.0361826532,
        -0.0424318761,
        -0.90017575,
        0.1005846,
        0.439469248,
        0.170368329,
        0.300788581,
        -0.7378927,
        0.0193634,
        -0.4134378,
        0.8341828,
        -0.253223479,
        0.12930125,
        0.853713632,
        -0.167175964,
        0.3708044,
        -0.273349673,
        0.153555319,
        0.7891084,
        0.4037852,
        0.08400984,
        -0.286936879,
        0.168912813,
        -0.2569879,
        -0.331789881,
        0.41787082,
        0.5498899,
        -0.154649064,
        -0.164311528,
        0.407160372,
        0.87886405,
        0.21137394,
        0.301876962,
        0.289622754,
        0.314376652,
        0.102298625,
        -0.977821231,
        -0.290046453,
        -0.358349144,
        -0.04284731,
        -0.19677569,
        -0.371263176,
        -0.262855649,
        -0.336172283,
        -0.1497484,
        -0.823941052,
        -0.0746171,
        0.06167031,
        -0.0417795554,
        0.2841725,
        0.670141339,
        -0.6809319,
        -0.764135242,
        -1.277993,
        -0.3711874,
        -0.217313334,
        0.291419655,
        -0.7925066,
        0.6059555,
        0.06956128,
        -0.52253443,
        -0.499219149,
        -0.155658022,
        -0.2785821,
        0.9016359,
        -0.6336392,
        0.9055811,
        -0.136982456,
        -1.15767717,
        -0.382738739,
        1.57458925,
        0.188074648,
        0.546667039,
        0.228300765,
        -0.08761255,
        0.0828467757,
        -0.0950073451,
        -0.0477102138,
        -0.269556463,
        0.5325816,
        0.4637084,
        0.328751177,
        0.27596283,
        0.277343482,
        -0.43080923,
        0.06728321,
        0.229979932,
        -0.61421895,
        -0.773730636,
        1.68435073,
        -0.09195727,
        -0.011216837,
        -0.228119165,
        -0.8197702,
        0.4220404,
        -0.559500456,
        0.5965752,
        -0.0129253035,
        -0.08965945,
        -1.03424919,
        -0.383522123,
        -0.9705967,
        -0.5956071,
        -0.436711341,
        -0.129125267,
        -1.27592742,
        -0.155950025,
        0.657255948,
        0.7160074,
        -0.3424664,
        0.178743392,
        1.02088964,
        0.908813,
        0.9241964,
        -0.5023645,
        0.6615321,
        0.0333063677,
        -0.198186249,
        0.01158162,
        0.336016953,
        -0.402102262,
        -1.20684826,
        0.6745692,
        -0.7099889,
        0.469947636,
        0.397383749,
        -0.518552363,
        0.08378065,
        -0.1855905,
        0.553969741,
        0.674495,
        0.07389589,
        0.722392857,
        -0.485057235,
        -0.179480046,
        -0.846857667,
        0.6225438,
        0.06840288,
        0.3085447,
        -0.5129995,
        -0.453940421,
        -0.0236688517,
        -0.8004684,
        -0.09191734,
        0.2334495,
        0.4183379,
        1.049999,
        0.482141346,
        0.0536893569,
        0.0617338046,
        -0.08098019,
        1.00437272,
        -0.5656613,
        -0.04328976,
        0.758521855,
        -0.210565433,
        -0.306894869,
        -0.273427725,
        0.157108948,
        0.169384658,
        -0.0130159734,
        0.06524999,
        0.0403872021,
        0.5312763,
        0.135298386,
        0.04716701,
        0.31444335,
        -0.88160634,
        -0.201482728,
        -0.7348275,
        0.132581368,
        -0.06477223,
        0.09840569,
        0.21712327,
        -0.03556957,
        0.3367584,
        0.978820562,
        0.485957384,
        -0.805684566,
        -0.00706332363,
        -0.292222261,
        0.0304700956,
        -0.043067,
        0.44232592,
        0.0131768482,
        0.07484565,
        0.1403512,
        0.0539676659,
        -0.008483151,
        -0.496279329,
        -0.13527225,
        -0.5901543,
        1.1306,
        -0.0215067845,
        0.398447663,
        0.07053489,
        -0.543808,
        0.67363,
        -0.3532771,
        0.8516805,
        0.0571018234,
        0.164131775,
        0.279042631,
        -0.003294295,
        0.1089647,
        -0.8589305,
        0.259680122,
        -0.276201755,
        0.3974593,
        -0.268066853,
        -0.9593081,
        0.230938226,
        0.230753586,
        -0.09781365,
        0.362760156,
        -0.152420372,
        0.0590415969,
        -0.5931748,
        0.48087728,
        0.220432535,
        -0.289207518,
        0.07344233,
        0.226855919,
        0.6418183,
        -0.479020536,
        -0.7653127,
        0.389344037,
        -0.570897162,
        0.348503232,
        -1.14815986,
        -0.025302941,
        0.497377366,
        -1.00095892,
        -1.45910478,
        0.9997779,
        -0.764992952,
        -0.340418816,
        0.06665383,
        0.09392755,
        0.197312355,
        0.08540728,
        -0.118694872,
        0.516437232,
        -1.23298347,
        -0.193368658,
        0.201564759,
        0.180784255,
        -0.0509328358,
        -0.157620415,
        -0.744928837,
        0.8082749,
        -0.16546835,
        -0.61476016,
        -0.373565644,
        -0.183888584,
        0.0380378626,
        0.609397054,
        0.2005659,
        0.557047367,
        0.497963578,
        -0.7176473,
        0.134560615,
        0.2817619,
        -0.8521871,
        -0.624667,
        -0.5618118,
        0.6976734,
        -0.500876844,
        -0.335575968,
        0.382577032,
        -0.516266167,
        0.553964257,
        0.09352899,
        0.0147674754,
        0.17431888,
        0.5038853,
        0.374014825,
        -0.562534,
        0.719735146,
        -0.383554339,
        1.57943177,
        -0.20680888,
        -0.5525486,
        0.3137607,
        -0.3272317,
        -1.37225366,
        0.7618956,
        0.6173775,
        0.765026331,
        0.438136369,
        0.451480746,
        -0.9518753,
        0.00663415529,
        -1.6248889,
        0.11289645,
        -0.366183549,
        0.8702949,
        -0.1623067,
        0.07655916,
        0.378115,
        -0.375885934,
        0.0208762717,
        0.308223069,
        -0.452812821,
        -0.4306317,
        0.252487332,
        -0.768989444,
        0.6015197,
        0.03450882,
        -0.719734967,
        0.0477357544,
        0.4838414,
        0.3021018,
        -1.50695515,
        0.106320247,
        -0.2884469,
        0.456182837,
        0.9532826,
        -0.0128863035,
        -0.8410172,
        -1.26435554,
        0.3643528,
        0.0612633675,
        0.4687504,
        0.374753743,
        0.6231127,
        -0.5082835,
        0.189653486,
        1.1475662,
        -0.288941741,
        -0.440295,
        0.7307452,
        -1.138942,
        0.116560347,
        0.186749622,
        -0.9449493,
        -0.484379232,
        0.0874667,
        0.3471215,
        0.311306566,
        0.06752808,
        0.4352128,
        0.3538108,
        0.245801657,
        0.460947573,
        -0.794393957,
        0.05025802,
        0.471328527,
        -0.130034655,
        -0.6872159,
        -0.485201716,
        0.00821871,
        -0.226856172,
        -0.483709663,
        0.329261065,
        -0.506975234,
        -0.0156479347,
        -0.62244153,
        -0.09546135,
        0.323954552,
        1.749069,
        -0.699512064,
        -0.681657135,
        0.2658233,
        0.0622109734,
        -0.244051889,
        -0.07088324,
        0.07681719,
        0.3412697,
        0.209613532,
        0.274828136,
        0.223550916,
        -0.0472177677,
        -0.2877147,
        -0.109867334,
        -0.5284967,
        0.4212654,
        0.3406532,
        -1.60568583,
        -0.272597134,
        0.118557461,
        0.615339,
        1.279451,
        0.09611679,
        0.6390641,
        0.305008471,
        -0.8170256,
        -0.3536188,
        0.6166905,
        0.08468822,
        -0.465394437,
        0.7539881,
        0.4894603,
        -0.485683739,
        0.723085463,
        0.3588914,
        0.5837013,
        0.055110082,
        0.209836543,
        -0.594569862,
        0.2657469,
        1.15301883,
        -0.0557003878,
        0.124501795,
        0.06991089,
        -0.178524792,
        -0.153381526,
        0.3509497,
        0.369163036,
        0.201403365,
        0.5570827,
        -0.191092074,
        -0.118369736,
        0.374847859,
        0.802634954,
        -0.09072517,
        -0.767183542,
        -0.116128013,
        -0.139979243,
        0.494073838,
        -0.404837,
        -0.405783176,
        0.142651409,
        0.448513478,
        -0.6696855,
        0.07632328,
        0.2969856,
        -0.665503263,
        -0.07865029,
        0.7296911,
        -0.575020969,
        0.858035,
        -0.179589063,
        -0.6203255,
        -0.382224679,
        0.8516373,
        0.177831188,
        0.102603152,
        -0.00194178044,
        -0.29086253,
        0.502915263,
        -0.378892928,
        -0.5291474,
        0.481659,
        -0.215269044,
        -0.167226985,
        0.13385728,
        0.008641204,
        0.98797673,
        0.6313284,
        0.083587274,
        1.11157072,
        0.00684169866,
        0.109716587,
        -0.578878,
        -0.5483283,
        0.186431542,
        0.5905764,
        0.2075382,
        -0.01389624,
        -0.632019639,
        0.411755055,
        -0.609559238,
        -0.184929773,
        0.05776454,
        -0.324183851,
        -0.419927359,
        -0.144477218,
        0.3881768,
        -0.411145836,
        0.156824291,
        0.380520046,
        0.355882853,
        -0.273426831,
        -0.4195143,
        0.4256027,
        0.507925332,
        -0.16548641,
        -0.360066146,
        -0.361987531,
        0.0624699257,
        0.507627964,
        -0.322437882,
        0.501817644,
        1.06021047,
        0.6591003,
        -0.163178369,
        -0.343955934,
        0.191160485,
        0.122607008,
        -0.233195692,
        -0.05869669,
        -0.641093731,
        -0.144977212,
        -0.192668244,
        -0.2936115,
        0.24216646,
        0.482546568,
        0.508772552,
        -0.263130933,
        -0.2424973,
        -0.08628793,
        0.288983673,
        0.357027054,
        -0.0835525244,
        -0.821602464,
        -0.4331629,
        0.06929891,
        -0.331015348,
        0.539099753,
        0.226800218,
        -0.0281671938,
        0.4307454,
        -0.15265125,
        0.123515964,
        0.333900124,
        -1.04009867,
        0.198979288,
        0.0293718148,
        -0.4038274,
        0.669195,
        -0.287690848,
        0.175264046,
        -0.04849402,
        -0.430836618,
        0.0296836235,
        -0.0585925579,
        0.6219698,
        -0.1478218,
        0.00213921675,
        -0.6480023,
        -0.243501946,
        1.26425028,
        -0.334806859,
        0.557551563,
        0.376864731,
        -0.51199764,
        -0.811068952,
        -0.248106137,
        -0.610961,
        0.551647,
        -0.600732267,
        0.07326951,
        -0.137774125,
        0.110796288,
        0.08442382,
        0.0033883357,
        0.13806057,
        -0.101751938,
        -0.09862677,
        -0.3851356,
        0.0493209474,
        0.596791744
      ],
      "biasesFlat": [
        -0.05294024,
        0.186162919,
        -0.3698952,
        0.2800607,
        -0.803747237,
        -0.335361034,
        0.244856149,
        -0.296016753,
        0.571570933,
        -0.253925383,
        -0.0609424,
        0.5319536,
        -0.2163531,
        -1.6019603,
        0.557021,
        0.518032968,
        -0.107745975,
        0.0378482454,
        -0.188772351,
        -0.249362335,
        0.009791152,
        -0.891538262,
        -0.236773834,
        -0.244239479,
        0.5103162,
        -0.918007553,
        0.334107339,
        -0.267084867,
        -0.213072643,
        0.00337909488,
        -0.957300365,
        -0.498030931,
        -0.1640118,
        0.767826736
      ],
      "weightShapes": [
        [
          16,
          18
        ],
        [
          16,
          16
        ],
        [
          2,
          16
        ]
      ],
      "biasShapes": [
        16,
        16,
        2
      ]
    },
    {
      "layers": [
        18,
        16,
        16,
        2
      ],
      "weightsFlat": [
        0.347138882,
        -0.26383698,
        0.19797188,
        1.15372694,
        0.1471184,
        0.2844213,
        0.329760224,
        0.312030643,
        0.5104386,
        0.7348181,
        -0.6228616,
        -0.07424207,
        -0.025852561,
        -1.23950839,
        -0.6273386,
        0.0209573135,
        -0.265454948,
        0.302013665,
        0.3976907,
        0.662347,
        -0.4514727,
        -0.303489059,
        0.976491749,
        0.1868439,
        0.174534976,
        -0.7367754,
        0.09855086,
        0.439469248,
        0.0576724522,
        0.300788581,
        -0.7378927,
        0.2715173,
        -0.4134378,
        0.8341828,
        -0.253223479,
        0.12930125,
        0.83792156,
        0.003060899,
        0.3708044,
        -0.273349673,
        0.1508793,
        0.7891084,
        0.677300751,
        0.06258219,
        -0.276405424,
        0.168912813,
        -0.547248542,
        -0.331789881,
        0.717554867,
        0.5498899,
        -0.154649064,
        -0.164311528,
        0.407160372,
        0.87886405,
        0.21137394,
        0.2079282,
        0.289622754,
        0.486694,
        0.102298625,
        -1.04489613,
        -0.411155134,
        -0.358349144,
        0.0214208122,
        -0.19677569,
        -0.371263176,
        -0.316446841,
        -0.336172283,
        -0.1497484,
        -0.823941052,
        0.413311571,
        -0.235991254,
        0.08957505,
        0.2841725,
        0.670141339,
        -0.6809319,
        -0.764135242,
        -1.53198636,
        -0.3711874,
        -0.217313334,
        0.5130423,
        -0.582966,
        0.6059555,
        -0.05850269,
        -0.52253443,
        -0.499219149,
        -0.155658022,
        -0.10829971,
        0.9016359,
        -0.6336392,
        0.64920944,
        0.09198429,
        -1.15767717,
        -0.382738739,
        1.49977064,
        0.188074648,
        0.345310628,
        0.171715721,
        -0.08761255,
        -0.05675361,
        -0.0111625558,
        -0.222761035,
        -0.269556463,
        0.5325816,
        0.3941076,
        0.445884645,
        0.565238,
        0.277343482,
        -0.324156582,
        0.07081163,
        0.168800637,
        -0.61421895,
        -0.8068949,
        1.68435073,
        -0.357868,
        -0.011216837,
        -0.228119165,
        -0.8197702,
        0.250470549,
        -0.617373168,
        -0.113213427,
        -0.0129253035,
        0.136834115,
        -1.07767951,
        -0.383522123,
        -0.9705967,
        -0.5956071,
        -0.31231603,
        -0.129125267,
        -1.27592742,
        -0.273282737,
        0.7907304,
        0.8806586,
        -0.3424664,
        0.178743392,
        1.02088964,
        0.6407829,
        1.201436,
        -0.457452774,
        0.8124287,
        0.0333063677,
        -0.198186249,
        0.01158162,
        0.212117538,
        -0.492045254,
        -1.50221884,
        0.6745692,
        -0.7099889,
        0.4549668,
        0.397383749,
        -0.518552363,
        -0.132536948,
        -0.1855905,
        0.553969741,
        0.7770927,
        -0.09993353,
        0.4743585,
        -0.507056355,
        -0.179480046,
        -0.846857667,
        0.7932954,
        0.241378978,
        0.3085447,
        -0.401724279,
        -0.674714863,
        -0.0236688517,
        -0.8004684,
        -0.09191734,
        0.356325954,
        0.5047735,
        1.049999,
        0.5624756,
        0.0536893569,
        0.0617338046,
        -0.08098019,
        0.7629521,
        -0.5656613,
        -0.04328976,
        0.7171504,
        -0.2691777,
        -0.306894869,
        -0.273427725,
        0.157108948,
        0.24327077,
        -0.019095948,
        0.06524999,
        0.0403872021,
        0.5312763,
        0.248806268,
        0.04716701,
        0.275810659,
        -0.88160634,
        -0.201482728,
        -0.9942399,
        0.18306753,
        0.160631642,
        -0.173967853,
        0.4333389,
        -0.03556957,
        0.3367584,
        0.978820562,
        0.243975043,
        -0.623933256,
        -0.00706332363,
        -0.076408,
        0.0304700956,
        -0.043067,
        0.590942,
        0.0131768482,
        -0.08011205,
        0.3617116,
        0.19565028,
        -0.008483151,
        -0.73407805,
        -0.339838445,
        -0.7161331,
        0.9536595,
        0.3876216,
        0.398447663,
        0.07053489,
        -0.5333209,
        0.67363,
        -0.128418148,
        0.8516805,
        0.0571018234,
        0.164131775,
        0.279042631,
        -0.003294295,
        0.07688814,
        -0.682749331,
        0.258805484,
        -0.400686473,
        0.3974593,
        -0.268066853,
        -1.22906959,
        0.518086135,
        0.192763522,
        -0.09781365,
        0.06331918,
        -0.152420372,
        -0.0704889148,
        -0.3258578,
        0.550415158,
        0.220432535,
        -0.289207518,
        -0.260363,
        0.317835271,
        0.3824799,
        -0.479020536,
        -0.7653127,
        0.405800641,
        -0.535637259,
        0.339935422,
        -1.47279906,
        -0.0570390038,
        0.497377366,
        -1.21995127,
        -1.64451134,
        0.9997779,
        -0.8265544,
        -0.297686547,
        0.06665383,
        0.09392755,
        0.413399339,
        0.0122793391,
        0.109422028,
        0.516437232,
        -1.23298347,
        -0.162444681,
        0.362955064,
        -0.004614599,
        -0.0509328358,
        -0.157620415,
        -0.744928837,
        0.8082749,
        -0.04284915,
        -0.7671727,
        -0.373565644,
        -0.128122777,
        0.0380378626,
        0.5031293,
        0.2005659,
        0.557047367,
        0.30569917,
        -0.7176473,
        0.0212873742,
        0.2817619,
        -0.8521871,
        -0.624667,
        -0.94337827,
        0.6595013,
        -0.337715924,
        -0.335575968,
        0.316492677,
        -0.6427332,
        0.501060247,
        0.09352899,
        0.0147674754,
        0.161050543,
        0.5038853,
        0.374014825,
        -0.562534,
        0.719735146,
        -0.383554339,
        1.57943177,
        -0.20680888,
        -0.584681034,
        0.3137607,
        -0.230607063,
        -1.37225366,
        0.7618956,
        0.32477212,
        0.754191041,
        0.5090159,
        0.626723,
        -0.367640525,
        0.00663415529,
        -1.6248889,
        -0.1761642,
        -0.6044378,
        0.708027,
        -0.3555958,
        0.07655916,
        0.403850943,
        -0.375885934,
        0.0304237735,
        0.308223069,
        -0.218644455,
        -0.3578717,
        0.252487332,
        -0.9480752,
        0.8773238,
        0.007174847,
        -0.9015167,
        0.0477357544,
        0.739664,
        0.3021018,
        -1.50695515,
        0.316122949,
        -0.0437747277,
        0.456182837,
        0.9532826,
        -0.2360739,
        -0.83965075,
        -1.449297,
        0.45992738,
        0.131578058,
        0.415636539,
        0.4299544,
        0.6231127,
        -0.7198066,
        0.137433559,
        1.1475662,
        -0.000517482054,
        -0.440295,
        0.479402483,
        -1.38459516,
        0.116560347,
        -0.117538,
        -0.8609952,
        -0.484379232,
        0.0874667,
        0.5587141,
        0.514414251,
        -0.130271375,
        0.4352128,
        0.6217155,
        0.245801657,
        0.4240447,
        -0.682189763,
        0.05025802,
        0.692285836,
        -0.130034655,
        -0.6872159,
        -0.6923619,
        0.00821871,
        -0.226856172,
        -0.483709663,
        0.200818956,
        -0.506975234,
        -0.0156479347,
        -0.7930535,
        -0.09546135,
        0.323954552,
        1.749069,
        -0.699512064,
        -0.5564191,
        0.2658233,
        0.243347362,
        -0.369599283,
        0.213664159,
        0.213734254,
        0.3412697,
        0.209613532,
        0.458810151,
        0.223550916,
        -0.269045234,
        -0.102360681,
        -0.07178951,
        -0.5284967,
        0.4212654,
        0.862126648,
        -1.60568583,
        -0.272597134,
        0.118557461,
        0.615339,
        1.16190159,
        0.0978013054,
        0.5181271,
        0.305008471,
        -1.04601932,
        -0.402343363,
        0.5539686,
        -0.1755334,
        -0.465394437,
        0.594279349,
        0.638651967,
        -0.485683739,
        0.723085463,
        0.3588914,
        0.5837013,
        0.055110082,
        -0.0406452641,
        -0.675281465,
        0.443228781,
        1.01070333,
        -0.0557003878,
        0.124501795,
        0.266429842,
        -0.178524792,
        -0.153381526,
        0.3509497,
        0.369163036,
        0.201403365,
        0.5570827,
        -0.191092074,
        0.0225592963,
        0.374847859,
        0.802634954,
        -0.09072517,
        -0.767183542,
        -0.116128013,
        0.14151594,
        0.494073838,
        -0.404837,
        -0.405783176,
        0.142651409,
        0.448513478,
        -0.477181,
        0.07632328,
        0.2969856,
        -0.433861166,
        -0.449499667,
        0.45459938,
        -0.5773363,
        0.9285142,
        -0.628858149,
        -0.6203255,
        -0.382224679,
        0.8516373,
        0.11426007,
        0.102603152,
        0.07230668,
        -0.182246909,
        0.611302555,
        -0.0963290259,
        -0.5291474,
        0.6538452,
        0.0110612772,
        -0.167226985,
        0.13385728,
        0.008641204,
        0.7869065,
        0.6313284,
        0.083587274,
        0.8979133,
        -0.288041025,
        0.109716587,
        -0.269194961,
        -1.08994842,
        0.4434177,
        0.384892285,
        0.2075382,
        0.123943657,
        -0.632019639,
        0.411755055,
        -0.882706761,
        -0.159149215,
        0.23280023,
        -0.324183851,
        -0.327538818,
        -0.144477218,
        0.4311741,
        -0.357563645,
        0.156824291,
        0.5015374,
        0.569381535,
        -0.259223878,
        -0.132450059,
        0.4256027,
        0.507925332,
        -0.45980233,
        -0.360066146,
        -0.361987531,
        -0.1616213,
        0.4900601,
        -0.322437882,
        0.6887605,
        1.02007985,
        0.750294745,
        -0.242619857,
        -0.292608738,
        0.08080212,
        0.031871628,
        -0.470144928,
        -0.05869669,
        -0.6560935,
        -0.299131334,
        -0.192668244,
        -0.2936115,
        0.24216646,
        0.482546568,
        0.248516262,
        -0.263130933,
        -0.349659175,
        -0.009761693,
        0.0222251,
        0.357027054,
        -0.0835525244,
        -1.09944642,
        -0.237629592,
        0.286161751,
        -0.112368688,
        0.539099753,
        0.226800218,
        -0.0506597161,
        0.4307454,
        -0.15265125,
        0.123515964,
        0.232138753,
        -1.0125438,
        -0.305262059,
        0.0293718148,
        -0.184968278,
        0.7020581,
        -0.287690848,
        0.175264046,
        0.0927243456,
        -0.430836618,
        0.0296836235,
        -0.0585925579,
        0.6219698,
        -0.1478218,
        0.00213921675,
        -0.6480023,
        -0.22996515,
        0.9975517,
        -0.2207896,
        0.7600272,
        0.376864731,
        -0.51199764,
        -0.811068952,
        -0.248106137,
        -0.7057615,
        0.2795137,
        -0.483078837,
        0.07326951,
        -0.137774125,
        0.110796288,
        0.08442382,
        0.0033883357,
        0.13806057,
        0.174585819,
        -0.09862677,
        -0.3851356,
        -0.230177745,
        0.596791744
      ],
      "biasesFlat": [
        0.08056258,
        0.186162919,
        -0.3698952,
        0.275097162,
        -0.803747237,
        -0.335361034,
        -0.03780515,
        -0.319922715,
        0.571570933,
        -0.09284163,
        -0.0609424,
        0.5319536,
        -0.2163531,
        -1.6019603,
        0.557021,
        0.518032968,
        -0.1518942,
        0.0378482454,
        -0.188772351,
        -0.249362335,
        0.009791152,
        -0.891538262,
        -0.6943587,
        -0.49244234,
        0.7126021,
        -0.918007553,
        0.334107339,
        -0.267084867,
        -0.213072643,
        0.00337909488,
        -0.973366261,
        -0.498030931,
        -0.1005572,
        0.767826736
      ],
      "weightShapes": [
        [
          16,
          18
        ],
        [
          16,
          16
        ],
        [
          2,
          16
        ]
      ],
      "biasShapes": [
        16,
        16,
        2
      ]
    },
    {
      "layers": [
        18,
        16,
        16,
        2
      ],
      "weightsFlat": [
        0.347138882,
        -0.532008767,
        0.19797188,
        1.03352249,
        0.233265191,
        0.130858988,
        0.17514053,
        0.312030643,
        0.5104386,
        0.447441518,
        -0.6228616,
        -0.169295728,
        0.270241439,
        -1.23950839,
        -0.9007413,
        0.0209573135,
        -0.265454948,
        0.05980608,
        0.3976907,
        0.683029,
        -0.4514727,
        0.08710085,
        0.976491749,
        0.09708091,
        -0.0424318761,
        -0.7367754,
        0.1005846,
        0.439469248,
        0.170368329,
        0.300788581,
        -0.7378927,
        0.2715173,
        -0.4134378,
        0.8341828,
        -0.253223479,
        0.12930125,
        0.853713632,
        -0.167175964,
        0.3708044,
        -0.273349673,
        0.153555319,
        0.7891084,
        0.4037852,
        0.08400984,
        -0.286936879,
        0.168912813,
        -0.521927059,
        -0.331789881,
        0.41787082,
        0.5498899,
        -0.154649064,
        -0.164311528,
        0.407160372,
        0.87886405,
        0.21137394,
        0.301876962,
        0.289622754,
        0.497283667,
        0.102298625,
        -0.977821231,
        -0.290046453,
        -0.358349144,
        -0.04284731,
        -0.19677569,
        -0.371263176,
        -0.262855649,
        -0.336172283,
        -0.1497484,
        -0.823941052,
        -0.0746171,
        0.06167031,
        -0.006312102,
        0.2841725,
        0.670141339,
        -0.6809319,
        -0.764135242,
        -1.277993,
        -0.3711874,
        -0.217313334,
        0.5130423,
        -0.582966,
        0.6059555,
        0.06956128,
        -0.52253443,
        -0.499219149,
        -0.155658022,
        -0.2785821,
        0.9016359,
        -0.6336392,
        0.9055811,
        -0.136982456,
        -1.15767717,
        -0.382738739,
        1.57458925,
        0.188074648,
        0.546667039,
        0.228300765,
        -0.08761255,
        0.0828467757,
        -0.0950073451,
        -0.0477102138,
        -0.269556463,
        0.5325816,
        0.3941076,
        0.328751177,
        0.27596283,
        0.277343482,
        -0.43080923,
        0.06728321,
        0.229979932,
        -0.61421895,
        -0.773730636,
        1.68435073,
        -0.09195727,
        -0.011216837,
        -0.228119165,
        -0.8197702,
        0.250470549,
        -0.559500456,
        0.5965752,
        -0.0129253035,
        -0.08965945,
        -1.03424919,
        -0.383522123,
        -0.9705967,
        -0.5956071,
        -0.436711341,
        -0.129125267,
        -1.27592742,
        -0.07246116,
        0.657255948,
        0.7160074,
        -0.3424664,
        0.178743392,
        1.02088964,
        0.908813,
        0.9241964,
        -0.5023645,
        0.6615321,
        0.0333063677,
        -0.198186249,
        0.01158162,
        0.336016953,
        -0.402102262,
        -1.20684826,
        0.6745692,
        -0.7099889,
        0.469947636,
        0.397383749,
        -0.518552363,
        0.08378065,
        -0.1855905,
        0.553969741,
        0.7770927,
        0.07389589,
        0.4743585,
        -0.485057235,
        -0.179480046,
        -0.846857667,
        0.7932954,
        0.06840288,
        0.3085447,
        -0.401724279,
        -0.453940421,
        -0.0236688517,
        -0.8004684,
        -0.09191734,
        0.2334495,
        0.4183379,
        1.049999,
        0.482141346,
        0.0536893569,
        0.0617338046,
        -0.08098019,
        1.00437272,
        -0.5656613,
        -0.04328976,
        0.758521855,
        -0.210565433,
        -0.306894869,
        -0.273427725,
        0.157108948,
        0.169384658,
        -0.0130159734,
        0.06524999,
        0.0403872021,
        0.5312763,
        0.135298386,
        0.04716701,
        0.31444335,
        -0.88160634,
        -0.201482728,
        -0.7348275,
        0.211058989,
        -0.06477223,
        -0.173967853,
        0.21712327,
        -0.03556957,
        0.3367584,
        0.978820562,
        0.485957384,
        -0.805684566,
        -0.00706332363,
        -0.292222261,
        0.0304700956,
        -0.043067,
        0.3384028,
        0.0131768482,
        0.07484565,
        0.1403512,
        0.0539676659,
        -0.008483151,
        -0.496279329,
        -0.13527225,
        -0.5901543,
        1.1306,
        0.216732681,
        0.398447663,
        0.07053489,
        -0.438987017,
        0.67363,
        -0.3532771,
        0.8516805,
        0.0571018234,
        0.164131775,
        0.279042631,
        -0.003294295,
        0.1089647,
        -0.682749331,
        0.259680122,
        -0.276201755,
        0.3974593,
        -0.268066853,
        -0.9593081,
        0.230938226,
        0.230753586,
        -0.09781365,
        0.2597222,
        -0.152420372,
        0.0590415969,
        -0.5931748,
        0.550415158,
        0.220432535,
        -0.289207518,
        0.07344233,
        0.226855919,
        0.6418183,
        -0.479020536,
        -0.7653127,
        0.389344037,
        -0.570897162,
        0.348503232,
        -1.14815986,
        -0.025302941,
        0.497377366,
        -1.00095892,
        -1.45910478,
        0.9997779,
        -0.764992952,
        -0.340418816,
        0.06665383,
        0.09392755,
        0.197312355,
        0.0122793391,
        -0.118694872,
        0.516437232,
        -1.23298347,
        -0.193368658,
        0.201564759,
        0.180784255,
        -0.0509328358,
        -0.157620415,
        -0.744928837,
        0.8082749,
        -0.16546835,
        -0.61476016,
        -0.373565644,
        -0.183888584,
        0.0380378626,
        0.609397054,
        0.2005659,
        0.557047367,
        0.497963578,
        -0.7176473,
        0.134560615,
        0.2817619,
        -0.8521871,
        -0.624667,
        -0.5618118,
        0.6976734,
        -0.500876844,
        -0.335575968,
        0.234939069,
        -0.516266167,
        0.501060247,
        0.09352899,
        0.0147674754,
        0.17431888,
        0.5038853,
        0.374014825,
        -0.562534,
        0.719735146,
        -0.383554339,
        1.57943177,
        -0.20680888,
        -0.5525486,
        0.3137607,
        -0.230607063,
        -1.37225366,
        0.7618956,
        0.6173775,
        0.765026331,
        0.438136369,
        0.451480746,
        -0.6641483,
        0.00663415529,
        -1.6248889,
        0.11289645,
        -0.6044378,
        0.8702949,
        -0.1623067,
        0.07655916,
        0.378115,
        -0.375885934,
        0.0208762717,
        0.308223069,
        -0.452812821,
        -0.3578717,
        0.252487332,
        -0.9480752,
        0.6015197,
        0.03450882,
        -0.719734967,
        0.0477357544,
        0.4838414,
        0.3021018,
        -1.50695515,
        0.106320247,
        -0.270150244,
        0.456182837,
        0.9532826,
        -0.0128863035,
        -0.8410172,
        -1.26435554,
        0.3643528,
        0.0612633675,
        0.415636539,
        0.374753743,
        0.6231127,
        -0.645969748,
        0.189653486,
        1.1475662,
        -0.288941741,
        -0.440295,
        0.7307452,
        -1.138942,
        0.116560347,
        0.186749622,
        -0.9449493,
        -0.484379232,
        0.0874667,
        0.3471215,
        0.311306566,
        0.06752808,
        0.4352128,
        0.3538108,
        0.245801657,
        0.460947573,
        -0.794393957,
        0.05025802,
        0.5427039,
        -0.130034655,
        -0.6872159,
        -0.485201716,
        0.00821871,
        -0.226856172,
        -0.483709663,
        0.329261065,
        -0.506975234,
        -0.0156479347,
        -0.62244153,
        -0.09546135,
        0.323954552,
        1.749069,
        -0.699512064,
        -0.681657135,
        0.2658233,
        0.0622109734,
        -0.244051889,
        -0.07088324,
        0.07681719,
        0.3412697,
        0.209613532,
        0.274828136,
        0.223550916,
        -0.0472177677,
        -0.2877147,
        -0.109867334,
        -0.5284967,
        0.4212654,
        0.3406532,
        -1.60568583,
        -0.272597134,
        0.118557461,
        0.615339,
        1.279451,
        0.09611679,
        0.6390641,
        0.305008471,
        -0.8170256,
        -0.3536188,
        0.5539686,
        -0.1755334,
        -0.465394437,
        0.7539881,
        0.4894603,
        -0.485683739,
        0.723085463,
        0.3588914,
        0.5837013,
        0.055110082,
        -0.0406452641,
        -0.594569862,
        0.2657469,
        1.15301883,
        -0.0557003878,
        0.124501795,
        0.06991089,
        -0.178524792,
        -0.153381526,
        0.3509497,
        0.369163036,
        0.201403365,
        0.5570827,
        -0.191092074,
        0.0225592963,
        0.374847859,
        0.802634954,
        -0.09072517,
        -0.767183542,
        -0.116128013,
        0.14151594,
        0.494073838,
        -0.404837,
        -0.405783176,
        0.142651409,
        0.448513478,
        -0.6696855,
        0.07632328,
        0.2969856,
        -0.665503263,
        -0.07865029,
        0.7296911,
        -0.575020969,
        0.858035,
        -0.179589063,
        -0.6203255,
        -0.382224679,
        0.8516373,
        0.177831188,
        0.102603152,
        -0.00194178044,
        -0.29086253,
        0.502915263,
        -0.378892928,
        -0.5291474,
        0.6538452,
        0.018075157,
        -0.167226985,
        0.13385728,
        0.008641204,
        0.7869065,
        0.6313284,
        0.083587274,
        1.11157072,
        -0.043881692,
        0.109716587,
        -0.578878,
        -0.5483283,
        0.186431542,
        0.5905764,
        0.2075382,
        -0.01389624,
        -0.632019639,
        0.411755055,
        -0.609559238,
        -0.159149215,
        0.05776454,
        -0.324183851,
        -0.419927359,
        -0.144477218,
        0.3881768,
        -0.411145836,
        0.156824291,
        0.380520046,
        0.355882853,
        -0.374538183,
        -0.132450059,
        0.4256027,
        0.507925332,
        -0.16548641,
        -0.360066146,
        -0.361987531,
        0.0624699257,
        0.4154293,
        -0.322437882,
        0.501817644,
        1.06021047,
        0.6591003,
        -0.163178369,
        -0.343955934,
        0.191160485,
        0.122607008,
        -0.233195692,
        -0.05869669,
        -0.641093731,
        -0.299131334,
        -0.192668244,
        -0.2936115,
        0.24216646,
        0.482546568,
        0.301535577,
        -0.263130933,
        -0.2424973,
        -0.08628793,
        0.288983673,
        0.357027054,
        -0.0835525244,
        -0.821602464,
        -0.4331629,
        0.06929891,
        -0.331015348,
        0.539099753,
        0.226800218,
        0.248899251,
        0.4307454,
        -0.15265125,
        0.123515964,
        0.460815,
        -1.04009867,
        0.198979288,
        0.0293718148,
        -0.4038274,
        0.669195,
        -0.287690848,
        0.175264046,
        0.0927243456,
        -0.430836618,
        0.0296836235,
        -0.0585925579,
        0.6219698,
        -0.1478218,
        0.00213921675,
        -0.6480023,
        -0.22996515,
        0.9975517,
        -0.2872981,
        0.557551563,
        0.376864731,
        -0.51199764,
        -0.811068952,
        -0.248106137,
        -0.610961,
        0.2795137,
        -0.600732267,
        0.07326951,
        -0.137774125,
        0.110796288,
        0.08442382,
        0.0033883357,
        0.13806057,
        -0.101751938,
        -0.09862677,
        -0.3851356,
        0.0493209474,
        0.596791744
      ],
      "biasesFlat": [
        0.0331357345,
        0.186162919,
        -0.3698952,
        0.2800607,
        -0.803747237,
        -0.335361034,
        0.244856149,
        -0.319922715,
        0.571570933,
        -0.253925383,
        -0.0609424,
        0.5319536,
        -0.2163531,
        -1.6019603,
        0.557021,
        0.518032968,
        -0.107745975,
        0.0378482454,
        -0.188772351,
        -0.249362335,
        0.009791152,
        -0.891538262,
        -0.236773834,
        -0.244239479,
        0.7126021,
        -0.918007553,
        0.334107339,
        -0.267084867,
        -0.213072643,
        0.00337909488,
        -0.957300365,
        -0.498030931,
        -0.1640118,
        0.767826736
      ],
      "weightShapes": [
        [
          16,
          18
        ],
        [
          16,
          16
        ],
        [
          2,
          16
        ]
      ],
      "biasShapes": [
        16,
        16,
        2
      ]
    },
    {
      "layers": [
        18,
        16,
        16,
        2
      ],
      "weightsFlat": [
        0.347138882,
        -0.532008767,
        0.19797188,
        1.15372694,
        0.1471184,
        0.130858988,
        0.3396002,
        0.312030643,
        0.5104386,
        0.447441518,
        -0.4266014,
        -0.2061028,
        -0.025852561,
        -1.23950839,
        -0.9007413,
        0.0209573135,
        -0.265454948,
        0.05980608,
        0.3976907,
        0.7619116,
        -0.4514727,
        -0.0922554359,
        0.976491749,
        0.09708091,
        -0.0424318761,
        -0.7367754,
        0.1005846,
        0.439469248,
        0.0531709269,
        0.300788581,
        -0.7378927,
        0.2715173,
        -0.4134378,
        0.8370567,
        -0.253223479,
        -0.126153469,
        0.83792156,
        0.003060899,
        0.3708044,
        -0.273349673,
        0.153555319,
        0.7891084,
        0.677300751,
        0.06258219,
        -0.286936879,
        0.168912813,
        -0.547248542,
        -0.331789881,
        0.717554867,
        0.5498899,
        -0.154649064,
        -0.164311528,
        0.407160372,
        0.87886405,
        0.21137394,
        0.1750147,
        0.289622754,
        0.232507125,
        0.102298625,
        -1.04489613,
        -0.290046453,
        -0.358349144,
        0.0214208122,
        -0.19677569,
        -0.371263176,
        -0.316446841,
        -0.336172283,
        -0.1497484,
        -0.8899143,
        0.413311571,
        -0.235991254,
        0.08957505,
        0.342326552,
        0.670141339,
        -0.6809319,
        -0.764135242,
        -1.53198636,
        -0.3711874,
        -0.217313334,
        0.5130423,
        -0.582966,
        0.6059555,
        -0.05850269,
        -0.52253443,
        -0.499219149,
        -0.2791654,
        -0.10829971,
        0.9016359,
        -0.6336392,
        0.64920944,
        0.09198429,
        -1.15767717,
        -0.382738739,
        1.57458925,
        0.188074648,
        0.546667039,
        0.171715721,
        -0.08761255,
        -0.05675361,
        -0.09972256,
        0.0699326247,
        -0.563090742,
        0.5325816,
        0.366118222,
        0.328751177,
        0.27596283,
        0.277343482,
        -0.43080923,
        0.07081163,
        0.168800637,
        -0.61421895,
        -0.5413431,
        1.68435073,
        -0.357868,
        -0.011216837,
        -0.2352441,
        -0.8197702,
        0.250470549,
        -0.617373168,
        0.111837827,
        -0.0129253035,
        0.136834115,
        -1.03424919,
        -0.383522123,
        -0.9705967,
        -0.5956071,
        -0.436711341,
        -0.129125267,
        -1.27592742,
        -0.273282737,
        0.7907304,
        1.020034,
        -0.3424664,
        0.178743392,
        1.02088964,
        0.6407829,
        1.201436,
        -0.457452774,
        0.8124287,
        0.0333063677,
        -0.13987042,
        0.01158162,
        0.212117538,
        -0.6398266,
        -1.20684826,
        0.6745692,
        -0.7099889,
        0.4549668,
        0.397383749,
        -0.518552363,
        0.08378065,
        -0.1855905,
        0.553969741,
        0.7770927,
        -0.09993353,
        0.4743585,
        -0.249421209,
        -0.03448051,
        -0.846857667,
        0.7932954,
        0.331798226,
        0.3085447,
        -0.401724279,
        -0.453940421,
        -0.0236688517,
        -0.8004684,
        -0.09191734,
        0.283317626,
        0.5047735,
        1.049999,
        0.5624756,
        0.0536893569,
        0.0617338046,
        0.116258651,
        1.00437272,
        -0.5656613,
        -0.04328976,
        0.758521855,
        -0.2691777,
        -0.446508318,
        -0.273427725,
        0.157108948,
        0.24327077,
        -0.019095948,
        0.06524999,
        0.0403872021,
        0.5312763,
        0.2799903,
        0.04716701,
        0.31444335,
        -0.88160634,
        -0.201482728,
        -0.9942399,
        0.18306753,
        -0.06477223,
        -0.173967853,
        0.21712327,
        -0.03556957,
        0.282563716,
        0.978820562,
        0.243975043,
        -1.07765329,
        -0.00706332363,
        -0.076408,
        0.0304700956,
        -0.043067,
        0.590942,
        0.193928689,
        -0.08011205,
        0.1403512,
        0.19565028,
        -0.008483151,
        -0.496279329,
        -0.339838445,
        -0.5901543,
        0.9536595,
        0.169409111,
        0.398447663,
        0.07053489,
        -0.5333209,
        0.67363,
        -0.3532771,
        0.8516805,
        0.0571018234,
        0.164131775,
        0.279042631,
        -0.003294295,
        0.07688814,
        -0.682749331,
        0.259680122,
        -0.400686473,
        0.3974593,
        -0.268066853,
        -1.22906959,
        0.432393461,
        0.192763522,
        -0.09781365,
        0.06331918,
        -0.152420372,
        -0.0704889148,
        -0.3258578,
        0.550415158,
        0.220432535,
        -0.289207518,
        -0.0499829277,
        0.317835271,
        0.3824799,
        -0.479020536,
        -0.7653127,
        0.389344037,
        -0.8537694,
        0.339935422,
        -1.28990579,
        -0.0570390038,
        0.497377366,
        -1.21995127,
        -1.64451134,
        0.9997779,
        -0.8265544,
        -0.340418816,
        0.06665383,
        0.09392755,
        0.197312355,
        0.0122793391,
        0.109422028,
        0.516437232,
        -1.23298347,
        -0.162444681,
        0.362955064,
        0.180784255,
        -0.0509328358,
        -0.157620415,
        -0.744928837,
        0.8082749,
        -0.04284915,
        -0.7671727,
        -0.373565644,
        -0.128122777,
        0.0380378626,
        0.359174758,
        0.2005659,
        0.557047367,
        0.30569917,
        -0.7176473,
        0.134560615,
        0.2817619,
        -0.8521871,
        -0.624667,
        -0.5618118,
        0.6595013,
        -0.25942,
        -0.335575968,
        0.234939069,
        -0.516266167,
        0.676548,
        0.09352899,
        0.0147674754,
        0.17431888,
        0.5038853,
        0.2529376,
        -0.562534,
        0.811572134,
        -0.383554339,
        1.57943177,
        -0.20680888,
        -0.584681034,
        0.3137607,
        -0.230607063,
        -1.37225366,
        0.7618956,
        0.32477212,
        0.8526068,
        0.5090159,
        0.451480746,
        -0.434304357,
        0.00663415529,
        -1.6248889,
        0.172108784,
        -0.6044378,
        0.708027,
        -0.101005681,
        0.07655916,
        0.403850943,
        -0.375885934,
        0.0304237735,
        0.308223069,
        -0.236314327,
        -0.3578717,
        0.1453885,
        -0.9480752,
        0.8428081,
        0.007174847,
        -0.9015167,
        0.0477357544,
        0.640904844,
        0.3021018,
        -1.50695515,
        0.2809552,
        -0.0437747277,
        0.456182837,
        0.9532826,
        -0.2360739,
        -0.83965075,
        -1.449297,
        0.45992738,
        0.131578058,
        0.415636539,
        0.4299544,
        0.7428231,
        -0.7198066,
        0.137433559,
        1.1475662,
        -0.000517482054,
        -0.5381363,
        0.647948265,
        -1.38459516,
        0.116560347,
        -0.117538,
        -0.9449493,
        -0.484379232,
        0.0874667,
        0.5587141,
        0.311306566,
        -0.130271375,
        0.4352128,
        0.3538108,
        0.245801657,
        0.4240447,
        -0.9661224,
        0.05025802,
        0.692285836,
        -0.048229754,
        -0.433648825,
        -0.404059619,
        0.00821871,
        -0.226856172,
        -0.483709663,
        0.150142848,
        -0.506975234,
        -0.0156479347,
        -0.62244153,
        -0.09546135,
        0.323954552,
        1.749069,
        -0.420013547,
        -0.5564191,
        0.2658233,
        0.0622109734,
        -0.196928084,
        -0.07088324,
        0.07681719,
        0.3412697,
        0.209613532,
        0.458810151,
        0.223550916,
        -0.269045234,
        -0.2877147,
        -0.109867334,
        -0.5284967,
        0.548194051,
        0.567377,
        -1.65072954,
        -0.272597134,
        0.118557461,
        0.615339,
        1.16190159,
        0.0978013054,
        0.6390641,
        0.305008471,
        -0.9174278,
        -0.3536188,
        0.5539686,
        -0.1755334,
        -0.465394437,
        0.594279349,
        0.212672576,
        -0.485683739,
        0.723085463,
        0.3588914,
        0.5837013,
        0.055110082,
        -0.0406452641,
        -0.675281465,
        0.2657469,
        1.15301883,
        -0.0557003878,
        0.124501795,
        0.266429842,
        -0.178524792,
        -0.153381526,
        0.3509497,
        0.369163036,
        0.201403365,
        0.5570827,
        -0.191092074,
        0.0225592963,
        0.374847859,
        0.802634954,
        -0.09072517,
        -0.767183542,
        -0.116128013,
        0.14151594,
        0.494073838,
        -0.404837,
        -0.405783176,
        0.142651409,
        0.448513478,
        -0.548326254,
        0.07632328,
        0.2969856,
        -0.665503263,
        -0.175899923,
        0.45459938,
        -0.590576947,
        0.9285142,
        -0.628858149,
        -0.6203255,
        -0.5136537,
        0.730980635,
        0.11426007,
        0.102603152,
        0.07230668,
        -0.29086253,
        0.611302555,
        -0.378892928,
        -0.5291474,
        0.6538452,
        0.0110612772,
        -0.167226985,
        0.00353198429,
        0.008641204,
        0.7869065,
        0.661049366,
        0.083587274,
        1.11157072,
        -0.288041025,
        0.109716587,
        -0.269194961,
        -1.08994842,
        0.4434177,
        0.384892285,
        0.2075382,
        0.123943657,
        -0.632019639,
        0.411755055,
        -0.882706761,
        -0.159149215,
        0.05776454,
        -0.324183851,
        -0.419927359,
        -0.144477218,
        0.4311741,
        -0.2478805,
        0.156824291,
        0.5015374,
        0.842690349,
        -0.259223878,
        -0.132450059,
        0.4256027,
        0.507925332,
        -0.16548641,
        -0.298226863,
        -0.361987531,
        -0.1616213,
        0.4900601,
        -0.322437882,
        0.6887605,
        1.02007985,
        0.750294745,
        -0.462046653,
        -0.343955934,
        0.08080212,
        0.031871628,
        -0.470144928,
        -0.05869669,
        -0.6560935,
        -0.299131334,
        -0.192668244,
        -0.2936115,
        0.24216646,
        0.482546568,
        0.301535577,
        -0.0430931,
        -0.349659175,
        -0.265853584,
        0.0222251,
        0.357027054,
        -0.0835525244,
        -1.09944642,
        -0.4331629,
        0.06929891,
        -0.331015348,
        0.539099753,
        0.226800218,
        -0.04675046,
        0.4307454,
        -0.15265125,
        0.123515964,
        0.460815,
        -1.0125438,
        -0.305262059,
        0.0588116124,
        -0.4038274,
        0.7020581,
        -0.287690848,
        0.175264046,
        0.0927243456,
        -0.1468858,
        0.0296836235,
        -0.0585925579,
        0.6219698,
        -0.1478218,
        0.00213921675,
        -0.6480023,
        0.0504112281,
        0.9975517,
        -0.2207896,
        0.7600272,
        0.376864731,
        -0.51199764,
        -0.811068952,
        -0.248106137,
        -0.7057615,
        0.2795137,
        -0.483078837,
        0.07326951,
        -0.137774125,
        0.110796288,
        0.08442382,
        0.0033883357,
        0.13806057,
        -0.101751938,
        -0.208028749,
        -0.3851356,
        -0.230177745,
        0.596791744
      ],
      "biasesFlat": [
        0.08056258,
        0.186162919,
        -0.3698952,
        0.2800607,
        -0.803747237,
        -0.335361034,
        -0.03780515,
        -0.319922715,
        0.571570933,
        -0.298280776,
        0.16209498,
        0.5319536,
        -0.2163531,
        -1.6019603,
        0.557021,
        0.518032968,
        -0.107745975,
        0.0378482454,
        -0.188772351,
        -0.542936444,
        0.009791152,
        -0.891538262,
        -0.6943587,
        -0.244239479,
        0.7126021,
        -0.918007553,
        0.334107339,
        -0.267084867,
        -0.213072643,
        0.00337909488,
        -0.957300365,
        -0.498030931,
        -0.1005572,
        0.767826736
      ],
      "weightShapes": [
        [
          16,
          18
        ],
        [
          16,
          16
        ],
        [
          2,
          16
        ]
      ],
      "biasShapes": [
        16,
        16,
        2
      ]
    },
    {
      "layers": [
        18,
        16,
        16,
        2
      ],
      "weightsFlat": [
        0.347138882,
        -0.334268153,
        0.19797188,
        1.15372694,
        0.1471184,
        0.130858988,
        0.329760224,
        0.312030643,
        0.5104386,
        0.7348181,
        -0.6228616,
        -0.07424207,
        -0.025852561,
        -1.23950839,
        -0.6273386,
        0.0209573135,
        -0.265454948,
        0.05980608,
        0.3976907,
        0.662347,
        -0.4514727,
        -0.0922554359,
        0.976491749,
        0.1868439,
        0.174534976,
        -0.7367754,
        0.09855086,
        0.439469248,
        0.0576724522,
        0.300788581,
        -0.7378927,
        0.2715173,
        -0.4134378,
        0.8341828,
        -0.253223479,
        0.12930125,
        0.83792156,
        0.003060899,
        0.3708044,
        -0.273349673,
        0.153555319,
        0.7891084,
        0.677300751,
        0.06258219,
        -0.276405424,
        0.168912813,
        -0.547248542,
        -0.331789881,
        0.717554867,
        0.5498899,
        -0.154649064,
        -0.164311528,
        0.407160372,
        0.87886405,
        0.21137394,
        0.2079282,
        0.289622754,
        0.486694,
        0.102298625,
        -1.04489613,
        -0.411155134,
        -0.358349144,
        0.0214208122,
        -0.19677569,
        -0.371263176,
        -0.316446841,
        -0.336172283,
        -0.1497484,
        -0.823941052,
        0.413311571,
        -0.235991254,
        0.08957505,
        0.2841725,
        0.670141339,
        -0.6809319,
        -0.764135242,
        -1.53198636,
        -0.3711874,
        -0.217313334,
        0.5130423,
        -0.582966,
        0.6059555,
        -0.05850269,
        -0.52253443,
        -0.499219149,
        -0.155658022,
        -0.10829971,
        0.9016359,
        -0.6336392,
        0.64920944,
        0.09198429,
        -1.15767717,
        -0.382738739,
        1.49977064,
        0.188074648,
        0.345310628,
        0.171715721,
        -0.08761255,
        -0.05675361,
        -0.09972256,
        0.0699326247,
        -0.269556463,
        0.5325816,
        0.3941076,
        0.445884645,
        0.565238,
        0.277343482,
        -0.43080923,
        0.07081163,
        0.168800637,
        -0.61421895,
        -0.8068949,
        1.68435073,
        -0.357868,
        -0.011216837,
        -0.228119165,
        -0.8197702,
        0.250470549,
        -0.617373168,
        -0.113213427,
        -0.0129253035,
        0.136834115,
        -1.25854576,
        -0.383522123,
        -0.9705967,
        -0.5956071,
        -0.31231603,
        -0.129125267,
        -1.27592742,
        -0.273282737,
        0.7907304,
        0.8806586,
        -0.3424664,
        0.178743392,
        1.02088964,
        0.6407829,
        1.201436,
        -0.457452774,
        0.8124287,
        0.0333063677,
        -0.198186249,
        0.01158162,
        0.212117538,
        -0.6398266,
        -1.20684826,
        0.6745692,
        -0.7099889,
        0.4549668,
        0.397383749,
        -0.518552363,
        0.08378065,
        -0.1855905,
        0.553969741,
        0.7770927,
        -0.09993353,
        0.4743585,
        -0.507056355,
        -0.179480046,
        -0.846857667,
        0.7932954,
        0.241378978,
        0.3085447,
        -0.401724279,
        -0.453940421,
        -0.0236688517,
        -0.8004684,
        -0.09191734,
        0.356325954,
        0.5047735,
        1.049999,
        0.5624756,
        0.0536893569,
        0.0617338046,
        -0.08098019,
        0.7629521,
        -0.5656613,
        -0.04328976,
        0.758521855,
        -0.2691777,
        -0.306894869,
        -0.273427725,
        0.157108948,
        0.24327077,
        -0.019095948,
        0.06524999,
        0.0403872021,
        0.5312763,
        0.2799903,
        0.04716701,
        0.275810659,
        -0.88160634,
        -0.201482728,
        -0.9942399,
        0.18306753,
        -0.06477223,
        -0.173967853,
        0.21712327,
        -0.03556957,
        0.3367584,
        0.978820562,
        0.243975043,
        -0.623933256,
        -0.00706332363,
        -0.076408,
        0.0304700956,
        -0.043067,
        0.590942,
        0.0131768482,
        -0.08011205,
        0.1403512,
        0.19565028,
        -0.008483151,
        -0.73407805,
        -0.339838445,
        -0.5901543,
        0.9536595,
        0.3876216,
        0.398447663,
        0.07053489,
        -0.5333209,
        0.67363,
        -0.3532771,
        0.8516805,
        0.0571018234,
        0.164131775,
        0.279042631,
        -0.003294295,
        0.07688814,
        -0.682749331,
        0.258805484,
        -0.400686473,
        0.3974593,
        -0.268066853,
        -1.22906959,
        0.518086135,
        0.192763522,
        -0.09781365,
        0.06331918,
        -0.152420372,
        -0.0704889148,
        -0.3258578,
        0.550415158,
        0.220432535,
        -0.289207518,
        -0.0499829277,
        0.317835271,
        0.3824799,
        -0.479020536,
        -0.7653127,
        0.405800641,
        -0.535637259,
        0.339935422,
        -1.28791559,
        -0.0570390038,
        0.497377366,
        -1.21995127,
        -1.64451134,
        0.9997779,
        -0.8265544,
        -0.340418816,
        0.06665383,
        0.09392755,
        0.197312355,
        0.0122793391,
        0.109422028,
        0.516437232,
        -1.23298347,
        -0.162444681,
        0.362955064,
        -0.004614599,
        -0.0509328358,
        -0.157620415,
        -0.744928837,
        0.8082749,
        -0.04284915,
        -0.7671727,
        -0.373565644,
        -0.128122777,
        0.0380378626,
        0.5031293,
        0.2005659,
        0.557047367,
        0.30569917,
        -0.7176473,
        0.0212873742,
        0.2817619,
        -0.8521871,
        -0.624667,
        -0.7205904,
        0.6595013,
        -0.500876844,
        -0.335575968,
        0.316492677,
        -0.516266167,
        0.501060247,
        0.09352899,
        0.0147674754,
        0.161050543,
        0.5038853,
        0.374014825,
        -0.562534,
        0.719735146,
        -0.383554339,
        1.57943177,
        -0.20680888,
        -0.584681034,
        0.3137607,
        -0.230607063,
        -1.37225366,
        0.7618956,
        0.32477212,
        0.754191041,
        0.5090159,
        0.626723,
        -0.434304357,
        0.00663415529,
        -1.6248889,
        -0.1761642,
        -0.6044378,
        0.708027,
        -0.3555958,
        0.07655916,
        0.403850943,
        -0.375885934,
        0.0304237735,
        0.308223069,
        -0.218644455,
        -0.3578717,
        0.252487332,
        -0.9480752,
        0.8773238,
        0.007174847,
        -0.9015167,
        0.0477357544,
        0.640904844,
        0.3021018,
        -1.50695515,
        0.2809552,
        -0.0437747277,
        0.456182837,
        0.9532826,
        -0.2360739,
        -0.83965075,
        -1.449297,
        0.45992738,
        0.131578058,
        0.415636539,
        0.4299544,
        0.6231127,
        -0.7198066,
        0.137433559,
        1.1475662,
        -0.000517482054,
        -0.440295,
        0.479402483,
        -1.38459516,
        0.116560347,
        -0.117538,
        -0.9449493,
        -0.484379232,
        0.0874667,
        0.5587141,
        0.514414251,
        -0.130271375,
        0.4352128,
        0.3538108,
        0.245801657,
        0.4240447,
        -0.682189763,
        0.05025802,
        0.692285836,
        -0.130034655,
        -0.6872159,
        -0.404059619,
        0.00821871,
        -0.226856172,
        -0.483709663,
        0.200818956,
        -0.506975234,
        -0.0156479347,
        -0.62244153,
        -0.09546135,
        0.323954552,
        1.749069,
        -0.699512064,
        -0.5564191,
        0.2658233,
        0.243347362,
        -0.369599283,
        -0.07088324,
        0.0169481114,
        0.3412697,
        0.209613532,
        0.458810151,
        0.223550916,
        -0.269045234,
        -0.102360681,
        -0.07178951,
        -0.5284967,
        0.4212654,
        0.567377,
        -1.60568583,
        -0.272597134,
        0.118557461,
        0.615339,
        1.16190159,
        0.0978013054,
        0.6390641,
        0.305008471,
        -0.9174278,
        -0.402343363,
        0.5539686,
        -0.1755334,
        -0.465394437,
        0.594279349,
        0.638651967,
        -0.485683739,
        0.723085463,
        0.3588914,
        0.5837013,
        0.055110082,
        -0.0406452641,
        -0.675281465,
        0.2657469,
        1.15301883,
        -0.0557003878,
        0.124501795,
        0.266429842,
        -0.178524792,
        -0.153381526,
        0.3509497,
        0.369163036,
        0.201403365,
        0.5570827,
        -0.191092074,
        0.0225592963,
        0.374847859,
        0.802634954,
        -0.09072517,
        -0.767183542,
        -0.116128013,
        0.14151594,
        0.494073838,
        -0.404837,
        -0.405783176,
        0.142651409,
        0.448513478,
        -0.477181,
        0.07632328,
        0.2969856,
        -0.433861166,
        -0.175899923,
        0.45459938,
        -0.5773363,
        0.9285142,
        -0.628858149,
        -0.6203255,
        -0.382224679,
        0.8516373,
        0.11426007,
        0.102603152,
        0.07230668,
        -0.29086253,
        0.611302555,
        -0.0963290259,
        -0.5291474,
        0.6538452,
        0.0110612772,
        -0.167226985,
        0.13385728,
        0.008641204,
        0.7869065,
        0.6313284,
        0.083587274,
        0.8979133,
        -0.288041025,
        0.109716587,
        -0.269194961,
        -1.08994842,
        0.4434177,
        0.384892285,
        0.2075382,
        0.123943657,
        -0.632019639,
        0.411755055,
        -0.882706761,
        -0.159149215,
        0.23280023,
        -0.324183851,
        -0.327538818,
        -0.144477218,
        0.4311741,
        -0.357563645,
        0.156824291,
        0.5015374,
        0.569381535,
        -0.259223878,
        -0.132450059,
        0.4256027,
        0.507925332,
        -0.45980233,
        -0.360066146,
        -0.361987531,
        -0.1616213,
        0.4900601,
        -0.322437882,
        0.6887605,
        1.02007985,
        0.750294745,
        -0.163178369,
        -0.343955934,
        0.08080212,
        0.031871628,
        -0.470144928,
        -0.05869669,
        -0.6560935,
        -0.299131334,
        -0.192668244,
        -0.2936115,
        0.24216646,
        0.482546568,
        0.301535577,
        -0.263130933,
        -0.349659175,
        -0.265853584,
        0.0222251,
        0.357027054,
        -0.0835525244,
        -1.09944642,
        -0.137919575,
        0.286161751,
        -0.331015348,
        0.539099753,
        0.226800218,
        -0.0506597161,
        0.4307454,
        -0.15265125,
        0.123515964,
        0.232138753,
        -1.0125438,
        -0.305262059,
        0.0293718148,
        -0.184968278,
        0.7020581,
        -0.287690848,
        0.175264046,
        0.0927243456,
        -0.430836618,
        0.0296836235,
        -0.0585925579,
        0.6219698,
        -0.1478218,
        0.00213921675,
        -0.6480023,
        -0.22996515,
        0.9975517,
        -0.2207896,
        0.7600272,
        0.376864731,
        -0.51199764,
        -0.811068952,
        -0.248106137,
        -0.7057615,
        0.2795137,
        -0.483078837,
        0.07326951,
        -0.137774125,
        0.110796288,
        0.08442382,
        0.0033883357,
        0.13806057,
        0.174585819,
        -0.09862677,
        -0.3851356,
        -0.230177745,
        0.596791744
      ],
      "biasesFlat": [
        0.08056258,
        0.186162919,
        -0.3698952,
        0.275097162,
        -0.803747237,
        -0.335361034,
        -0.03780515,
        -0.319922715,
        0.571570933,
        -0.09284163,
        -0.0609424,
        0.5319536,
        -0.2163531,
        -1.6019603,
        0.557021,
        0.518032968,
        -0.1518942,
        0.0378482454,
        -0.188772351,
        -0.249362335,
        0.009791152,
        -0.891538262,
        -0.6943587,
        -0.49244234,
        0.7126021,
        -0.918007553,
        0.334107339,
        -0.267084867,
        -0.213072643,
        0.00337909488,
        -0.973366261,
        -0.498030931,
        -0.1005572,
        0.767826736
      ],
      "weightShapes": [
        [
          16,
          18
        ],
        [
          16,
          16
        ],
        [
          2,
          16
        ]
      ],
      "biasShapes": [
        16,
        16,
        2
      ]
    },
    {
      "layers": [
        18,
        16,
        16,
        2
      ],
      "weightsFlat": [
        0.347138882,
        -0.278641731,
        0.19797188,
        0.740713239,
        0.233265191,
        0.130858988,
        0.17514053,
        0.312030643,
        0.5104386,
        0.447441518,
        -0.6228616,
        -0.169295728,
        0.193162471,
        -1.09154391,
        -1.10807824,
        0.0209573135,
        -0.265454948,
        0.05980608,
        0.3976907,
        0.683029,
        -0.4514727,
        0.08710085,
        0.976491749,
        0.0361826532,
        -0.0424318761,
        -0.90017575,
        0.1005846,
        0.439469248,
        0.170368329,
        0.300788581,
        -0.7378927,
        0.0193634,
        -0.4134378,
        0.7599092,
        -0.253223479,
        0.12930125,
        0.853713632,
        -0.167175964,
        0.3708044,
        -0.273349673,
        0.153555319,
        0.7891084,
        0.4037852,
        0.08400984,
        -0.127399817,
        0.168912813,
        -0.2569879,
        -0.331789881,
        0.41787082,
        0.5498899,
        -0.154649064,
        -0.164311528,
        0.407160372,
        0.87886405,
        0.21137394,
        0.301876962,
        0.289622754,
        0.314376652,
        0.102298625,
        -0.977821231,
        -0.290046453,
        -0.358349144,
        -0.04284731,
        -0.19677569,
        -0.371263176,
        -0.262855649,
        -0.336172283,
        -0.1497484,
        -0.823941052,
        -0.0746171,
        0.06167031,
        -0.0417795554,
        0.2841725,
        0.670141339,
        -0.5021291,
        -0.764135242,
        -1.507054,
        -0.3711874,
        -0.217313334,
        0.291419655,
        -0.7925066,
        0.6059555,
        0.06956128,
        -0.52253443,
        -0.499219149,
        0.09504388,
        -0.2785821,
        0.9016359,
        -0.6336392,
        0.9055811,
        -0.136982456,
        -1.15767717,
        -0.382738739,
        1.57458925,
        0.188074648,
        0.546667039,
        0.228300765,
        -0.08761255,
        0.0828467757,
        -0.0950073451,
        0.122969605,
        -0.269556463,
        0.5325816,
        0.4637084,
        0.328751177,
        0.27596283,
        0.277343482,
        -0.43080923,
        0.06728321,
        0.229979932,
        -0.61421895,
        -0.773730636,
        1.68435073,
        -0.09195727,
        -0.011216837,
        -0.228119165,
        -0.8197702,
        0.4220404,
        -0.559500456,
        0.5965752,
        -0.0129253035,
        -0.08965945,
        -1.03424919,
        -0.383522123,
        -0.9705967,
        -0.5956071,
        -0.436711341,
        -0.381654054,
        -1.27592742,
        -0.155950025,
        0.657255948,
        0.7160074,
        -0.3424664,
        0.178743392,
        1.02088964,
        0.8003025,
        0.9241964,
        -0.5023645,
        0.6615321,
        0.0333063677,
        -0.198186249,
        0.01158162,
        0.336016953,
        -0.402102262,
        -1.20684826,
        0.6745692,
        -0.7099889,
        0.469947636,
        0.397383749,
        -0.518552363,
        0.08378065,
        -0.1855905,
        0.553969741,
        0.674495,
        0.07389589,
        0.574855149,
        -0.485057235,
        -0.179480046,
        -0.9532744,
        0.6225438,
        0.06840288,
        0.5653859,
        -0.5129995,
        -0.453940421,
        -0.0236688517,
        -0.8004684,
        -0.09191734,
        0.2334495,
        0.591962934,
        1.34030128,
        0.482141346,
        0.0536893569,
        0.255434424,
        -0.08098019,
        1.00437272,
        -0.5656613,
        -0.0981213152,
        0.758521855,
        -0.210565433,
        -0.306894869,
        -0.273427725,
        0.157108948,
        -0.09158814,
        -0.0130159734,
        0.06524999,
        0.0403872021,
        0.5312763,
        0.135298386,
        0.04716701,
        0.31444335,
        -0.88160634,
        -0.201482728,
        -0.7348275,
        0.132581368,
        -0.06477223,
        0.09840569,
        0.21712327,
        -0.03556957,
        0.376351446,
        0.978820562,
        0.485957384,
        -0.805684566,
        -0.00706332363,
        -0.467651635,
        0.0304700956,
        -0.043067,
        0.44232592,
        0.0131768482,
        0.07484565,
        0.1403512,
        0.0539676659,
        -0.008483151,
        -0.496279329,
        -0.13527225,
        -0.5901543,
        1.1306,
        -0.0215067845,
        0.398447663,
        0.07053489,
        -0.543808,
        0.67363,
        -0.3532771,
        0.8516805,
        0.0571018234,
        0.164131775,
        0.279042631,
        -0.003294295,
        0.1089647,
        -0.8589305,
        0.259680122,
        -0.276201755,
        0.3974593,
        -0.268066853,
        -0.9593081,
        0.230938226,
        0.230753586,
        -0.09781365,
        0.362760156,
        -0.152420372,
        0.0590415969,
        -0.5931748,
        0.48087728,
        0.220432535,
        -0.289207518,
        0.07344233,
        0.226855919,
        0.6418183,
        -0.479020536,
        -0.7653127,
        0.389344037,
        -0.570897162,
        0.348503232,
        -1.14815986,
        -0.025302941,
        0.497377366,
        -1.00095892,
        -1.398438,
        0.9997779,
        -0.764992952,
        -0.340418816,
        0.06665383,
        0.09392755,
        0.197312355,
        0.08540728,
        -0.118694872,
        0.516437232,
        -1.23298347,
        -0.193368658,
        0.201564759,
        0.180784255,
        -0.0509328358,
        -0.157620415,
        -0.744928837,
        0.8082749,
        -0.16546835,
        -0.61476016,
        -0.373565644,
        -0.183888584,
        0.0380378626,
        0.609397054,
        0.2005659,
        0.557047367,
        0.497963578,
        -0.7176473,
        0.134560615,
        0.2817619,
        -0.8521871,
        -0.624667,
        -0.5618118,
        0.6976734,
        -0.500876844,
        -0.335575968,
        0.382577032,
        -0.516266167,
        0.553964257,
        0.09352899,
        0.0147674754,
        0.17431888,
        0.5038853,
        0.374014825,
        -0.562534,
        0.719735146,
        -0.383554339,
        1.57943177,
        -0.20680888,
        -0.5525486,
        0.3137607,
        -0.3272317,
        -1.420524,
        0.7618956,
        0.6173775,
        0.765026331,
        0.438136369,
        0.451480746,
        -0.9518753,
        0.00663415529,
        -1.6248889,
        0.11289645,
        -0.366183549,
        0.8702949,
        -0.1623067,
        0.07655916,
        0.378115,
        -0.375885934,
        -0.09988612,
        0.308223069,
        -0.452812821,
        -0.4306317,
        0.252487332,
        -0.768989444,
        0.6015197,
        0.03450882,
        -0.719734967,
        0.0477357544,
        0.5783512,
        0.3021018,
        -1.50695515,
        0.106320247,
        -0.183704674,
        0.456182837,
        0.888437033,
        -0.178287283,
        -0.8410172,
        -1.26435554,
        0.3643528,
        0.0612633675,
        0.4687504,
        0.374753743,
        0.6231127,
        -0.5082835,
        0.189653486,
        1.1475662,
        -0.288941741,
        -0.440295,
        0.7307452,
        -1.045172,
        0.116560347,
        0.186749622,
        -0.9449493,
        -0.484379232,
        0.0874667,
        0.3471215,
        0.311306566,
        0.06752808,
        0.4352128,
        0.3538108,
        0.245801657,
        0.460947573,
        -0.794393957,
        0.05025802,
        0.471328527,
        -0.130034655,
        -0.6872159,
        -0.740563154,
        0.00821871,
        -0.226856172,
        -0.483709663,
        0.329261065,
        -0.377629876,
        -0.0156479347,
        -0.62244153,
        -0.09546135,
        0.323954552,
        1.749069,
        -0.699512064,
        -0.681657135,
        0.2658233,
        0.0622109734,
        -0.244051889,
        -0.07088324,
        0.07681719,
        0.5499603,
        0.128909618,
        0.274828136,
        0.223550916,
        -0.0472177677,
        -0.2877147,
        -0.109867334,
        -0.5284967,
        0.4212654,
        0.437804371,
        -1.60568583,
        -0.272597134,
        0.118557461,
        0.615339,
        1.279451,
        0.09611679,
        0.6390641,
        0.305008471,
        -0.8170256,
        -0.3536188,
        0.6166905,
        0.08468822,
        -0.695322454,
        0.7539881,
        0.4894603,
        -0.485683739,
        0.425796568,
        0.357334971,
        0.3873985,
        0.055110082,
        0.209836543,
        -0.594569862,
        0.183631882,
        1.15301883,
        -0.0557003878,
        0.124501795,
        0.06991089,
        -0.178524792,
        -0.325516284,
        0.3509497,
        0.369163036,
        0.201403365,
        0.384610236,
        -0.191092074,
        -0.118369736,
        0.374847859,
        0.6533822,
        -0.09072517,
        -0.767183542,
        -0.116128013,
        -0.139979243,
        0.597104847,
        -0.404837,
        -0.405783176,
        0.142651409,
        0.448513478,
        -0.6696855,
        0.07632328,
        0.2969856,
        -0.665503263,
        -0.07865029,
        0.7296911,
        -0.575020969,
        0.858035,
        -0.179589063,
        -0.6203255,
        -0.382224679,
        0.8516373,
        0.177831188,
        0.102603152,
        -0.00194178044,
        -0.29086253,
        0.502915263,
        -0.203709334,
        -0.5291474,
        0.498972833,
        -0.215269044,
        -0.167226985,
        0.13385728,
        0.008641204,
        0.98797673,
        0.6313284,
        0.083587274,
        1.11157072,
        0.00684169866,
        0.109716587,
        -0.578878,
        -0.5483283,
        0.186431542,
        0.5905764,
        0.2075382,
        -0.01389624,
        -0.632019639,
        0.411755055,
        -0.609559238,
        -0.184929773,
        0.05776454,
        -0.324183851,
        -0.419927359,
        -0.144477218,
        0.3881768,
        -0.411145836,
        0.156824291,
        0.380520046,
        0.355882853,
        -0.273426831,
        -0.4195143,
        0.4256027,
        0.507925332,
        -0.16548641,
        -0.360066146,
        -0.361987531,
        0.245186731,
        0.507627964,
        -0.322437882,
        0.501817644,
        1.06021047,
        0.6591003,
        -0.163178369,
        -0.343955934,
        0.191160485,
        0.122607008,
        -0.233195692,
        -0.05869669,
        -0.641093731,
        -0.144977212,
        -0.192668244,
        -0.290553033,
        0.24216646,
        0.392920524,
        0.508772552,
        -0.263130933,
        -0.2424973,
        -0.08628793,
        0.288983673,
        0.357027054,
        -0.334907353,
        -0.821602464,
        -0.4331629,
        0.06929891,
        -0.331015348,
        0.539099753,
        0.226800218,
        -0.282271415,
        0.4307454,
        -0.15265125,
        0.123515964,
        0.333900124,
        -1.04009867,
        0.198979288,
        0.0293718148,
        -0.4038274,
        0.4519863,
        -0.287690848,
        0.175264046,
        -0.04849402,
        -0.430836618,
        0.0296836235,
        -0.0585925579,
        0.612221062,
        -0.1478218,
        0.00213921675,
        -0.7234835,
        -0.243501946,
        1.26425028,
        -0.334806859,
        0.557551563,
        0.376864731,
        -0.51199764,
        -0.811068952,
        -0.248106137,
        -0.7108169,
        0.729529142,
        -0.600732267,
        0.07326951,
        -0.137774125,
        0.110796288,
        0.08442382,
        0.0033883357,
        0.13806057,
        -0.101751938,
        -0.09862677,
        -0.180023953,
        0.0493209474,
        0.596791744
      ],
      "biasesFlat": [
        -0.05294024,
        0.287771821,
        -0.3698952,
        0.2800607,
        -0.803747237,
        -0.335361034,
        0.244856149,
        -0.296016753,
        0.571570933,
        -0.253925383,
        -0.0609424,
        0.47663492,
        -0.309604526,
        -1.6019603,
        0.557021,
        0.518032968,
        -0.107745975,
        0.0378482454,
        -0.2500687,
        -0.249362335,
        0.009791152,
        -1.06220782,
        -0.236773834,
        -0.244239479,
        0.5103162,
        -0.918007553,
        0.334107339,
        -0.267084867,
        -0.213072643,
        0.00337909488,
        -0.957300365,
        -0.77286,
        -0.1640118,
        0.767826736
      ],
      "weightShapes": [
        [
          16,
          18
        ],
        [
          16,
          16
        ],
        [
          2,
          16
        ]
      ],
      "biasShapes": [
        16,
        16,
        2
      ]
    },
    {
      "layers": [
        18,
        16,
        16,
        2
      ],
      "weightsFlat": [
        0.347138882,
        -0.26383698,
        0.19797188,
        1.15372694,
        0.1471184,
        0.2844213,
        0.329760224,
        0.312030643,
        0.5104386,
        0.7348181,
        -0.6228616,
        -0.07424207,
        -0.025852561,
        -1.23950839,
        -0.6273386,
        0.0209573135,
        -0.265454948,
        0.302013665,
        0.3976907,
        0.662347,
        -0.4514727,
        -0.303489059,
        0.680881143,
        0.0387132354,
        0.415867537,
        -0.7248045,
        0.09855086,
        0.439469248,
        0.0576724522,
        0.300788581,
        -0.7378927,
        0.2715173,
        -0.5415429,
        0.8341828,
        -0.253223479,
        0.12930125,
        0.83792156,
        0.003060899,
        0.3708044,
        -0.273349673,
        0.1508793,
        0.7891084,
        0.677300751,
        0.06258219,
        -0.276405424,
        0.168912813,
        -0.547248542,
        -0.331789881,
        0.717554867,
        0.5498899,
        -0.154649064,
        -0.164311528,
        0.407160372,
        0.87886405,
        0.21137394,
        0.2079282,
        0.289622754,
        0.486694,
        0.102298625,
        -1.04489613,
        -0.166607752,
        -0.358349144,
        0.0214208122,
        -0.19677569,
        -0.371263176,
        -0.194243088,
        -0.336172283,
        -0.1497484,
        -0.823941052,
        0.413311571,
        -0.235991254,
        0.08957505,
        0.2841725,
        0.670141339,
        -0.6809319,
        -0.764135242,
        -1.53198636,
        -0.3711874,
        -0.217313334,
        0.5130423,
        -0.582966,
        0.6059555,
        -0.05850269,
        -0.52253443,
        -0.499219149,
        -0.155658022,
        -0.10829971,
        0.9016359,
        -0.6336392,
        0.5295987,
        0.09198429,
        -1.15767717,
        -0.382738739,
        1.49977064,
        0.188074648,
        0.127779126,
        0.171715721,
        -0.08761255,
        -0.05675361,
        -0.0111625558,
        -0.222761035,
        -0.269556463,
        0.5325816,
        0.105396532,
        0.445884645,
        0.565238,
        0.277343482,
        -0.324156582,
        0.07081163,
        0.168800637,
        -0.61421895,
        -0.8068949,
        1.68435073,
        -0.357868,
        -0.011216837,
        -0.228119165,
        -0.8197702,
        0.250470549,
        -0.617373168,
        -0.113213427,
        -0.0652110651,
        0.136834115,
        -1.07767951,
        -0.383522123,
        -0.9705967,
        -0.5956071,
        -0.31231603,
        -0.129125267,
        -1.27592742,
        -0.273282737,
        0.7907304,
        0.8806586,
        -0.164209,
        0.178743392,
        1.02088964,
        0.6407829,
        1.201436,
        -0.457452774,
        0.8124287,
        0.0333063677,
        -0.198186249,
        0.01158162,
        0.212117538,
        -0.7738093,
        -1.46637332,
        0.6745692,
        -0.7099889,
        0.4549668,
        0.397383749,
        -0.518552363,
        -0.132536948,
        -0.1855905,
        0.553969741,
        0.7770927,
        -0.09993353,
        0.4743585,
        -0.507056355,
        -0.179480046,
        -0.846857667,
        0.7932954,
        0.241378978,
        0.3085447,
        -0.401724279,
        -0.674714863,
        -0.0236688517,
        -0.8004684,
        0.106614485,
        0.356325954,
        0.5047735,
        1.049999,
        0.5624756,
        0.0536893569,
        0.0617338046,
        -0.296164453,
        0.7629521,
        -0.5656613,
        -0.0755605549,
        0.7171504,
        -0.2691777,
        -0.306894869,
        -0.273427725,
        0.157108948,
        0.24327077,
        -0.019095948,
        0.06524999,
        0.0403872021,
        0.5312763,
        0.248806268,
        0.04716701,
        0.275810659,
        -0.88160634,
        -0.201482728,
        -0.9942399,
        0.18306753,
        0.160631642,
        -0.173967853,
        0.4333389,
        -0.03556957,
        0.3367584,
        0.978820562,
        0.243975043,
        -0.623933256,
        -0.00706332363,
        -0.076408,
        0.0304700956,
        -0.043067,
        0.590942,
        0.0131768482,
        -0.08011205,
        0.3617116,
        0.19565028,
        -0.008483151,
        -0.73407805,
        -0.339838445,
        -0.7161331,
        0.9536595,
        0.3876216,
        0.398447663,
        0.07053489,
        -0.393313944,
        0.64958024,
        -0.128418148,
        0.8516805,
        0.0571018234,
        0.164131775,
        0.279042631,
        -0.003294295,
        0.07688814,
        -0.682749331,
        0.258805484,
        -0.400686473,
        0.3974593,
        -0.268066853,
        -1.22906959,
        0.518086135,
        0.192763522,
        -0.09781365,
        0.06331918,
        -0.152420372,
        -0.0704889148,
        -0.6058162,
        0.550415158,
        0.220432535,
        -0.289207518,
        -0.260363,
        0.317835271,
        0.3824799,
        -0.479020536,
        -0.7653127,
        0.405800641,
        -0.535637259,
        0.339935422,
        -1.47279906,
        -0.0570390038,
        0.497377366,
        -1.21995127,
        -1.64451134,
        0.9997779,
        -0.8265544,
        -0.297686547,
        0.06665383,
        0.09392755,
        0.413399339,
        0.0122793391,
        0.109422028,
        0.516437232,
        -1.23298347,
        -0.0163734145,
        0.362955064,
        -0.004614599,
        -0.0509328358,
        -0.157620415,
        -0.744928837,
        0.8082749,
        -0.04284915,
        -0.7671727,
        -0.373565644,
        -0.128122777,
        0.308752269,
        0.5031293,
        0.2005659,
        0.557047367,
        0.30569917,
        -0.9054787,
        0.0212873742,
        0.115651794,
        -0.8521871,
        -0.491475374,
        -0.892792761,
        0.6595013,
        -0.337715924,
        -0.335575968,
        0.316492677,
        -0.6427332,
        0.501060247,
        0.09352899,
        0.0147674754,
        0.161050543,
        0.5038853,
        0.374014825,
        -0.391830534,
        0.719735146,
        -0.383554339,
        1.57943177,
        -0.20680888,
        -0.584681034,
        0.3137607,
        -0.230607063,
        -1.37225366,
        0.6673931,
        0.32477212,
        0.754191041,
        0.5090159,
        0.626723,
        -0.367640525,
        0.00663415529,
        -1.6248889,
        -0.1761642,
        -0.6044378,
        0.708027,
        -0.3555958,
        0.07655916,
        0.403850943,
        -0.375885934,
        0.0304237735,
        0.194978237,
        -0.218644455,
        -0.3578717,
        0.252487332,
        -1.02243531,
        0.8773238,
        0.007174847,
        -0.9015167,
        0.0477357544,
        0.739664,
        0.3021018,
        -1.50695515,
        0.316122949,
        -0.0437747277,
        0.456182837,
        0.9532826,
        -0.2360739,
        -0.83965075,
        -1.449297,
        0.45992738,
        0.131578058,
        0.415636539,
        0.4299544,
        0.6231127,
        -0.9308048,
        0.137433559,
        1.1475662,
        -0.000517482054,
        -0.440295,
        0.479402483,
        -1.38459516,
        0.116560347,
        0.0268837549,
        -0.8609952,
        -0.484379232,
        0.0874667,
        0.767388642,
        0.514414251,
        -0.130271375,
        0.4352128,
        0.6217155,
        0.245801657,
        0.4240447,
        -0.682189763,
        0.05025802,
        0.692285836,
        -0.130034655,
        -0.6872159,
        -0.6923619,
        0.00821871,
        -0.226856172,
        -0.7414951,
        0.06683768,
        -0.6703372,
        -0.0156479347,
        -0.7930535,
        -0.09546135,
        0.323954552,
        1.62673259,
        -0.699512064,
        -0.5564191,
        0.0140993912,
        0.243347362,
        -0.369599283,
        0.09112112,
        0.213734254,
        0.3412697,
        0.209613532,
        0.458810151,
        0.223550916,
        -0.269045234,
        -0.102360681,
        -0.07178951,
        -0.5284967,
        0.4212654,
        0.862126648,
        -1.60568583,
        -0.272597134,
        0.118557461,
        0.717546165,
        1.16190159,
        0.0978013054,
        0.5181271,
        0.305008471,
        -1.04601932,
        -0.402343363,
        0.5539686,
        -0.1755334,
        -0.465394437,
        0.594279349,
        0.638651967,
        -0.485683739,
        0.723085463,
        0.3588914,
        0.5837013,
        0.055110082,
        -0.0406452641,
        -0.675281465,
        0.443228781,
        1.01070333,
        -0.0557003878,
        0.124501795,
        0.266429842,
        -0.178524792,
        -0.153381526,
        0.3509497,
        0.369163036,
        0.201403365,
        0.5570827,
        -0.191092074,
        0.0225592963,
        0.374847859,
        0.802634954,
        -0.09072517,
        -0.767183542,
        -0.116128013,
        0.14151594,
        0.494073838,
        -0.404837,
        -0.405783176,
        0.142651409,
        0.448513478,
        -0.477181,
        0.07632328,
        0.2969856,
        -0.433861166,
        -0.158406615,
        0.45459938,
        -0.5773363,
        0.9285142,
        -0.628858149,
        -0.6001738,
        -0.382224679,
        0.8516373,
        0.11426007,
        0.102603152,
        0.07230668,
        -0.182246909,
        0.386387765,
        -0.0963290259,
        -0.5291474,
        0.6538452,
        0.0110612772,
        -0.167226985,
        0.13385728,
        0.008641204,
        0.7869065,
        0.6313284,
        0.083587274,
        0.8979133,
        -0.288041025,
        0.109716587,
        -0.269194961,
        -1.08994842,
        0.4434177,
        0.384892285,
        0.2075382,
        0.123943657,
        -0.632019639,
        0.411755055,
        -0.882706761,
        -0.159149215,
        0.280784637,
        -0.324183851,
        -0.327538818,
        -0.144477218,
        0.4311741,
        -0.357563645,
        0.156824291,
        0.5015374,
        0.569381535,
        -0.259223878,
        -0.132450059,
        0.4256027,
        0.499447256,
        -0.45980233,
        -0.360066146,
        -0.361987531,
        -0.1616213,
        0.4900601,
        -0.322437882,
        0.6887605,
        1.02007985,
        0.750294745,
        -0.242619857,
        -0.292608738,
        -0.0006103921,
        0.031871628,
        -0.470144928,
        -0.05869669,
        -0.6560935,
        -0.299131334,
        -0.43863973,
        -0.2936115,
        0.24216646,
        0.482546568,
        0.248516262,
        -0.263130933,
        -0.349659175,
        -0.009761693,
        0.0222251,
        0.357027054,
        -0.0835525244,
        -1.09944642,
        -0.237629592,
        0.286161751,
        -0.112368688,
        0.539099753,
        0.226800218,
        -0.0506597161,
        0.4307454,
        -0.15265125,
        0.123515964,
        0.232138753,
        -0.7187157,
        -0.305262059,
        0.0293718148,
        -0.184968278,
        0.7020581,
        -0.287690848,
        0.175264046,
        0.0927243456,
        -0.430836618,
        0.0296836235,
        -0.0585925579,
        0.6219698,
        -0.1478218,
        0.00213921675,
        -0.6480023,
        -0.215665042,
        0.9975517,
        -0.2207896,
        0.7600272,
        0.376864731,
        -0.51199764,
        -0.811068952,
        -0.008987873,
        -0.7057615,
        0.2795137,
        -0.483078837,
        0.07326951,
        -0.137774125,
        0.110796288,
        0.08442382,
        0.0033883357,
        0.3663982,
        0.174585819,
        -0.315428078,
        -0.3851356,
        -0.230177745,
        0.596791744
      ],
      "biasesFlat": [
        0.08056258,
        0.186162919,
        -0.3698952,
        0.275097162,
        -0.803747237,
        -0.2774187,
        -0.03780515,
        -0.319922715,
        0.571570933,
        -0.09284163,
        -0.0609424,
        0.5319536,
        -0.2163531,
        -1.6019603,
        0.557021,
        0.518032968,
        -0.1518942,
        0.0378482454,
        -0.188772351,
        -0.249362335,
        0.009791152,
        -0.891538262,
        -0.6943587,
        -0.49244234,
        0.7126021,
        -0.918007553,
        0.334107339,
        -0.267084867,
        -0.213072643,
        0.00337909488,
        -0.973366261,
        -0.498030931,
        -0.1005572,
        0.767826736
      ],
      "weightShapes": [
        [
          16,
          18
        ],
        [
          16,
          16
        ],
        [
          2,
          16
        ]
      ],
      "biasShapes": [
        16,
        16,
        2
      ]
    },
    {
      "layers": [
        18,
        16,
        16,
        2
      ],
      "weightsFlat": [
        0.347138882,
        -0.532008767,
        0.19797188,
        1.03352249,
        0.233265191,
        0.130858988,
        0.17514053,
        0.4869154,
        0.5104386,
        0.447441518,
        -0.6228616,
        -0.169295728,
        0.270241439,
        -1.23950839,
        -0.9007413,
        0.0209573135,
        -0.420756817,
        0.05980608,
        0.3976907,
        0.683029,
        -0.4514727,
        0.08710085,
        0.9938036,
        0.09708091,
        -0.0424318761,
        -0.7367754,
        0.1005846,
        0.439469248,
        0.170368329,
        0.300788581,
        -0.757216036,
        0.2715173,
        -0.4134378,
        0.8341828,
        -0.253223479,
        0.12930125,
        0.853713632,
        -0.358205855,
        0.368477225,
        -0.273349673,
        0.153555319,
        0.7891084,
        0.11348974,
        0.08400984,
        -0.286936879,
        0.168912813,
        -0.521927059,
        -0.331789881,
        0.41787082,
        0.5498899,
        -0.154649064,
        -0.164311528,
        0.407160372,
        0.87886405,
        0.21137394,
        0.301876962,
        0.289622754,
        0.497283667,
        0.102298625,
        -0.977821231,
        -0.290046453,
        -0.358349144,
        -0.04284731,
        -0.19677569,
        -0.371263176,
        -0.262855649,
        -0.336172283,
        -0.1497484,
        -0.823941052,
        -0.0746171,
        0.06167031,
        -0.006312102,
        0.2841725,
        0.670141339,
        -0.6809319,
        -0.764135242,
        -1.277993,
        -0.3711874,
        -0.2771357,
        0.5130423,
        -0.582966,
        0.6059555,
        0.06956128,
        -0.52253443,
        -0.499219149,
        -0.155658022,
        -0.2785821,
        0.9016359,
        -0.6336392,
        0.9055811,
        -0.136982456,
        -1.15767717,
        -0.171911612,
        1.57458925,
        0.188074648,
        0.546667039,
        0.228300765,
        -0.08761255,
        0.0828467757,
        -0.0950073451,
        -0.0477102138,
        -0.472578138,
        0.5325816,
        0.3941076,
        0.328751177,
        0.27596283,
        0.277343482,
        -0.5073558,
        0.06728321,
        0.229979932,
        -0.61421895,
        -0.773730636,
        1.68435073,
        -0.09195727,
        -0.26537928,
        -0.228119165,
        -0.8197702,
        0.389128655,
        -0.559500456,
        0.5965752,
        -0.0129253035,
        -0.08965945,
        -1.03424919,
        -0.4236993,
        -0.9705967,
        -0.5956071,
        -0.436711341,
        -0.129125267,
        -1.27592742,
        -0.338229358,
        0.657255948,
        0.7160074,
        -0.3424664,
        0.178743392,
        1.02088964,
        0.908813,
        0.9241964,
        -0.305269063,
        0.6615321,
        0.0333063677,
        -0.198186249,
        0.01158162,
        0.336016953,
        -0.402102262,
        -1.20684826,
        0.6745692,
        -0.4710478,
        0.469947636,
        0.397383749,
        -0.518552363,
        -0.08298964,
        -0.1855905,
        0.553969741,
        0.7770927,
        0.07389589,
        0.4743585,
        -0.485057235,
        -0.179480046,
        -0.846857667,
        0.7932954,
        0.06840288,
        0.3085447,
        -0.401724279,
        -0.453940421,
        -0.0236688517,
        -0.8004684,
        -0.213099137,
        0.2334495,
        0.4183379,
        1.049999,
        0.482141346,
        0.0536893569,
        0.0617338046,
        -0.08098019,
        0.8927795,
        -0.5656613,
        -0.04328976,
        0.758521855,
        -0.210565433,
        -0.306894869,
        -0.273427725,
        0.157108948,
        0.169384658,
        -0.286282539,
        0.06524999,
        0.0403872021,
        0.5312763,
        0.135298386,
        0.04716701,
        0.31444335,
        -0.88160634,
        -0.201482728,
        -0.76542604,
        0.211058989,
        -0.06477223,
        -0.173967853,
        0.21712327,
        -0.03556957,
        0.3367584,
        0.978820562,
        0.485957384,
        -0.805684566,
        -0.00706332363,
        -0.292222261,
        0.0304700956,
        -0.043067,
        0.3384028,
        0.0131768482,
        0.07484565,
        -0.107477784,
        0.0539676659,
        -0.008483151,
        -0.496279329,
        -0.13527225,
        -0.5901543,
        1.1306,
        0.216732681,
        0.398447663,
        0.07053489,
        -0.438987017,
        0.67363,
        -0.3532771,
        0.8516805,
        -0.168275148,
        0.164131775,
        0.279042631,
        -0.003294295,
        0.1089647,
        -0.682749331,
        0.259680122,
        -0.276201755,
        0.3974593,
        -0.0349103361,
        -0.9593081,
        0.230938226,
        0.230753586,
        -0.09781365,
        0.2597222,
        -0.152420372,
        0.0590415969,
        -0.5931748,
        0.550415158,
        0.220432535,
        -0.289207518,
        0.2445116,
        0.226855919,
        0.6418183,
        -0.479020536,
        -0.7653127,
        0.389344037,
        -0.570897162,
        0.348503232,
        -1.14815986,
        -0.025302941,
        0.497377366,
        -1.00095892,
        -1.21865153,
        0.9997779,
        -0.764992952,
        -0.340418816,
        0.355742544,
        0.09392755,
        0.197312355,
        0.0122793391,
        -0.118694872,
        0.516437232,
        -1.23298347,
        -0.193368658,
        0.201564759,
        0.452007145,
        -0.0509328358,
        -0.157620415,
        -0.744928837,
        0.8082749,
        -0.16546835,
        -0.61476016,
        -0.373565644,
        -0.183888584,
        0.0380378626,
        0.609397054,
        0.2005659,
        0.557047367,
        0.497963578,
        -0.7176473,
        0.134560615,
        0.2817619,
        -0.8521871,
        -0.624667,
        -0.5618118,
        0.6976734,
        -0.500876844,
        -0.335575968,
        0.234939069,
        -0.516266167,
        0.501060247,
        0.09352899,
        0.0147674754,
        0.17431888,
        0.5038853,
        0.374014825,
        -0.562534,
        0.719735146,
        -0.383554339,
        1.57943177,
        -0.20680888,
        -0.5525486,
        0.3137607,
        -0.222871616,
        -1.37225366,
        0.7618956,
        0.6173775,
        0.765026331,
        0.438136369,
        0.451480746,
        -0.6641483,
        -0.288231254,
        -1.6248889,
        0.11289645,
        -0.6044378,
        1.04961264,
        -0.1623067,
        0.07655916,
        0.378115,
        -0.587690651,
        0.0208762717,
        0.308223069,
        -0.3666481,
        -0.3578717,
        0.252487332,
        -0.9480752,
        0.6015197,
        0.03450882,
        -0.719734967,
        0.0477357544,
        0.39064,
        0.3021018,
        -1.50695515,
        0.106320247,
        -0.270150244,
        0.456182837,
        0.9532826,
        -0.0128863035,
        -0.8410172,
        -1.26435554,
        0.3643528,
        0.0612633675,
        0.415636539,
        0.374753743,
        0.6231127,
        -0.645969748,
        0.243728951,
        1.1475662,
        -0.288941741,
        -0.440295,
        0.7307452,
        -1.138942,
        0.116560347,
        0.186749622,
        -0.9449493,
        -0.484379232,
        0.0874667,
        0.3471215,
        0.311306566,
        0.06752808,
        0.4352128,
        0.3538108,
        0.08959092,
        0.460947573,
        -0.794393957,
        0.05025802,
        0.762239337,
        -0.130034655,
        -0.6872159,
        -0.485201716,
        -0.124320224,
        -0.226856172,
        -0.483709663,
        0.329261065,
        -0.506975234,
        -0.0156479347,
        -0.62244153,
        -0.09546135,
        0.323954552,
        1.749069,
        -0.699512064,
        -0.681657135,
        0.2658233,
        0.0622109734,
        -0.244051889,
        -0.07088324,
        0.07681719,
        0.3412697,
        0.209613532,
        0.04241754,
        -0.008864347,
        -0.0472177677,
        -0.2877147,
        -0.109867334,
        -0.691908836,
        0.4212654,
        0.3406532,
        -1.60568583,
        -0.272597134,
        0.118557461,
        0.615339,
        1.279451,
        0.09611679,
        0.6390641,
        0.305008471,
        -0.680125,
        -0.3536188,
