{
  "networks": [
    {
      "layers": [
        18,
        16,
        16,
        2
      ],
      "weightsFlat": [
        0.347138882,
        -0.532008767,
        0.19797188,
        1.03352249,
        0.1471184,
        0.130858988,
        0.17514053,
        0.312030643,
        0.5104386,
        0.447441518,
        -0.6228616,
        -0.169295728,
        0.270241439,
        -1.23950839,
        -0.9007413,
        0.0209573135,
        -0.265454948,
        0.05980608,
        0.3976907,
        0.662347,
        -0.4514727,
        -0.0922554359,
        0.976491749,
        0.09708091,
        -0.0424318761,
        -0.7367754,
        0.1005846,
        0.439469248,
        0.170368329,
        0.300788581,
        -0.7378927,
        0.2715173,
        -0.4134378,
        0.8341828,
        -0.253223479,
        0.12930125,
        0.83792156,
        0.003060899,
        0.3708044,
        -0.273349673,
        0.153555319,
        0.7891084,
        0.677300751,
        0.08400984,
        -0.286936879,
        0.168912813,
        -0.547248542,
        -0.331789881,
        0.41787082,
        0.5498899,
        -0.154649064,
        -0.164311528,
        0.407160372,
        0.87886405,
        0.21137394,
        0.00696204323,
        0.289622754,
        0.497283667,
        0.102298625,
        -1.04489613,
        -0.290046453,
        -0.358349144,
        0.0214208122,
        -0.19677569,
        -0.371263176,
        -0.436698943,
        -0.336172283,
        -0.1497484,
        -0.823941052,
        0.413311571,
        -0.235991254,
        -0.006312102,
        0.2841725,
        0.670141339,
        -0.6809319,
        -0.764135242,
        -1.53198636,
        -0.3711874,
        -0.217313334,
        0.5130423,
        -0.582966,
        0.6059555,
        -0.05850269,
        -0.52253443,
        -0.499219149,
        -0.155658022,
        -0.10829971,
        0.9016359,
        -0.6336392,
        0.64920944,
        0.09198429,
        -1.15767717,
        -0.382738739,
        1.57458925,
        0.188074648,
        0.546667039,
        0.171715721,
        -0.08761255,
        -0.05675361,
        -0.09972256,
        0.0699326247,
        -0.269556463,
        0.5325816,
        0.3941076,
        0.328751177,
        0.27596283,
        0.277343482,
        -0.43080923,
        -0.1502128,
        0.168800637,
        -0.61421895,
        -0.6693896,
        1.68435073,
        -0.357868,
        -0.011216837,
        -0.228119165,
        -0.8197702,
        0.250470549,
        -0.617373168,
        0.111837827,
        -0.0129253035,
        0.136834115,
        -1.03424919,
        -0.383522123,
        -0.9705967,
        -0.5956071,
        -0.436711341,
        -0.129125267,
        -1.27592742,
        -0.273282737,
        0.7907304,
        0.7160074,
        -0.3424664,
        0.178743392,
        1.02088964,
        0.908813,
        1.201436,
        -0.457452774,
        0.6615321,
        0.0333063677,
        -0.198186249,
        0.01158162,
        0.336016953,
        -0.402102262,
        -1.20684826,
        0.6745692,
        -0.7099889,
        0.4549668,
        0.397383749,
        -0.518552363,
        0.08378065,
        -0.1855905,
        0.553969741,
        0.7770927,
        -0.09993353,
        0.4743585,
        -0.249421209,
        -0.179480046,
        -0.846857667,
        0.7932954,
        0.06840288,
        0.3085447,
        -0.401724279,
        -0.453940421,
        -0.0236688517,
        -0.8004684,
        -0.09191734,
        0.283317626,
        0.5047735,
        1.049999,
        0.5624756,
        0.0536893569,
        0.0617338046,
        -0.08098019,
        1.00437272,
        -0.5656613,
        -0.04328976,
        0.758521855,
        -0.210565433,
        -0.306894869,
        -0.273427725,
        0.157108948,
        0.24327077,
        -0.0130159734,
        0.06524999,
        0.0403872021,
        0.5312763,
        0.2799903,
        0.04716701,
        0.31444335,
        -0.88160634,
        -0.201482728,
        -0.7348275,
        0.18306753,
        -0.06477223,
        -0.173967853,
        0.21712327,
        -0.03556957,
        0.3367584,
        0.978820562,
        0.243975043,
        -0.805684566,
        -0.00706332363,
        -0.292222261,
        0.0304700956,
        -0.043067,
        0.4357628,
        0.0131768482,
        -0.08011205,
        0.1403512,
        0.05101783,
        -0.008483151,
        -0.496279329,
        -0.339838445,
        -0.5901543,
        0.9536595,
        0.3876216,
        0.398447663,
        0.07053489,
        -0.5333209,
        0.67363,
        -0.3532771,
        0.8516805,
        0.0571018234,
        0.164131775,
        0.279042631,
        -0.003294295,
        0.1089647,
        -0.682749331,
        0.259680122,
        -0.400686473,
        0.3974593,
        -0.268066853,
        -1.22906959,
        0.230938226,
        0.192763522,
        -0.09781365,
        0.06331918,
        -0.152420372,
        -0.0704889148,
        -0.5931748,
        0.550415158,
        0.220432535,
        -0.289207518,
        -0.0499829277,
        0.317835271,
        0.6418183,
        -0.479020536,
        -0.7653127,
        0.389344037,
        -0.570897162,
        0.339935422,
        -1.28791559,
        -0.025302941,
        0.497377366,
        -1.21995127,
        -1.64451134,
        0.9997779,
        -0.8265544,
        -0.340418816,
        0.06665383,
        0.09392755,
        0.197312355,
        0.0122793391,
        0.109422028,
        0.516437232,
        -1.23298347,
        -0.193368658,
        0.362955064,
        0.180784255,
        -0.0509328358,
        -0.157620415,
        -0.744928837,
        0.8082749,
        -0.04284915,
        -0.7671727,
        -0.373565644,
        -0.0553846,
        0.0380378626,
        0.609397054,
        0.2005659,
        0.557047367,
        0.30569917,
        -0.7176473,
        0.134560615,
        0.2817619,
        -0.8521871,
        -0.624667,
        -0.5618118,
        0.6595013,
        -0.500876844,
        -0.335575968,
        0.234939069,
        -0.516266167,
        0.501060247,
        0.09352899,
        0.0147674754,
        0.17431888,
        0.5038853,
        0.374014825,
        -0.562534,
        0.719735146,
        -0.383554339,
        1.57943177,
        -0.20680888,
        -0.584681034,
        0.3137607,
        -0.230607063,
        -1.37225366,
        0.7618956,
        0.6173775,
        0.754191041,
        0.5090159,
        0.451480746,
        -0.434304357,
        0.00663415529,
        -1.6248889,
        0.11289645,
        -0.6044378,
        0.8702949,
        -0.101005681,
        0.07655916,
        0.378115,
        -0.375885934,
        0.0304237735,
        0.308223069,
        -0.236314327,
        -0.3578717,
        0.252487332,
        -0.9480752,
        0.605189264,
        0.007174847,
        -0.7212599,
        0.0477357544,
        0.640904844,
        0.3021018,
        -1.50695515,
        0.106320247,
        -0.0437747277,
        0.456182837,
        0.9532826,
        -0.2360739,
        -0.8410172,
        -1.26435554,
        0.45992738,
        0.131578058,
        0.415636539,
        0.4299544,
        0.6231127,
        -0.7198066,
        0.189653486,
        1.1475662,
        -0.000517482054,
        -0.440295,
        0.647948265,
        -1.38459516,
        0.116560347,
        -0.117538,
        -0.9449493,
        -0.484379232,
        0.0874667,
        0.5587141,
        0.311306566,
        -0.130271375,
        0.4352128,
        0.3538108,
        0.245801657,
        0.460947573,
        -0.794393957,
        0.05025802,
        0.692285836,
        -0.130034655,
        -0.6872159,
        -0.485201716,
        0.00821871,
        -0.226856172,
        -0.483709663,
        0.266349137,
        -0.506975234,
        -0.0156479347,
        -0.62244153,
        -0.09546135,
        0.323954552,
        1.749069,
        -0.699512064,
        -0.5564191,
        0.2658233,
        0.0622109734,
        -0.244051889,
        -0.07088324,
        0.07681719,
        0.3412697,
        0.209613532,
        0.458810151,
        0.223550916,
        -0.0472177677,
        -0.2877147,
        -0.109867334,
        -0.5284967,
        0.4212654,
        0.431890875,
        -1.60568583,
        -0.272597134,
        0.118557461,
        0.615339,
        1.279451,
        0.0978013054,
        0.6390641,
        0.305008471,
        -0.8170256,
        -0.3536188,
        0.5539686,
        -0.1755334,
        -0.465394437,
        0.594279349,
        0.407584161,
        -0.485683739,
        0.723085463,
        0.3588914,
        0.5837013,
        0.055110082,
        -0.0406452641,
        -0.594569862,
        0.2657469,
        1.15301883,
        -0.0557003878,
        0.124501795,
        0.266429842,
        -0.178524792,
        -0.153381526,
        0.3509497,
        0.369163036,
        0.201403365,
        0.5570827,
        -0.191092074,
        0.0225592963,
        0.374847859,
        0.802634954,
        -0.09072517,
        -0.767183542,
        -0.116128013,
        0.14151594,
        0.494073838,
        -0.404837,
        -0.405783176,
        0.142651409,
        0.448513478,
        -0.6696855,
        0.07632328,
        0.2969856,
        -0.665503263,
        -0.07865029,
        0.45459938,
        -0.41568765,
        0.9285142,
        -0.4606076,
        -0.6203255,
        -0.382224679,
        0.8516373,
        0.11426007,
        0.102603152,
        0.07230668,
        -0.29086253,
        0.611302555,
        -0.378892928,
        -0.5291474,
        0.6538452,
        0.0110612772,
        -0.167226985,
        0.13385728,
        0.008641204,
        0.7869065,
        0.6313284,
        0.083587274,
        1.11157072,
        -0.043881692,
        0.109716587,
        -0.269194961,
        -0.823881447,
        0.186431542,
        0.384892285,
        0.2075382,
        -0.01389624,
        -0.632019639,
        0.411755055,
        -0.882706761,
        -0.159149215,
        0.05776454,
        -0.324183851,
        -0.419927359,
        -0.144477218,
        0.3881768,
        -0.357563645,
        0.156824291,
        0.5015374,
        0.355882853,
        -0.259223878,
        -0.132450059,
        0.4256027,
        0.507925332,
        -0.16548641,
        -0.360066146,
        -0.361987531,
        0.0624699257,
        0.4900601,
        -0.322437882,
        0.501817644,
        1.02007985,
        0.750294745,
        -0.163178369,
        -0.343955934,
        0.08080212,
        0.031871628,
        -0.470144928,
        -0.05869669,
        -0.641093731,
        -0.299131334,
        -0.192668244,
        -0.2936115,
        0.24216646,
        0.482546568,
        0.301535577,
        -0.263130933,
        -0.2424973,
        -0.08628793,
        0.0222251,
        0.357027054,
        -0.0835525244,
        -1.09944642,
        -0.4331629,
        0.06929891,
        -0.331015348,
        0.539099753,
        0.226800218,
        0.248899251,
        0.4307454,
        -0.15265125,
        0.123515964,
        0.460815,
        -1.0125438,
        -0.305262059,
        0.0293718148,
        -0.4038274,
        0.7020581,
        -0.287690848,
        0.175264046,
        0.0927243456,
        -0.430836618,
        0.0296836235,
        -0.0585925579,
        0.6219698,
        -0.1478218,
        0.00213921675,
        -0.6480023,
        -0.22996515,
        0.9975517,
        -0.2872981,
        0.7600272,
        0.376864731,
        -0.51199764,
        -0.811068952,
        -0.248106137,
        -0.7057615,
        0.2795137,
        -0.483078837,
        0.07326951,
        -0.137774125,
        0.110796288,
        0.08442382,
        0.0033883357,
        0.13806057,
        -0.101751938,
        -0.09862677,
        -0.3851356,
        -0.230177745,
        0.596791744
      ],
      "biasesFlat": [
        0.08056258,
        0.186162919,
        -0.3698952,
        0.2800607,
        -0.803747237,
        -0.335361034,
        -0.03780515,
        -0.319922715,
        0.571570933,
        -0.09284163,
        -0.0609424,
        0.5319536,
        -0.2163531,
        -1.6019603,
        0.557021,
        0.518032968,
        -0.107745975,
        0.0378482454,
        -0.188772351,
        -0.249362335,
        0.009791152,
        -0.891538262,
        -0.6943587,
        -0.244239479,
        0.7126021,
        -0.918007553,
        0.334107339,
        -0.267084867,
        -0.213072643,
        0.00337909488,
        -0.957300365,
        -0.498030931,
        -0.1640118,
        0.767826736
      ],
      "weightShapes": [
        [
          16,
          18
        ],
        [
          16,
          16
        ],
        [
          2,
          16
        ]
      ],
      "biasShapes": [
        16,
        16,
        2
      ]
    },
    {
      "layers": [
        18,
        16,
        16,
        2
      ],
      "weightsFlat": [
        0.395183682,
        -0.532008767,
        0.0506769866,
        1.18545878,
        0.233265191,
        0.2595954,
        0.17514053,
        0.201766223,
        0.52072084,
        0.518196046,
        -0.845671833,
        -0.169295728,
        0.219254047,
        -1.0029639,
        -1.15549028,
        -0.2665971,
        -0.437331378,
        0.05980608,
        -0.09930491,
        0.606267631,
        -0.364662141,
        0.0238870885,
        1.049806,
        0.525415,
        0.01683692,
        -0.7207998,
        0.1005846,
        0.439469248,
        0.2974499,
        0.300788581,
        -0.516875148,
        -0.0139546981,
        -0.689827263,
        0.8341828,
        0.171210125,
        0.12930125,
        0.853713632,
        -0.167175964,
        0.12702103,
        0.02316522,
        -0.039912574,
        0.7891084,
        0.474843323,
        0.0310632512,
        -0.286936879,
        0.168912813,
        -0.167083547,
        -0.360869616,
        0.297555566,
        0.7351893,
        -0.154649064,
        -0.164311528,
        0.407160372,
        0.920462251,
        0.261382937,
        0.301876962,
        0.289622754,
        0.34153536,
        0.280241936,
        -0.977821231,
        0.1910107,
        -0.07746207,
        -0.0370962135,
        -0.19677569,
        -0.3698908,
        -0.242175,
        -0.336172283,
        -0.1497484,
        -0.6995385,
        0.147119835,
        0.142848149,
        0.22258848,
        0.2841725,
        0.4158806,
        -0.969128668,
        -0.4940879,
        -1.01727962,
        -0.775175452,
        -0.145734116,
        0.346838117,
        -0.309064984,
        0.6059555,
        0.170167044,
        -0.52253443,
        -0.499219149,
        -0.07390015,
        -0.215289414,
        0.742811441,
        -0.6336392,
        0.7634378,
        -0.136982456,
        -1.15767717,
        -0.8440141,
        1.49663782,
        -0.0645668358,
        0.5061797,
        0.2006785,
        0.1884615,
        0.05636833,
        -0.111620642,
        -0.0477102138,
        -0.139737383,
        0.6990228,
        0.3941076,
        0.328751177,
        0.480057329,
        -0.268911421,
        -0.09354686,
        0.205813691,
        0.229979932,
        -0.61421895,
        -0.773730636,
        1.45760953,
        -0.09195727,
        0.106592968,
        -0.0665125251,
        -0.8197702,
        0.337602943,
        -0.7822525,
        0.6102826,
        -0.5061776,
        -0.08965945,
        -1.3335402,
        -0.6090479,
        -1.1512475,
        -0.8510287,
        -0.2608589,
        -0.5044739,
        -1.198057,
        -0.106058568,
        0.439869225,
        0.7160074,
        -0.0535748973,
        -0.0200246964,
        0.5290519,
        0.857560456,
        0.9241964,
        -0.546812832,
        0.793816447,
        0.0333063677,
        0.09809263,
        0.01158162,
        0.6924746,
        -0.402102262,
        -1.20684826,
        0.455662578,
        -0.7099889,
        0.466631472,
        0.397383749,
        -0.27513212,
        0.08378065,
        0.0109830042,
        0.9100586,
        0.5197398,
        0.07389589,
        0.468908638,
        -0.41991514,
        -0.5318895,
        -0.846857667,
        0.6556412,
        0.06840288,
        0.08737336,
        -0.119450144,
        0.120613351,
        0.242617369,
        -0.7330164,
        0.06442457,
        0.342446864,
        0.409555376,
        1.07542193,
        0.9605893,
        0.0536893569,
        -0.127084166,
        0.218130022,
        0.613405,
        -0.5656613,
        -0.20409669,
        1.08345342,
        -0.3934715,
        -0.0109101953,
        -0.273427725,
        0.3359217,
        0.401203126,
        -0.0510719977,
        -0.07904015,
        -0.114841878,
        0.313279748,
        0.5164798,
        0.04716701,
        0.379319638,
        -1.1337136,
        -0.286201745,
        -0.7348275,
        0.529586554,
        0.12264473,
        -0.1727002,
        0.149990126,
        0.212712,
        0.3367584,
        0.841980457,
        0.177061677,
        -0.7804902,
        -0.00706332363,
        -0.006640472,
        0.0304700956,
        -0.07149553,
        0.0615555272,
        0.198640451,
        0.07484565,
        0.1403512,
        0.1642073,
        -0.206656113,
        -0.30073446,
        -0.4153377,
        -0.5057826,
        1.1306,
        -0.312639743,
        0.398447663,
        -0.122914575,
        -0.326872051,
        0.6638958,
        -0.7452268,
        0.8516805,
        0.0571018234,
        0.2771399,
        -0.00497891242,
        -0.09318548,
        0.1089647,
        -0.418529928,
        0.259680122,
        -0.317114055,
        0.3974593,
        -0.233796179,
        -0.9593081,
        0.230938226,
        -0.0431427322,
        -0.358000249,
        0.1788616,
        -0.152420372,
        0.0590415969,
        -0.802379131,
        0.550415158,
        0.00205376022,
        -0.3827241,
        0.19367981,
        0.226855919,
        0.5052885,
        -0.58521,
        -0.8413544,
        0.394903,
        -0.381320775,
        0.336174637,
        -1.23769891,
        -0.025302941,
        0.497377366,
        -0.9838994,
        -1.44945407,
        0.9997779,
        -0.586258054,
        -0.340418816,
        0.06665383,
        -0.0240358133,
        0.3557541,
        0.448274761,
        -0.24310118,
        0.3108534,
        -1.06620455,
        -0.0871717855,
        0.3776468,
        0.3692556,
        0.18757613,
        -0.157620415,
        -0.779985547,
        0.5981003,
        -0.16546835,
        -0.4107576,
        -0.107916079,
        0.04123116,
        -0.231237262,
        0.609397054,
        0.0547234,
        0.7173153,
        0.144849643,
        -0.7176473,
        0.554413736,
        0.0129000619,
        -0.8521871,
        -0.8839483,
        -0.5618118,
        0.6976734,
        -0.3895228,
        -0.327148438,
        0.105407022,
        -0.516266167,
        0.501060247,
        0.205716729,
        0.0147674754,
        0.2309863,
        -0.126953721,
        0.374014825,
        -0.8198031,
        0.953484833,
        -0.119624719,
        1.5150696,
        -0.202996954,
        -0.769738,
        0.3137607,
        0.020578539,
        -1.37225366,
        1.01183164,
        0.6173775,
        0.5317021,
        0.2079951,
        0.451480746,
        -0.275779843,
        0.00663415529,
        -1.52367818,
        0.11289645,
        -0.6044378,
        0.955609858,
        -0.01435293,
        0.206709817,
        0.378115,
        -0.261120021,
        0.0208762717,
        0.03262347,
        -0.6415735,
        -0.3578717,
        -0.124782115,
        -0.9106512,
        0.478796482,
        -0.402414918,
        -0.5476818,
        0.0477357544,
        0.198296234,
        0.3021018,
        -1.31667721,
        -0.0356758721,
        -0.202589959,
        0.173054665,
        0.9532826,
        -0.0128863035,
        -0.38792187,
        -1.54258418,
        0.483991265,
        -0.132133156,
        0.123010188,
        0.374753743,
        0.4074203,
        -0.8316713,
        0.189653486,
        0.4389804,
        -0.44618547,
        -0.38287577,
        0.7307452,
        -1.3030771,
        0.3352762,
        0.0284067653,
        -0.849838257,
        -0.626869559,
        0.113385707,
        0.541626751,
        0.587944269,
        -0.133894563,
        0.4352128,
        0.5626091,
        0.3968189,
        0.589372039,
        -0.794393957,
        0.0475910529,
        0.581060052,
        0.373910218,
        -0.0009906898,
        -0.196767986,
        -0.08168492,
        -0.476325631,
        -0.5491539,
        0.3481443,
        -0.458789974,
        0.114218846,
        -0.348209441,
        -0.0178793129,
        0.5185956,
        1.50973916,
        -0.487240225,
        -0.318799555,
        -0.135209888,
        -0.188048393,
        -0.4323525,
        -0.260590732,
        0.07681719,
        0.26558426,
        -0.07462533,
        0.472645044,
        0.223550916,
        0.0559447147,
        -0.2877147,
        -0.06745277,
        -0.6407322,
        0.283630669,
        0.09824264,
        -1.42266846,
        -0.487262815,
        0.168959036,
        0.424340278,
        1.10833633,
        0.319374382,
        0.6390641,
        0.07573213,
        -0.8170256,
        -0.3516327,
        0.2675201,
        -0.1755334,
        -0.321125925,
        0.634365261,
        -0.0262013655,
        -0.325567126,
        0.4183445,
        0.226820722,
        0.4755698,
        0.234772265,
        0.0669666,
        -0.7149538,
        0.484415621,
        0.854419,
        -0.0557003878,
        0.159157872,
        0.09456154,
        -0.189669892,
        -0.146572664,
        0.5296712,
        0.492887467,
        0.07265664,
        0.8168109,
        -0.10986793,
        0.120400481,
        0.575226068,
        0.710778654,
        0.0406743474,
        -0.7823997,
        0.0352586061,
        0.14151594,
        0.309844017,
        -0.6485529,
        -0.6755361,
        0.142651409,
        0.7454338,
        -0.6994831,
        0.07632328,
        0.09778763,
        -0.588096261,
        0.286194563,
        1.00201166,
        -0.319984555,
        0.7188481,
        0.07496422,
        -0.389785826,
        -0.382224679,
        0.738787234,
        0.135670051,
        -0.00677242456,
        -0.185250208,
        0.1720279,
        0.502915263,
        -0.194336429,
        -0.5324817,
        0.403771877,
        -0.2805676,
        -0.257859319,
        0.13385728,
        0.008641204,
        0.7083635,
        0.6313284,
        -0.155626372,
        1.27444685,
        0.113345273,
        0.1413375,
        -0.218226671,
        -0.833462834,
        -0.0148078846,
        0.4069934,
        0.2075382,
        0.3357165,
        -0.6151717,
        0.244275123,
        -0.8393507,
        -0.3422531,
        0.144140646,
        -0.4390437,
        -0.419927359,
        -0.2787522,
        0.25486052,
        -0.330022275,
        0.156824291,
        0.380520046,
        0.6107029,
        -0.4467204,
        -0.132450059,
        0.6289294,
        0.7738849,
        0.0164327752,
        -0.360066146,
        -0.5814305,
        0.389725626,
        0.317231059,
        -0.322437882,
        0.501817644,
        1.06021047,
        0.6591003,
        -0.4533085,
        -0.6397263,
        0.471209675,
        0.0356445238,
        0.318455517,
        -0.5624855,
        -0.641093731,
        -0.171775028,
        -0.323071629,
        -0.2936115,
        0.113800265,
        0.5155099,
        0.20718357,
        -0.483055025,
        -0.06959783,
        -0.08628793,
        0.06267691,
        0.290569782,
        -0.202475041,
        -0.821602464,
        -0.4331629,
        0.06929891,
        -0.6027159,
        0.516652,
        0.148805335,
        -0.09058498,
        0.339092016,
        0.088310726,
        0.000134123169,
        0.460815,
        -1.04009867,
        0.424372554,
        0.0293718148,
        -0.490791619,
        0.824808359,
        -0.216547891,
        0.175264046,
        0.199906439,
        -0.430836618,
        0.0296836235,
        -0.0585925579,
        0.6219698,
        -0.254524231,
        0.00213921675,
        -0.8763089,
        0.137554929,
        1.29569721,
        -0.5294245,
        0.5338317,
        0.26708135,
        -0.3790195,
        -0.811068952,
        -0.248106137,
        -0.610961,
        0.2795137,
        -0.6100407,
        0.07326951,
        0.328905642,
        -0.121673279,
        0.410660774,
        0.264463633,
        0.1838964,
        -0.270882368,
        -0.09862677,
        -0.3851356,
        -0.0122482153,
        0.596791744
      ],
      "biasesFlat": [
        0.0331357345,
        0.132129684,
        -0.3698952,
        0.2800607,
        -0.803747237,
        -0.2609391,
        0.365028739,
        -0.192223191,
        0.376592875,
        -0.3235125,
        0.401103258,
        0.402631134,
        -0.2163531,
        -1.54303336,
        0.557021,
        0.4433008,
        -0.107745975,
        0.0378482454,
        -0.0461791828,
        -0.101046,
        -0.482327282,
        -0.80924964,
        -0.210195884,
        -0.393847674,
        0.7126021,
        -0.918007553,
        0.468085527,
        -0.306654125,
        -0.213072643,
        0.00337909488,
        -0.336597443,
        -0.498030931,
        0.0586840846,
        0.767826736
      ],
      "weightShapes": [
        [
          16,
          18
        ],
        [
          16,
          16
        ],
        [
          2,
          16
        ]
      ],
      "biasShapes": [
        16,
        16,
        2
      ]
    },
    {
      "layers": [
        18,
        16,
        16,
        2
      ],
      "weightsFlat": [
        0.347138882,
        -0.334268153,
        0.19797188,
        1.15372694,
        0.1471184,
        0.130858988,
        0.329760224,
        0.312030643,
        0.5104386,
        0.7348181,
        -0.6228616,
        -0.07424207,
        -0.025852561,
        -1.23950839,
        -0.6273386,
        0.0209573135,
        -0.265454948,
        0.05980608,
        0.3976907,
        0.662347,
        -0.4514727,
        -0.0922554359,
        0.976491749,
        0.1868439,
        0.174534976,
        -0.7367754,
        0.09855086,
        0.439469248,
        0.0576724522,
        0.300788581,
        -0.7378927,
        0.2715173,
        -0.4134378,
        0.8341828,
        -0.253223479,
        0.12930125,
        0.83792156,
        0.003060899,
        0.3708044,
        -0.273349673,
        0.153555319,
        0.7891084,
        0.677300751,
        0.06258219,
        -0.276405424,
        0.168912813,
        -0.547248542,
        -0.331789881,
        0.717554867,
        0.5498899,
        -0.154649064,
        -0.164311528,
        0.407160372,
        0.87886405,
        0.21137394,
        0.2079282,
        0.289622754,
        0.486694,
        0.102298625,
        -1.04489613,
        -0.411155134,
        -0.358349144,
        0.0214208122,
        -0.19677569,
        -0.371263176,
        -0.316446841,
        -0.336172283,
        -0.1497484,
        -0.823941052,
        0.413311571,
        -0.235991254,
        0.08957505,
        0.2841725,
        0.670141339,
        -0.6809319,
        -0.764135242,
        -1.53198636,
        -0.3711874,
        -0.217313334,
        0.5130423,
        -0.582966,
        0.6059555,
        -0.05850269,
        -0.52253443,
        -0.499219149,
        -0.155658022,
        -0.10829971,
        0.9016359,
        -0.6336392,
        0.64920944,
        0.09198429,
        -1.15767717,
        -0.382738739,
        1.49977064,
        0.188074648,
        0.345310628,
        0.171715721,
        -0.08761255,
        -0.05675361,
        -0.09972256,
        0.0699326247,
        -0.269556463,
        0.5325816,
        0.3941076,
        0.445884645,
        0.565238,
        0.277343482,
        -0.43080923,
        0.07081163,
        0.168800637,
        -0.61421895,
        -0.8068949,
        1.68435073,
        -0.357868,
        -0.011216837,
        -0.228119165,
        -0.8197702,
        0.250470549,
        -0.617373168,
        -0.113213427,
        -0.0129253035,
        0.136834115,
        -1.25854576,
        -0.383522123,
        -0.9705967,
        -0.5956071,
        -0.31231603,
        -0.129125267,
        -1.27592742,
        -0.273282737,
        0.7907304,
        0.8806586,
        -0.3424664,
        0.178743392,
        1.02088964,
        0.6407829,
        1.201436,
        -0.457452774,
        0.8124287,
        0.0333063677,
        -0.198186249,
        0.01158162,
        0.212117538,
        -0.6398266,
        -1.20684826,
        0.6745692,
        -0.7099889,
        0.4549668,
        0.397383749,
        -0.518552363,
        0.08378065,
        -0.1855905,
        0.553969741,
        0.7770927,
        -0.09993353,
        0.4743585,
        -0.507056355,
        -0.179480046,
        -0.846857667,
        0.7932954,
        0.241378978,
        0.3085447,
        -0.401724279,
        -0.453940421,
        -0.0236688517,
        -0.8004684,
        -0.09191734,
        0.356325954,
        0.5047735,
        1.049999,
        0.5624756,
        0.0536893569,
        0.0617338046,
        -0.08098019,
        0.7629521,
        -0.5656613,
        -0.04328976,
        0.758521855,
        -0.2691777,
        -0.306894869,
        -0.273427725,
        0.157108948,
        0.24327077,
        -0.019095948,
        0.06524999,
        0.0403872021,
        0.5312763,
        0.2799903,
        0.04716701,
        0.275810659,
        -0.88160634,
        -0.201482728,
        -0.9942399,
        0.18306753,
        -0.06477223,
        -0.173967853,
        0.21712327,
        -0.03556957,
        0.3367584,
        0.978820562,
        0.243975043,
        -0.623933256,
        -0.00706332363,
        -0.076408,
        0.0304700956,
        -0.043067,
        0.590942,
        0.0131768482,
        -0.08011205,
        0.1403512,
        0.19565028,
        -0.008483151,
        -0.73407805,
        -0.339838445,
        -0.5901543,
        0.9536595,
        0.3876216,
        0.398447663,
        0.07053489,
        -0.5333209,
        0.67363,
        -0.3532771,
        0.8516805,
        0.0571018234,
        0.164131775,
        0.279042631,
        -0.003294295,
        0.07688814,
        -0.682749331,
        0.258805484,
        -0.400686473,
        0.3974593,
        -0.268066853,
        -1.22906959,
        0.518086135,
        0.192763522,
        -0.09781365,
        0.06331918,
        -0.152420372,
        -0.0704889148,
        -0.3258578,
        0.550415158,
        0.220432535,
        -0.289207518,
        -0.0499829277,
        0.317835271,
        0.3824799,
        -0.479020536,
        -0.7653127,
        0.405800641,
        -0.535637259,
        0.339935422,
        -1.28791559,
        -0.0570390038,
        0.497377366,
        -1.21995127,
        -1.64451134,
        0.9997779,
        -0.8265544,
        -0.340418816,
        0.06665383,
        0.09392755,
        0.197312355,
        0.0122793391,
        0.109422028,
        0.516437232,
        -1.23298347,
        -0.162444681,
        0.362955064,
        -0.004614599,
        -0.0509328358,
        -0.157620415,
        -0.744928837,
        0.8082749,
        -0.04284915,
        -0.7671727,
        -0.373565644,
        -0.128122777,
        0.0380378626,
        0.5031293,
        0.2005659,
        0.557047367,
        0.30569917,
        -0.7176473,
        0.0212873742,
        0.2817619,
        -0.8521871,
        -0.624667,
        -0.7205904,
        0.6595013,
        -0.500876844,
        -0.335575968,
        0.316492677,
        -0.516266167,
        0.501060247,
        0.09352899,
        0.0147674754,
        0.161050543,
        0.5038853,
        0.374014825,
        -0.562534,
        0.719735146,
        -0.383554339,
        1.57943177,
        -0.20680888,
        -0.584681034,
        0.3137607,
        -0.230607063,
        -1.37225366,
        0.7618956,
        0.32477212,
        0.754191041,
        0.5090159,
        0.626723,
        -0.434304357,
        0.00663415529,
        -1.6248889,
        -0.1761642,
        -0.6044378,
        0.708027,
        -0.3555958,
        0.07655916,
        0.403850943,
        -0.375885934,
        0.0304237735,
        0.308223069,
        -0.218644455,
        -0.3578717,
        0.252487332,
        -0.9480752,
        0.8773238,
        0.007174847,
        -0.9015167,
        0.0477357544,
        0.640904844,
        0.3021018,
        -1.50695515,
        0.2809552,
        -0.0437747277,
        0.456182837,
        0.9532826,
        -0.2360739,
        -0.83965075,
        -1.449297,
        0.45992738,
        0.131578058,
        0.415636539,
        0.4299544,
        0.6231127,
        -0.7198066,
        0.137433559,
        1.1475662,
        -0.000517482054,
        -0.440295,
        0.479402483,
        -1.38459516,
        0.116560347,
        -0.117538,
        -0.9449493,
        -0.484379232,
        0.0874667,
        0.5587141,
        0.514414251,
        -0.130271375,
        0.4352128,
        0.3538108,
        0.245801657,
        0.4240447,
        -0.682189763,
        0.05025802,
        0.692285836,
        -0.130034655,
        -0.6872159,
        -0.404059619,
        0.00821871,
        -0.226856172,
        -0.483709663,
        0.200818956,
        -0.506975234,
        -0.0156479347,
        -0.62244153,
        -0.09546135,
        0.323954552,
        1.749069,
        -0.699512064,
        -0.5564191,
        0.2658233,
        0.243347362,
        -0.369599283,
        -0.07088324,
        0.0169481114,
        0.3412697,
        0.209613532,
        0.458810151,
        0.223550916,
        -0.269045234,
        -0.102360681,
        -0.07178951,
        -0.5284967,
        0.4212654,
        0.567377,
        -1.60568583,
        -0.272597134,
        0.118557461,
        0.615339,
        1.16190159,
        0.0978013054,
        0.6390641,
        0.305008471,
        -0.9174278,
        -0.402343363,
        0.5539686,
        -0.1755334,
        -0.465394437,
        0.594279349,
        0.638651967,
        -0.485683739,
        0.723085463,
        0.3588914,
        0.5837013,
        0.055110082,
        -0.0406452641,
        -0.675281465,
        0.2657469,
        1.15301883,
        -0.0557003878,
        0.124501795,
        0.266429842,
        -0.178524792,
        -0.153381526,
        0.3509497,
        0.369163036,
        0.201403365,
        0.5570827,
        -0.191092074,
        0.0225592963,
        0.374847859,
        0.802634954,
        -0.09072517,
        -0.767183542,
        -0.116128013,
        0.14151594,
        0.494073838,
        -0.404837,
        -0.405783176,
        0.142651409,
        0.448513478,
        -0.477181,
        0.07632328,
        0.2969856,
        -0.433861166,
        -0.175899923,
        0.45459938,
        -0.5773363,
        0.9285142,
        -0.628858149,
        -0.6203255,
        -0.382224679,
        0.8516373,
        0.11426007,
        0.102603152,
        0.07230668,
        -0.29086253,
        0.611302555,
        -0.0963290259,
        -0.5291474,
        0.6538452,
        0.0110612772,
        -0.167226985,
        0.13385728,
        0.008641204,
        0.7869065,
        0.6313284,
        0.083587274,
        0.8979133,
        -0.288041025,
        0.109716587,
        -0.269194961,
        -1.08994842,
        0.4434177,
        0.384892285,
        0.2075382,
        0.123943657,
        -0.632019639,
        0.411755055,
        -0.882706761,
        -0.159149215,
        0.23280023,
        -0.324183851,
        -0.327538818,
        -0.144477218,
        0.4311741,
        -0.357563645,
        0.156824291,
        0.5015374,
        0.569381535,
        -0.259223878,
        -0.132450059,
        0.4256027,
        0.507925332,
        -0.45980233,
        -0.360066146,
        -0.361987531,
        -0.1616213,
        0.4900601,
        -0.322437882,
        0.6887605,
        1.02007985,
        0.750294745,
        -0.163178369,
        -0.343955934,
        0.08080212,
        0.031871628,
        -0.470144928,
        -0.05869669,
        -0.6560935,
        -0.299131334,
        -0.192668244,
        -0.2936115,
        0.24216646,
        0.482546568,
        0.301535577,
        -0.263130933,
        -0.349659175,
        -0.265853584,
        0.0222251,
        0.357027054,
        -0.0835525244,
        -1.09944642,
        -0.137919575,
        0.286161751,
        -0.331015348,
        0.539099753,
        0.226800218,
        -0.0506597161,
        0.4307454,
        -0.15265125,
        0.123515964,
        0.232138753,
        -1.0125438,
        -0.305262059,
        0.0293718148,
        -0.184968278,
        0.7020581,
        -0.287690848,
        0.175264046,
        0.0927243456,
        -0.430836618,
        0.0296836235,
        -0.0585925579,
        0.6219698,
        -0.1478218,
        0.00213921675,
        -0.6480023,
        -0.22996515,
        0.9975517,
        -0.2207896,
        0.7600272,
        0.376864731,
        -0.51199764,
        -0.811068952,
        -0.248106137,
        -0.7057615,
        0.2795137,
        -0.483078837,
        0.07326951,
        -0.137774125,
        0.110796288,
        0.08442382,
        0.0033883357,
        0.13806057,
        0.174585819,
        -0.09862677,
        -0.3851356,
        -0.230177745,
        0.596791744
      ],
      "biasesFlat": [
        0.08056258,
        0.186162919,
        -0.3698952,
        0.275097162,
        -0.803747237,
        -0.335361034,
        -0.03780515,
        -0.319922715,
        0.571570933,
        -0.09284163,
        -0.0609424,
        0.5319536,
        -0.2163531,
        -1.6019603,
        0.557021,
        0.518032968,
        -0.1518942,
        0.0378482454,
        -0.188772351,
        -0.249362335,
        0.009791152,
        -0.891538262,
        -0.6943587,
        -0.49244234,
        0.7126021,
        -0.918007553,
        0.334107339,
        -0.267084867,
        -0.213072643,
        0.00337909488,
        -0.973366261,
        -0.498030931,
        -0.1005572,
        0.767826736
      ],
      "weightShapes": [
        [
          16,
          18
        ],
        [
          16,
          16
        ],
        [
          2,
          16
        ]
      ],
      "biasShapes": [
        16,
        16,
        2
      ]
    },
    {
      "layers": [
        18,
        16,
        16,
        2
      ],
      "weightsFlat": [
        0.347138882,
        -0.532008767,
        0.19797188,
        1.03352249,
        0.233265191,
        0.130858988,
        0.17514053,
        0.312030643,
        0.5104386,
        0.447441518,
        -0.6228616,
        -0.169295728,
        0.270241439,
        -1.23950839,
        -0.9007413,
        0.0209573135,
        -0.265454948,
        0.05980608,
        0.3976907,
        0.683029,
        -0.4514727,
        0.08710085,
        0.976491749,
        0.09708091,
        -0.0424318761,
        -0.7367754,
        0.1005846,
        0.439469248,
        0.170368329,
        0.300788581,
        -0.7378927,
        0.2715173,
        -0.4134378,
        0.8341828,
        -0.253223479,
        0.12930125,
        0.853713632,
        -0.167175964,
        0.3708044,
        -0.273349673,
        0.153555319,
        0.7891084,
        0.4037852,
        0.08400984,
        -0.286936879,
        0.168912813,
        -0.521927059,
        -0.331789881,
        0.41787082,
        0.5498899,
        -0.154649064,
        -0.164311528,
        0.407160372,
        0.87886405,
        0.21137394,
        0.301876962,
        0.289622754,
        0.497283667,
        0.102298625,
        -0.977821231,
        -0.290046453,
        -0.358349144,
        -0.04284731,
        -0.19677569,
        -0.371263176,
        -0.262855649,
        -0.336172283,
        -0.1497484,
        -0.823941052,
        -0.0746171,
        0.06167031,
        -0.006312102,
        0.2841725,
        0.670141339,
        -0.6809319,
        -0.764135242,
        -1.277993,
        -0.3711874,
        -0.217313334,
        0.5130423,
        -0.582966,
        0.6059555,
        0.06956128,
        -0.52253443,
        -0.499219149,
        -0.155658022,
        -0.2785821,
        0.9016359,
        -0.6336392,
        0.9055811,
        -0.136982456,
        -1.15767717,
        -0.382738739,
        1.57458925,
        0.188074648,
        0.546667039,
        0.228300765,
        -0.08761255,
        0.0828467757,
        -0.0950073451,
        -0.0477102138,
        -0.269556463,
        0.5325816,
        0.3941076,
        0.328751177,
        0.27596283,
        0.277343482,
        -0.43080923,
        0.06728321,
        0.229979932,
        -0.61421895,
        -0.773730636,
        1.68435073,
        -0.09195727,
        -0.011216837,
        -0.228119165,
        -0.8197702,
        0.250470549,
        -0.559500456,
        0.5965752,
        -0.0129253035,
        -0.08965945,
        -1.03424919,
        -0.383522123,
        -0.9705967,
        -0.5956071,
        -0.436711341,
        -0.129125267,
        -1.27592742,
        -0.07246116,
        0.657255948,
        0.7160074,
        -0.3424664,
        0.178743392,
        1.02088964,
        0.908813,
        0.9241964,
        -0.5023645,
        0.6615321,
        0.0333063677,
        -0.198186249,
        0.01158162,
        0.336016953,
        -0.402102262,
        -1.20684826,
        0.6745692,
        -0.7099889,
        0.469947636,
        0.397383749,
        -0.518552363,
        0.08378065,
        -0.1855905,
        0.553969741,
        0.7770927,
        0.07389589,
        0.4743585,
        -0.485057235,
        -0.179480046,
        -0.846857667,
        0.7932954,
        0.06840288,
        0.3085447,
        -0.401724279,
        -0.453940421,
        -0.0236688517,
        -0.8004684,
        -0.09191734,
        0.2334495,
        0.4183379,
        1.049999,
        0.482141346,
        0.0536893569,
        0.0617338046,
        -0.08098019,
        1.00437272,
        -0.5656613,
        -0.04328976,
        0.758521855,
        -0.210565433,
        -0.306894869,
        -0.273427725,
        0.157108948,
        0.169384658,
        -0.0130159734,
        0.06524999,
        0.0403872021,
        0.5312763,
        0.135298386,
        0.04716701,
        0.31444335,
        -0.88160634,
        -0.201482728,
        -0.7348275,
        0.211058989,
        -0.06477223,
        -0.173967853,
        0.21712327,
        -0.03556957,
        0.3367584,
        0.978820562,
        0.485957384,
        -0.805684566,
        -0.00706332363,
        -0.292222261,
        0.0304700956,
        -0.043067,
        0.3384028,
        0.0131768482,
        0.07484565,
        0.1403512,
        0.0539676659,
        -0.008483151,
        -0.496279329,
        -0.13527225,
        -0.5901543,
        1.1306,
        0.216732681,
        0.398447663,
        0.07053489,
        -0.438987017,
        0.67363,
        -0.3532771,
        0.8516805,
        0.0571018234,
        0.164131775,
        0.279042631,
        -0.003294295,
        0.1089647,
        -0.682749331,
        0.259680122,
        -0.276201755,
        0.3974593,
        -0.268066853,
        -0.9593081,
        0.230938226,
        0.230753586,
        -0.09781365,
        0.2597222,
        -0.152420372,
        0.0590415969,
        -0.5931748,
        0.550415158,
        0.220432535,
        -0.289207518,
        0.07344233,
        0.226855919,
        0.6418183,
        -0.479020536,
        -0.7653127,
        0.389344037,
        -0.570897162,
        0.348503232,
        -1.14815986,
        -0.025302941,
        0.497377366,
        -1.00095892,
        -1.45910478,
        0.9997779,
        -0.764992952,
        -0.340418816,
        0.06665383,
        0.09392755,
        0.197312355,
        0.0122793391,
        -0.118694872,
        0.516437232,
        -1.23298347,
        -0.193368658,
        0.201564759,
        0.180784255,
        -0.0509328358,
        -0.157620415,
        -0.744928837,
        0.8082749,
        -0.16546835,
        -0.61476016,
        -0.373565644,
        -0.183888584,
        0.0380378626,
        0.609397054,
        0.2005659,
        0.557047367,
        0.497963578,
        -0.7176473,
        0.134560615,
        0.2817619,
        -0.8521871,
        -0.624667,
        -0.5618118,
        0.6976734,
        -0.500876844,
        -0.335575968,
        0.234939069,
        -0.516266167,
        0.501060247,
        0.09352899,
        0.0147674754,
        0.17431888,
        0.5038853,
        0.374014825,
        -0.562534,
        0.719735146,
        -0.383554339,
        1.57943177,
        -0.20680888,
        -0.5525486,
        0.3137607,
        -0.230607063,
        -1.37225366,
        0.7618956,
        0.6173775,
        0.765026331,
        0.438136369,
        0.451480746,
        -0.6641483,
        0.00663415529,
        -1.6248889,
        0.11289645,
        -0.6044378,
        0.8702949,
        -0.1623067,
        0.07655916,
        0.378115,
        -0.375885934,
        0.0208762717,
        0.308223069,
        -0.452812821,
        -0.3578717,
        0.252487332,
        -0.9480752,
        0.6015197,
        0.03450882,
        -0.719734967,
        0.0477357544,
        0.4838414,
        0.3021018,
        -1.50695515,
        0.106320247,
        -0.270150244,
        0.456182837,
        0.9532826,
        -0.0128863035,
        -0.8410172,
        -1.26435554,
        0.3643528,
        0.0612633675,
        0.415636539,
        0.374753743,
        0.6231127,
        -0.645969748,
        0.189653486,
        1.1475662,
        -0.288941741,
        -0.440295,
        0.7307452,
        -1.138942,
        0.116560347,
        0.186749622,
        -0.9449493,
        -0.484379232,
        0.0874667,
        0.3471215,
        0.311306566,
        0.06752808,
        0.4352128,
        0.3538108,
        0.245801657,
        0.460947573,
        -0.794393957,
        0.05025802,
        0.5427039,
        -0.130034655,
        -0.6872159,
        -0.485201716,
        0.00821871,
        -0.226856172,
        -0.483709663,
        0.329261065,
        -0.506975234,
        -0.0156479347,
        -0.62244153,
        -0.09546135,
        0.323954552,
        1.749069,
        -0.699512064,
        -0.681657135,
        0.2658233,
        0.0622109734,
        -0.244051889,
        -0.07088324,
        0.07681719,
        0.3412697,
        0.209613532,
        0.274828136,
        0.223550916,
        -0.0472177677,
        -0.2877147,
        -0.109867334,
        -0.5284967,
        0.4212654,
        0.3406532,
        -1.60568583,
        -0.272597134,
        0.118557461,
        0.615339,
        1.279451,
        0.09611679,
        0.6390641,
        0.305008471,
        -0.8170256,
        -0.3536188,
        0.5539686,
        -0.1755334,
        -0.465394437,
        0.7539881,
        0.4894603,
        -0.485683739,
        0.723085463,
        0.3588914,
        0.5837013,
        0.055110082,
        -0.0406452641,
        -0.594569862,
        0.2657469,
        1.15301883,
        -0.0557003878,
        0.124501795,
        0.06991089,
        -0.178524792,
        -0.153381526,
        0.3509497,
        0.369163036,
        0.201403365,
        0.5570827,
        -0.191092074,
        0.0225592963,
        0.374847859,
        0.802634954,
        -0.09072517,
        -0.767183542,
        -0.116128013,
        0.14151594,
        0.494073838,
        -0.404837,
        -0.405783176,
        0.142651409,
        0.448513478,
        -0.6696855,
        0.07632328,
        0.2969856,
        -0.665503263,
        -0.07865029,
        0.7296911,
        -0.575020969,
        0.858035,
        -0.179589063,
        -0.6203255,
        -0.382224679,
        0.8516373,
        0.177831188,
        0.102603152,
        -0.00194178044,
        -0.29086253,
        0.502915263,
        -0.378892928,
        -0.5291474,
        0.6538452,
        0.018075157,
        -0.167226985,
        0.13385728,
        0.008641204,
        0.7869065,
        0.6313284,
        0.083587274,
        1.11157072,
        -0.043881692,
        0.109716587,
        -0.578878,
        -0.5483283,
        0.186431542,
        0.5905764,
        0.2075382,
        -0.01389624,
        -0.632019639,
        0.411755055,
        -0.609559238,
        -0.159149215,
        0.05776454,
        -0.324183851,
        -0.419927359,
        -0.144477218,
        0.3881768,
        -0.411145836,
        0.156824291,
        0.380520046,
        0.355882853,
        -0.374538183,
        -0.132450059,
        0.4256027,
        0.507925332,
        -0.16548641,
        -0.360066146,
        -0.361987531,
        0.0624699257,
        0.4154293,
        -0.322437882,
        0.501817644,
        1.06021047,
        0.6591003,
        -0.163178369,
        -0.343955934,
        0.191160485,
        0.122607008,
        -0.233195692,
        -0.05869669,
        -0.641093731,
        -0.299131334,
        -0.192668244,
        -0.2936115,
        0.24216646,
        0.482546568,
        0.301535577,
        -0.263130933,
        -0.2424973,
        -0.08628793,
        0.288983673,
        0.357027054,
        -0.0835525244,
        -0.821602464,
        -0.4331629,
        0.06929891,
        -0.331015348,
        0.539099753,
        0.226800218,
        0.248899251,
        0.4307454,
        -0.15265125,
        0.123515964,
        0.460815,
        -1.04009867,
        0.198979288,
        0.0293718148,
        -0.4038274,
        0.669195,
        -0.287690848,
        0.175264046,
        0.0927243456,
        -0.430836618,
        0.0296836235,
        -0.0585925579,
        0.6219698,
        -0.1478218,
        0.00213921675,
        -0.6480023,
        -0.22996515,
        0.9975517,
        -0.2872981,
        0.557551563,
        0.376864731,
        -0.51199764,
        -0.811068952,
        -0.248106137,
        -0.610961,
        0.2795137,
        -0.600732267,
        0.07326951,
        -0.137774125,
        0.110796288,
        0.08442382,
        0.0033883357,
        0.13806057,
        -0.101751938,
        -0.09862677,
        -0.3851356,
        0.0493209474,
        0.596791744
      ],
      "biasesFlat": [
        0.0331357345,
        0.186162919,
        -0.3698952,
        0.2800607,
        -0.803747237,
        -0.335361034,
        0.244856149,
        -0.319922715,
        0.571570933,
        -0.253925383,
        -0.0609424,
        0.5319536,
        -0.2163531,
        -1.6019603,
        0.557021,
        0.518032968,
        -0.107745975,
        0.0378482454,
        -0.188772351,
        -0.249362335,
        0.009791152,
        -0.891538262,
        -0.236773834,
        -0.244239479,
        0.7126021,
        -0.918007553,
        0.334107339,
        -0.267084867,
        -0.213072643,
        0.00337909488,
        -0.957300365,
        -0.498030931,
        -0.1640118,
        0.767826736
      ],
      "weightShapes": [
        [
          16,
          18
        ],
        [
          16,
          16
        ],
        [
          2,
          16
        ]
      ],
      "biasShapes": [
        16,
        16,
        2
      ]
    },
    {
      "layers": [
        18,
        16,
        16,
        2
      ],
      "weightsFlat": [
        0.347138882,
        -0.532008767,
        0.19797188,
        1.15372694,
        0.1471184,
        0.130858988,
        0.329760224,
        0.312030643,
        0.5104386,
        0.447441518,
        -0.6228616,
        -0.07424207,
        -0.025852561,
        -1.23950839,
        -0.9007413,
        0.0209573135,
        -0.265454948,
        0.05980608,
        0.3976907,
        0.662347,
        -0.4514727,
        -0.0922554359,
        0.976491749,
        0.09708091,
        -0.0424318761,
        -0.7367754,
        0.1005846,
        0.439469248,
        0.0576724522,
        0.300788581,
        -0.7378927,
        0.2715173,
        -0.4134378,
        0.8341828,
        -0.253223479,
        0.12930125,
        0.83792156,
        0.003060899,
        0.3708044,
        -0.273349673,
        0.153555319,
        0.7891084,
        0.677300751,
        0.06258219,
        -0.286936879,
        0.168912813,
        -0.547248542,
        -0.331789881,
        0.717554867,
        0.5498899,
        -0.154649064,
        -0.164311528,
        0.407160372,
        0.87886405,
        0.21137394,
        0.00696204323,
        0.289622754,
        0.497283667,
        0.102298625,
        -1.04489613,
        -0.290046453,
        -0.358349144,
        0.0214208122,
        -0.19677569,
        -0.371263176,
        -0.316446841,
        -0.336172283,
        -0.1497484,
        -0.823941052,
        0.413311571,
        -0.235991254,
        0.08957505,
        0.2841725,
        0.670141339,
        -0.6809319,
        -0.764135242,
        -1.53198636,
        -0.3711874,
        -0.217313334,
        0.5130423,
        -0.582966,
        0.6059555,
        -0.05850269,
        -0.52253443,
        -0.499219149,
        -0.155658022,
        -0.10829971,
        0.9016359,
        -0.6336392,
        0.64920944,
        0.09198429,
        -1.15767717,
        -0.382738739,
        1.57458925,
        0.188074648,
        0.546667039,
        0.171715721,
        -0.08761255,
        -0.05675361,
        -0.09972256,
        0.0699326247,
        -0.269556463,
        0.5325816,
        0.3941076,
        0.328751177,
        0.27596283,
        0.277343482,
        -0.43080923,
        0.07081163,
        0.168800637,
        -0.61421895,
        -0.5413431,
        1.68435073,
        -0.357868,
        -0.011216837,
        -0.228119165,
        -0.8197702,
        0.250470549,
        -0.617373168,
        0.111837827,
        -0.0129253035,
        0.136834115,
        -1.03424919,
        -0.383522123,
        -0.9705967,
        -0.5956071,
        -0.436711341,
        -0.129125267,
        -1.27592742,
        -0.273282737,
        0.7907304,
        0.8806586,
        -0.3424664,
        0.178743392,
        1.02088964,
        0.6407829,
        1.201436,
        -0.457452774,
        0.8124287,
        0.0333063677,
        -0.198186249,
        0.01158162,
        0.212117538,
        -0.6398266,
        -1.20684826,
        0.6745692,
        -0.7099889,
        0.4549668,
        0.397383749,
        -0.518552363,
        0.08378065,
        -0.1855905,
        0.553969741,
        0.7770927,
        -0.09993353,
        0.4743585,
        -0.249421209,
        -0.179480046,
        -0.846857667,
        0.7932954,
        0.331798226,
        0.3085447,
        -0.401724279,
        -0.453940421,
        -0.0236688517,
        -0.8004684,
        -0.09191734,
        0.283317626,
        0.5047735,
        1.049999,
        0.5624756,
        0.0536893569,
        0.0617338046,
        -0.08098019,
        1.00437272,
        -0.5656613,
        -0.04328976,
        0.758521855,
        -0.2691777,
        -0.306894869,
        -0.273427725,
        0.157108948,
        0.24327077,
        -0.019095948,
        0.06524999,
        0.0403872021,
        0.5312763,
        0.2799903,
        0.04716701,
        0.31444335,
        -0.88160634,
        -0.201482728,
        -0.9942399,
        0.18306753,
        -0.06477223,
        -0.173967853,
        0.21712327,
        -0.03556957,
        0.3367584,
        0.978820562,
        0.243975043,
        -0.805684566,
        -0.00706332363,
        -0.076408,
        0.0304700956,
        -0.043067,
        0.590942,
        0.0131768482,
        -0.08011205,
        0.1403512,
        0.19565028,
        -0.008483151,
        -0.496279329,
        -0.339838445,
        -0.5901543,
        0.9536595,
        0.3876216,
        0.398447663,
        0.07053489,
        -0.5333209,
        0.67363,
        -0.3532771,
        0.8516805,
        0.0571018234,
        0.164131775,
        0.279042631,
        -0.003294295,
        0.07688814,
        -0.682749331,
        0.259680122,
        -0.400686473,
        0.3974593,
        -0.268066853,
        -1.22906959,
        0.230938226,
        0.192763522,
        -0.09781365,
        0.06331918,
        -0.152420372,
        -0.0704889148,
        -0.3258578,
        0.550415158,
        0.220432535,
        -0.289207518,
        -0.0499829277,
        0.317835271,
        0.3824799,
        -0.479020536,
        -0.7653127,
        0.389344037,
        -0.570897162,
        0.339935422,
        -1.28791559,
        -0.0570390038,
        0.497377366,
        -1.21995127,
        -1.64451134,
        0.9997779,
        -0.8265544,
        -0.340418816,
        0.06665383,
        0.09392755,
        0.197312355,
        0.0122793391,
        0.109422028,
        0.516437232,
        -1.23298347,
        -0.162444681,
        0.362955064,
        0.180784255,
        -0.0509328358,
        -0.157620415,
        -0.744928837,
        0.8082749,
        -0.04284915,
        -0.7671727,
        -0.373565644,
        -0.128122777,
        0.0380378626,
        0.5031293,
        0.2005659,
        0.557047367,
        0.30569917,
        -0.7176473,
        0.134560615,
        0.2817619,
        -0.8521871,
        -0.624667,
        -0.5618118,
        0.6595013,
        -0.500876844,
        -0.335575968,
        0.234939069,
        -0.516266167,
        0.501060247,
        0.09352899,
        0.0147674754,
        0.17431888,
        0.5038853,
        0.374014825,
        -0.562534,
        0.719735146,
        -0.383554339,
        1.57943177,
        -0.20680888,
        -0.584681034,
        0.3137607,
        -0.230607063,
        -1.37225366,
        0.7618956,
        0.32477212,
        0.754191041,
        0.5090159,
        0.451480746,
        -0.434304357,
        0.00663415529,
        -1.6248889,
        0.11289645,
        -0.6044378,
        0.708027,
        -0.101005681,
        0.07655916,
        0.403850943,
        -0.375885934,
        0.0304237735,
        0.308223069,
        -0.236314327,
        -0.3578717,
        0.252487332,
        -0.9480752,
        0.605189264,
        0.007174847,
        -0.9015167,
        0.0477357544,
        0.640904844,
        0.3021018,
        -1.50695515,
        0.2809552,
        -0.0437747277,
        0.456182837,
        0.9532826,
        -0.2360739,
        -0.83965075,
        -1.449297,
        0.45992738,
        0.131578058,
        0.415636539,
        0.4299544,
        0.6231127,
        -0.7198066,
        0.137433559,
        1.1475662,
        -0.000517482054,
        -0.440295,
        0.647948265,
        -1.38459516,
        0.116560347,
        -0.117538,
        -0.9449493,
        -0.484379232,
        0.0874667,
        0.5587141,
        0.311306566,
        -0.130271375,
        0.4352128,
        0.3538108,
        0.245801657,
        0.4240447,
        -0.794393957,
        0.05025802,
        0.692285836,
        -0.130034655,
        -0.6872159,
        -0.404059619,
        0.00821871,
        -0.226856172,
        -0.483709663,
        0.150142848,
        -0.506975234,
        -0.0156479347,
        -0.62244153,
        -0.09546135,
        0.323954552,
        1.749069,
        -0.699512064,
        -0.5564191,
        0.2658233,
        0.0622109734,
        -0.196928084,
        -0.07088324,
        0.07681719,
        0.3412697,
        0.209613532,
        0.458810151,
        0.223550916,
        -0.269045234,
        -0.2877147,
        -0.109867334,
        -0.5284967,
        0.4212654,
        0.567377,
        -1.60568583,
        -0.272597134,
        0.118557461,
        0.615339,
        1.16190159,
        0.0978013054,
        0.6390641,
        0.305008471,
        -0.9174278,
        -0.3536188,
        0.5539686,
        -0.1755334,
        -0.465394437,
        0.594279349,
        0.407584161,
        -0.485683739,
        0.723085463,
        0.3588914,
        0.5837013,
        0.055110082,
        -0.0406452641,
        -0.675281465,
        0.2657469,
        1.15301883,
        -0.0557003878,
        0.124501795,
        0.266429842,
        -0.178524792,
        -0.153381526,
        0.3509497,
        0.369163036,
        0.201403365,
        0.5570827,
        -0.191092074,
        0.0225592963,
        0.374847859,
        0.802634954,
        -0.09072517,
        -0.767183542,
        -0.116128013,
        0.14151594,
        0.494073838,
        -0.404837,
        -0.405783176,
        0.142651409,
        0.448513478,
        -0.477181,
        0.07632328,
        0.2969856,
        -0.665503263,
        -0.175899923,
        0.45459938,
        -0.590576947,
        0.9285142,
        -0.628858149,
        -0.6203255,
        -0.382224679,
        0.8516373,
        0.11426007,
        0.102603152,
        0.07230668,
        -0.29086253,
        0.611302555,
        -0.378892928,
        -0.5291474,
        0.6538452,
        0.0110612772,
        -0.167226985,
        0.13385728,
        0.008641204,
        0.7869065,
        0.6313284,
        0.083587274,
        1.11157072,
        -0.288041025,
        0.109716587,
        -0.269194961,
        -1.08994842,
        0.4434177,
        0.384892285,
        0.2075382,
        0.123943657,
        -0.632019639,
        0.411755055,
        -0.882706761,
        -0.159149215,
        0.05776454,
        -0.324183851,
        -0.419927359,
        -0.144477218,
        0.4311741,
        -0.357563645,
        0.156824291,
        0.5015374,
        0.569381535,
        -0.259223878,
        -0.132450059,
        0.4256027,
        0.507925332,
        -0.16548641,
        -0.360066146,
        -0.361987531,
        -0.1616213,
        0.4900601,
        -0.322437882,
        0.6887605,
        1.02007985,
        0.750294745,
        -0.163178369,
        -0.343955934,
        0.08080212,
        0.031871628,
        -0.470144928,
        -0.05869669,
        -0.6560935,
        -0.299131334,
        -0.192668244,
        -0.2936115,
        0.24216646,
        0.482546568,
        0.301535577,
        -0.263130933,
        -0.349659175,
        -0.265853584,
        0.0222251,
        0.357027054,
        -0.0835525244,
        -1.09944642,
        -0.4331629,
        0.06929891,
        -0.331015348,
        0.539099753,
        0.226800218,
        -0.0506597161,
        0.4307454,
        -0.15265125,
        0.123515964,
        0.460815,
        -1.0125438,
        -0.305262059,
        0.0293718148,
        -0.4038274,
        0.7020581,
        -0.287690848,
        0.175264046,
        0.0927243456,
        -0.430836618,
        0.0296836235,
        -0.0585925579,
        0.6219698,
        -0.1478218,
        0.00213921675,
        -0.6480023,
        -0.22996515,
        0.9975517,
        -0.2207896,
        0.7600272,
        0.376864731,
        -0.51199764,
        -0.811068952,
        -0.248106137,
        -0.7057615,
        0.2795137,
        -0.483078837,
        0.07326951,
        -0.137774125,
        0.110796288,
        0.08442382,
        0.0033883357,
        0.13806057,
        -0.101751938,
        -0.09862677,
        -0.3851356,
        -0.230177745,
        0.596791744
      ],
      "biasesFlat": [
        0.08056258,
        0.186162919,
        -0.3698952,
        0.2800607,
        -0.803747237,
        -0.335361034,
        -0.03780515,
        -0.319922715,
        0.571570933,
        -0.09284163,
        -0.0609424,
        0.5319536,
        -0.2163531,
        -1.6019603,
        0.557021,
        0.518032968,
        -0.107745975,
        0.0378482454,
        -0.188772351,
        -0.249362335,
        0.009791152,
        -0.891538262,
        -0.6943587,
        -0.244239479,
        0.7126021,
        -0.918007553,
        0.334107339,
        -0.267084867,
        -0.213072643,
        0.00337909488,
        -0.957300365,
        -0.498030931,
        -0.1005572,
        0.767826736
      ],
      "weightShapes": [
        [
          16,
          18
        ],
        [
          16,
          16
        ],
        [
          2,
          16
        ]
      ],
      "biasShapes": [
        16,
        16,
        2
      ]
    },
    {
      "layers": [
        18,
        16,
        16,
        2
      ],
      "weightsFlat": [
        0.347138882,
        -0.532008767,
        0.19797188,
        1.03352249,
        0.1471184,
        0.106939025,
        0.17514053,
        0.312030643,
        0.5104386,
        0.447441518,
        -0.6228616,
        -0.169295728,
        0.270241439,
        -1.23950839,
        -0.9007413,
        0.0209573135,
        -0.265454948,
        0.05980608,
        0.3976907,
        0.662347,
        -0.4514727,
        -0.0922554359,
        0.976491749,
        0.09708091,
        -0.0424318761,
        -0.7367754,
        0.1005846,
        0.439469248,
        0.170368329,
        0.300788581,
        -0.7378927,
        0.2715173,
        -0.4134378,
        0.8341828,
        -0.253223479,
        0.12930125,
        0.83792156,
        0.003060899,
        0.3708044,
        -0.273349673,
        0.153555319,
        0.7891084,
        0.677300751,
        0.0146355433,
        -0.286936879,
        0.168912813,
        -0.547248542,
        -0.331789881,
        0.41787082,
        0.5498899,
        -0.154649064,
        -0.403417349,
        0.407160372,
        0.87886405,
        0.21137394,
        0.00696204323,
        0.289622754,
        0.497283667,
        0.102298625,
        -1.04489613,
        -0.290046453,
        -0.358349144,
        -0.152221754,
        -0.122112967,
        -0.371263176,
        -0.436698943,
        -0.336172283,
        -0.1497484,
        -0.823941052,
        0.413311571,
        -0.235991254,
        0.06725949,
        0.2841725,
        0.670141339,
        -0.6809319,
        -0.764135242,
        -1.53198636,
        -0.3711874,
        -0.217313334,
        0.5130423,
        -0.582966,
        0.6059555,
        -0.05850269,
        -0.517981768,
        -0.499219149,
        -0.155658022,
        -0.10829971,
        0.9016359,
        -0.6336392,
        0.64920944,
        0.09198429,
        -1.15767717,
        -0.382738739,
        1.57458925,
        0.06567925,
        0.546667039,
        0.171715721,
        -0.08761255,
        -0.05675361,
        -0.09972256,
        0.0699326247,
        -0.269556463,
        0.5325816,
        0.3941076,
        0.328751177,
        0.27596283,
        0.277343482,
        -0.43080923,
        -0.1502128,
        0.168800637,
        -0.61421895,
        -0.6693896,
        1.68435073,
        -0.501277745,
        -0.011216837,
        -0.228119165,
        -0.8197702,
        0.250470549,
        -0.617373168,
        0.111837827,
        -0.0129253035,
        0.126345322,
        -1.03424919,
        -0.383522123,
        -0.9705967,
        -0.5956071,
        -0.436711341,
        -0.129125267,
        -1.27592742,
        -0.273282737,
        0.7907304,
        0.5985317,
        -0.3424664,
        0.178743392,
        1.02088964,
        0.908813,
        1.201436,
        -0.457452774,
        0.6615321,
        0.0013775113,
        -0.198186249,
        0.01158162,
        0.336016953,
        -0.402102262,
        -1.20684826,
        0.6745692,
        -0.7099889,
        0.4549668,
        0.397383749,
        -0.518552363,
        -0.166238576,
        0.06761987,
        0.5968365,
        0.7770927,
        -0.09993353,
        0.5753006,
        -0.249421209,
        -0.179480046,
        -0.846857667,
        0.7932954,
        0.06840288,
        0.3085447,
        -0.401724279,
        -0.453940421,
        -0.0236688517,
        -0.8004684,
        -0.361895859,
        0.283317626,
        0.5047735,
        1.16945076,
        0.5624756,
        0.0536893569,
        0.0617338046,
        -0.08098019,
        1.00437272,
        -0.5656613,
        -0.04328976,
        0.758521855,
        -0.210565433,
        -0.306894869,
        -0.273427725,
        0.157108948,
        0.24327077,
        0.002713253,
        0.06524999,
        0.0403872021,
        0.5312763,
        0.2799903,
        0.04716701,
        0.31444335,
        -0.88160634,
        -0.201482728,
        -0.7348275,
        0.18306753,
        -0.000664793362,
        -0.0415984727,
        0.109108917,
        -0.03556957,
        0.3367584,
        0.978820562,
        0.243975043,
        -0.805684566,
        -0.00706332363,
        -0.292222261,
        0.0304700956,
        -0.043067,
        0.4357628,
        0.0131768482,
        -0.08011205,
        0.1403512,
        -0.130082339,
        -0.008483151,
        -0.496279329,
        -0.339838445,
        -0.5901543,
        0.9536595,
        0.3876216,
        0.398447663,
        0.07053489,
        -0.5333209,
        0.67363,
        -0.3532771,
        0.8516805,
        0.0571018234,
        0.164131775,
        0.279042631,
        -0.003294295,
        0.1089647,
        -0.682749331,
        0.259680122,
        -0.400686473,
        0.3974593,
        -0.268066853,
        -1.22906959,
        0.230938226,
        0.192763522,
        -0.09781365,
        0.0819274262,
        -0.152420372,
        -0.0704889148,
        -0.5931748,
        0.550415158,
        0.220432535,
        -0.289207518,
        -0.0499829277,
        0.317835271,
        0.6418183,
        -0.479020536,
        -0.7653127,
        0.389344037,
        -0.2973353,
        0.339935422,
        -1.28791559,
        -0.025302941,
        0.497377366,
        -0.965905845,
        -1.64451134,
        0.9997779,
        -0.8265544,
        -0.340418816,
        0.06665383,
        0.09392755,
        0.197312355,
        0.0122793391,
        0.109422028,
        0.516437232,
        -1.23298347,
        -0.193368658,
        0.362955064,
        0.180784255,
        -0.0509328358,
        -0.157620415,
        -0.744928837,
        0.7256497,
        0.02319764,
        -0.7671727,
        -0.373565644,
        -0.0553846,
        0.0380378626,
        0.360297471,
        0.2005659,
        0.557047367,
        0.30569917,
        -0.7176473,
        0.134560615,
        0.2817619,
        -0.8521871,
        -0.624667,
        -0.5618118,
        0.6432713,
        -0.500876844,
        -0.335575968,
        0.234939069,
        -0.516266167,
        0.501060247,
        0.09352899,
        0.0147674754,
        0.17431888,
        0.5038853,
        0.374014825,
        -0.562534,
        0.719735146,
        -0.383554339,
        1.57943177,
        -0.20680888,
        -0.696682453,
        0.3137607,
        -0.230607063,
        -1.37225366,
        0.7618956,
        0.6173775,
        0.754191041,
        0.5090159,
        0.451480746,
        -0.434304357,
        0.00663415529,
        -1.9119159,
        0.11289645,
        -0.6044378,
        0.8702949,
        -0.101005681,
        0.07655916,
        0.378115,
        -0.375885934,
        0.0304237735,
        0.308223069,
        -0.236314327,
        -0.17477,
        0.237898529,
        -0.9480752,
        0.605189264,
        -0.2668741,
        -0.7212599,
        0.0477357544,
        0.640904844,
        0.3021018,
        -1.53958106,
        0.106320247,
        -0.0437747277,
        0.456182837,
        0.9532826,
        -0.2360739,
        -0.8410172,
        -1.26435554,
        0.45992738,
        0.131578058,
        0.415636539,
        0.4299544,
        0.6231127,
        -0.7198066,
        0.189653486,
        1.1475662,
        -0.000517482054,
        -0.440295,
        0.647948265,
        -1.38459516,
        0.116560347,
        -0.117538,
        -0.9449493,
        -0.484379232,
        0.0874667,
        0.5587141,
        0.311306566,
        -0.130271375,
        0.505719543,
        0.3538108,
        0.245801657,
        0.460947573,
        -0.794393957,
        0.05025802,
        0.692285836,
        -0.130034655,
        -0.6872159,
        -0.485201716,
        0.00821871,
        -0.226856172,
        -0.483709663,
        0.266349137,
        -0.506975234,
        -0.0156479347,
        -0.62244153,
        -0.09546135,
        0.582504,
        1.749069,
        -0.699512064,
        -0.5564191,
        0.2658233,
        0.0622109734,
        -0.244051889,
        -0.179088682,
        0.07681719,
        0.3412697,
        0.209613532,
        0.458810151,
        0.223550916,
        -0.0472177677,
        -0.2877147,
        -0.109867334,
        -0.236694753,
        0.4212654,
        0.431890875,
        -1.60568583,
        -0.272597134,
        0.118557461,
        0.615339,
        1.279451,
        0.0978013054,
        0.8694012,
        0.305008471,
        -0.8170256,
        -0.584190547,
        0.5539686,
        -0.1755334,
        -0.465394437,
        0.594279349,
        0.407584161,
        -0.485683739,
        0.7299371,
        0.3588914,
        0.5837013,
        0.055110082,
        -0.0406452641,
        -0.594569862,
        0.2657469,
        1.15301883,
        -0.0557003878,
        0.124501795,
        0.266429842,
        -0.178524792,
        -0.153381526,
        0.5500828,
        0.369163036,
        0.201403365,
        0.5570827,
        -0.191092074,
        0.0225592963,
        0.374847859,
        0.802634954,
        -0.09072517,
        -0.767183542,
        -0.116128013,
        0.14151594,
        0.494073838,
        -0.404837,
        -0.405783176,
        0.142651409,
        0.448513478,
        -0.6696855,
        0.07632328,
        0.2969856,
        -0.665503263,
        -0.07865029,
        0.45459938,
        -0.41568765,
        0.9285142,
        -0.25752607,
        -0.6203255,
        -0.382224679,
        0.8516373,
        0.3979132,
        0.102603152,
        -0.0318912268,
        -0.29086253,
        0.8605152,
        -0.378892928,
        -0.5291474,
        0.6538452,
        0.0110612772,
        -0.167226985,
        0.13385728,
        -0.0193307661,
        0.7869065,
        0.8328514,
        0.083587274,
        1.11157072,
        -0.043881692,
        0.109716587,
        -0.269194961,
        -0.823881447,
        0.186431542,
        0.384892285,
        0.2075382,
        -0.01389624,
        -0.632019639,
        0.2719869,
        -0.626264334,
        -0.159149215,
        0.05776454,
        -0.324183851,
        -0.419927359,
        -0.0691954643,
        0.3881768,
        -0.357563645,
        0.156824291,
        0.5015374,
        0.355882853,
        -0.259223878,
        -0.132450059,
        0.4256027,
        0.507925332,
        -0.16548641,
        -0.169027731,
        -0.361987531,
        0.0624699257,
        0.4900601,
        -0.322437882,
        0.501817644,
        1.02007985,
        0.750294745,
        -0.163178369,
        -0.343955934,
        0.08080212,
        0.031871628,
        -0.470144928,
        -0.05869669,
        -0.641093731,
        -0.299131334,
        -0.192668244,
        -0.2936115,
        0.24216646,
        0.482546568,
        0.301535577,
        -0.263130933,
        -0.2424973,
        -0.08628793,
        0.0792054459,
        0.357027054,
        -0.0835525244,
        -1.09944642,
        -0.4331629,
        0.06929891,
        -0.331015348,
        0.539099753,
        0.0461320654,
        0.248899251,
        0.4307454,
        -0.15265125,
        0.0570068248,
        0.460815,
        -1.11580455,
        -0.355123937,
        0.0293718148,
        -0.4038274,
        0.7020581,
        -0.287690848,
        0.175264046,
        0.0927243456,
        -0.41907227,
        -0.06714487,
        -0.0585925579,
        0.6219698,
        -0.1478218,
        0.00213921675,
        -0.6480023,
        -0.22996515,
        1.19773388,
        -0.2872981,
        0.6664651,
        0.376864731,
        -0.51199764,
        -0.811068952,
        -0.248106137,
        -0.7057615,
        0.2795137,
        -0.6639215,
        0.07326951,
        -0.137774125,
        0.110796288,
        0.08442382,
        0.0033883357,
        0.13806057,
        -0.101751938,
        -0.09862677,
        -0.3851356,
        -0.230177745,
        0.596791744
      ],
      "biasesFlat": [
        0.08056258,
        0.06791229,
        -0.3698952,
        0.0124680232,
        -0.750100255,
        -0.335361034,
        -0.03780515,
        -0.319922715,
        0.571570933,
        -0.09284163,
        0.157002062,
        0.5319536,
        -0.2163531,
        -1.6019603,
        0.557021,
        0.518032968,
        -0.107745975,
        0.0378482454,
        -0.188772351,
        -0.249362335,
        0.009791152,
        -0.891538262,
        -0.6943587,
        -0.244239479,
        0.7126021,
        -0.918007553,
        0.334107339,
        -0.520862,
        -0.213072643,
        0.00337909488,
        -0.957300365,
        -0.498030931,
        -0.190589756,
        0.767826736
      ],
      "weightShapes": [
        [
          16,
          18
        ],
        [
          16,
          16
        ],
        [
          2,
          16
        ]
      ],
      "biasShapes": [
        16,
        16,
        2
      ]
    },
    {
      "layers": [
        18,
        16,
        16,
        2
      ],
      "weightsFlat": [
        0.395183682,
        -0.532008767,
        0.0506769866,
        1.10259,
        0.233265191,
        0.2595954,
        0.17514053,
        0.201766223,
        0.52072084,
        0.518196046,
        -0.845671833,
        -0.169295728,
        0.219254047,
        -0.9444271,
        -1.15549028,
        -0.2665971,
        -0.437331378,
        -0.153275967,
        -0.09930491,
        0.606267631,
        -0.364662141,
        0.0238870885,
        1.049806,
        0.525415,
        0.01683692,
        -0.7207998,
        0.24972862,
        0.439469248,
        0.2974499,
        0.300788581,
        -0.516875148,
        -0.0139546981,
        -0.9399073,
        0.8341828,
        0.171210125,
        -0.1293486,
        0.853713632,
        -0.167175964,
        0.12702103,
        0.02316522,
        -0.0514256544,
        0.7891084,
        0.474843323,
        0.0310632512,
        -0.286936879,
        0.168912813,
        -0.167083547,
        -0.360869616,
        0.297555566,
        0.7351893,
        0.0176144578,
        -0.164311528,
        0.407160372,
        0.920462251,
        0.261382937,
        0.301876962,
        0.289622754,
        0.34153536,
        0.280241936,
        -0.977821231,
        0.1910107,
        -0.07746207,
        -0.0370962135,
        -0.19677569,
        -0.470373,
        -0.242175,
        -0.5577555,
        -0.1497484,
        -0.6995385,
        0.147119835,
        0.142848149,
        0.22258848,
        0.2841725,
        0.367513418,
        -0.969128668,
        -0.4940879,
        -0.7673742,
        -0.775175452,
        -0.145734116,
        0.224494576,
        -0.5639841,
        0.6059555,
        0.170167044,
        -0.52253443,
        -0.499219149,
        -0.07390015,
        -0.215289414,
        0.742811441,
        -0.6336392,
        0.7634378,
        -0.335647732,
        -1.15767717,
        -0.6238534,
        1.49663782,
        -0.0645668358,
        0.5061797,
        0.282466024,
        0.1884615,
        0.05636833,
        -0.111620642,
        -0.0477102138,
        -0.139737383,
        0.6990228,
        0.3941076,
        0.328751177,
        0.480057329,
        -0.268911421,
        -0.09354686,
        0.205813691,
        0.229979932,
        -0.7597821,
        -0.5663366,
        1.45760953,
        -0.09195727,
        0.106592968,
        -0.0665125251,
        -0.7781527,
        0.337602943,
        -0.7822525,
        0.6102826,
        -0.5061776,
        -0.08965945,
        -1.3335402,
        -0.6090479,
        -1.1512475,
        -0.8510287,
        -0.2608589,
        -0.5044739,
        -1.198057,
        -0.106058568,
        0.439869225,
        0.7160074,
        0.0467095561,
        -0.134755075,
        0.5290519,
        0.857560456,
        0.9241964,
        -0.546812832,
        0.710831642,
        0.0333063677,
        0.09809263,
        0.01158162,
        0.528016746,
        -0.402102262,
        -1.20684826,
        0.455662578,
        -0.7099889,
        0.466631472,
        0.397383749,
        -0.27513212,
        0.08378065,
        0.0109830042,
        0.9100586,
        0.5197398,
        0.07389589,
        0.468908638,
        -0.41991514,
        -0.5318895,
        -0.846857667,
        0.6556412,
        0.06840288,
        0.08737336,
        -0.119450144,
        0.120613351,
        0.242617369,
        -0.7330164,
        0.06442457,
        0.342446864,
        0.409555376,
        1.07542193,
        0.9605893,
        0.0536893569,
        -0.127084166,
        0.218130022,
        0.613405,
        -0.5579159,
        -0.20409669,
        1.08345342,
        -0.14736639,
        -0.0109101953,
        -0.273427725,
        0.3359217,
        0.401203126,
        -0.0510719977,
        -0.07904015,
        -0.114841878,
        0.313279748,
        0.5164798,
        0.04716701,
        0.379319638,
        -1.1337136,
        -0.286201745,
        -0.7348275,
        0.529586554,
        0.12264473,
        -0.1727002,
        0.149990126,
        -0.02789451,
        0.3367584,
        0.841980457,
        0.177061677,
        -0.7804902,
        -0.00706332363,
        -0.006640472,
        0.0304700956,
        -0.07149553,
        0.0615555272,
        0.198640451,
        0.07484565,
        0.1403512,
        0.1642073,
        -0.206656113,
        -0.30073446,
        -0.4153377,
        -0.5057826,
        1.1306,
        -0.312639743,
        0.4130729,
        -0.122914575,
        -0.326872051,
        0.6638958,
        -0.7452268,
        0.8516805,
        0.0571018234,
        0.2771399,
        -0.00497891242,
        -0.09318548,
        0.1089647,
        -0.418529928,
        0.259680122,
        -0.317114055,
        0.3974593,
        -0.233796179,
        -0.9593081,
        0.2287795,
        -0.0431427322,
        -0.118374869,
        0.1788616,
        -0.152420372,
        0.0590415969,
        -0.802379131,
        0.550415158,
        0.00205376022,
        -0.3827241,
        0.19367981,
        0.226855919,
        0.5052885,
        -0.58521,
        -0.8413544,
        0.394903,
        -0.381320775,
        0.336174637,
        -1.23769891,
        -0.025302941,
        0.497377366,
        -0.9838994,
        -1.44945407,
        0.9997779,
        -0.586258054,
        -0.556883454,
        0.06665383,
        -0.0240358133,
        0.3557541,
        0.448274761,
        -0.08782472,
        0.3108534,
        -1.06620455,
        -0.012171912,
        0.3776468,
        0.3692556,
        0.18757613,
        -0.157620415,
        -0.779985547,
        0.5981003,
        -0.16546835,
        -0.4107576,
        -0.107916079,
        0.04123116,
        -0.231237262,
        0.609397054,
        0.0547234,
        0.7173153,
        0.144849643,
        -0.7176473,
        0.554413736,
        0.0129000619,
        -0.8521871,
        -0.8839483,
        -0.5618118,
        0.6976734,
        -0.3895228,
        -0.327148438,
        0.105407022,
        -0.516266167,
        0.501060247,
        0.205716729,
        0.0147674754,
        0.2309863,
        -0.126953721,
        0.374014825,
        -0.8198031,
        0.953484833,
        -0.119624719,
        1.5150696,
        -0.202996954,
        -0.769738,
        0.3137607,
        0.020578539,
        -1.37225366,
        1.01183164,
        0.6173775,
        0.5317021,
        0.2079951,
        0.451480746,
        -0.275779843,
        0.00663415529,
        -1.52367818,
        0.11289645,
        -0.6044378,
        0.955609858,
        -0.01435293,
        0.206709817,
        0.152199432,
        -0.261120021,
        0.0208762717,
        0.03262347,
        -0.6415735,
        -0.630591035,
        -0.124782115,
        -0.9106512,
        0.478796482,
        -0.402414918,
        -0.5476818,
        0.0477357544,
        0.198296234,
        0.3021018,
        -1.31667721,
        -0.0356758721,
        -0.202589959,
        0.173054665,
        0.9532826,
        -0.0128863035,
        -0.38792187,
        -1.54258418,
        0.483991265,
        -0.132133156,
        0.123010188,
        0.374753743,
        0.4074203,
        -0.8316713,
        0.189653486,
        0.4389804,
        -0.44618547,
        -0.38287577,
        0.7307452,
        -1.3030771,
        0.3352762,
        0.0284067653,
        -0.849838257,
        -0.626869559,
        0.113385707,
        0.541626751,
        0.587944269,
        -0.364514619,
        0.4352128,
        0.5626091,
        0.3968189,
        0.589372039,
        -0.794393957,
        0.0475910529,
        0.581060052,
        0.373910218,
        -0.0009906898,
        -0.196767986,
        -0.08168492,
        -0.476325631,
        -0.5491539,
        0.3481443,
        -0.458789974,
        0.114218846,
        -0.348209441,
        -0.0178793129,
        0.5185956,
        1.50973916,
        -0.487240225,
        -0.318799555,
        -0.135209888,
        -0.188048393,
        -0.4323525,
        -0.260590732,
        0.07681719,
        0.26558426,
        -0.07462533,
        0.472645044,
        0.04424511,
        0.0559447147,
        -0.2877147,
        -0.06745277,
        -0.6407322,
        0.07983626,
        0.09824264,
        -1.42266846,
        -0.487262815,
        0.168959036,
        0.424340278,
        1.10833633,
        0.319374382,
        0.6390641,
        0.07573213,
        -0.8170256,
        -0.3516327,
        0.2675201,
        -0.1755334,
        -0.321125925,
        0.634365261,
        -0.0262013655,
        -0.325567126,
        0.4183445,
        0.226820722,
        0.4755698,
        0.234772265,
        0.0669666,
        -0.7149538,
        0.484415621,
        0.854419,
        -0.0557003878,
        0.159157872,
        0.152146041,
        -0.189669892,
        -0.146572664,
        0.5296712,
        0.492887467,
        0.07265664,
        0.8168109,
        -0.10986793,
        0.115890309,
        0.575226068,
        0.710778654,
        0.0406743474,
        -0.7823997,
        0.0352586061,
        0.03274577,
        0.309844017,
        -0.6485529,
        -0.6755361,
        0.142651409,
        0.7454338,
        -0.6994831,
        0.07632328,
        0.09778763,
        -0.588096261,
        0.572362363,
        1.00201166,
        -0.319984555,
        0.7188481,
        0.07496422,
        -0.389785826,
        -0.382224679,
        0.738787234,
        0.135670051,
        -0.00677242456,
        -0.185250208,
        0.1720279,
        0.502915263,
        -0.194336429,
        -0.5324817,
        0.403771877,
        -0.2805676,
        -0.257859319,
        0.13385728,
        0.008641204,
        0.7083635,
        0.6313284,
        -0.155626372,
        1.27444685,
        0.113345273,
        0.1413375,
        -0.218226671,
        -0.833462834,
        -0.0148078846,
        0.4069934,
        0.2075382,
        0.3357165,
        -0.6151717,
        0.244275123,
        -0.8393507,
        -0.3422531,
        0.144140646,
        -0.4390437,
        -0.161635786,
        -0.0313418247,
        0.25486052,
        -0.330022275,
        0.156824291,
        0.380520046,
        0.6107029,
        -0.4467204,
        -0.132450059,
        0.697853565,
        0.7738849,
        0.0164327752,
        -0.360066146,
        -0.5814305,
        0.501787364,
        0.317231059,
        -0.5720031,
        0.501817644,
        1.06021047,
        0.6591003,
        -0.183975,
        -0.6397263,
        0.471209675,
        0.0356445238,
        0.318455517,
        -0.5624855,
        -0.495028168,
        -0.171775028,
        -0.323071629,
        -0.2936115,
        0.113800265,
        0.5155099,
        0.20718357,
        -0.483055025,
        -0.06959783,
        -0.08628793,
        0.06267691,
        0.126729324,
        -0.202475041,
        -0.821602464,
        -0.4331629,
        0.06929891,
        -0.6027159,
        0.516652,
        0.148805335,
        -0.09058498,
        0.612047434,
        0.088310726,
        0.000134123169,
        0.460815,
        -1.06247592,
        0.424372554,
        0.0293718148,
        -0.490791619,
        0.824808359,
        -0.216547891,
        0.175264046,
        0.199906439,
        -0.430836618,
        0.0296836235,
        -0.0585925579,
        0.6219698,
        -0.254524231,
        0.00213921675,
        -0.8763089,
        0.137554929,
        1.29569721,
        -0.5294245,
        0.5338317,
        0.286548167,
        -0.3790195,
        -0.811068952,
        -0.248106137,
        -0.610961,
        0.2795137,
        -0.6100407,
        0.07326951,
        0.328905642,
        -0.121673279,
        0.410660774,
        0.264463633,
        0.1838964,
        -0.270882368,
        -0.09862677,
        -0.3851356,
        -0.0122482153,
        0.596791744
      ],
      "biasesFlat": [
        0.0331357345,
        0.132129684,
        -0.3698952,
        0.329062551,
        -0.803747237,
        -0.2609391,
        0.365028739,
        -0.192223191,
        0.376592875,
        -0.3235125,
        0.401103258,
        0.402631134,
        -0.2163531,
        -1.54303336,
        0.4601665,
        0.4433008,
        -0.107745975,
        0.0378482454,
        -0.0461791828,
        -0.101046,
        -0.482327282,
        -0.80924964,
        -0.210195884,
        -0.393847674,
        0.7126021,
        -0.918007553,
        0.468085527,
        -0.306654125,
        -0.213072643,
        0.00337909488,
        -0.336597443,
        -0.498030931,
        0.0586840846,
        0.767826736
      ],
      "weightShapes": [
        [
          16,
          18
        ],
        [
          16,
          16
        ],
        [
          2,
          16
        ]
      ],
      "biasShapes": [
        16,
        16,
        2
      ]
    },
    {
      "layers": [
        18,
        16,
        16,
        2
      ],
      "weightsFlat": [
        0.347138882,
        -0.26383698,
        0.19797188,
        1.15372694,
        0.1471184,
        0.2844213,
        0.329760224,
        0.312030643,
        0.5104386,
        0.7348181,
        -0.6228616,
        -0.07424207,
        -0.025852561,
        -1.23950839,
        -0.6273386,
        0.0209573135,
        -0.265454948,
        0.302013665,
        0.3976907,
        0.662347,
        -0.4514727,
        -0.303489059,
        0.976491749,
        0.1868439,
        0.174534976,
        -0.7367754,
        0.09855086,
        0.439469248,
        0.0576724522,
        0.300788581,
        -0.7378927,
        0.2715173,
        -0.4134378,
        0.8341828,
        -0.253223479,
        0.12930125,
        0.83792156,
        0.003060899,
        0.3708044,
        -0.273349673,
        0.1508793,
        0.7891084,
        0.677300751,
        0.06258219,
        -0.276405424,
        0.168912813,
        -0.547248542,
        -0.331789881,
        0.717554867,
        0.5498899,
        -0.154649064,
        -0.164311528,
        0.407160372,
        0.87886405,
        0.21137394,
        0.2079282,
        0.289622754,
        0.486694,
        0.102298625,
        -1.04489613,
        -0.411155134,
        -0.358349144,
        0.0214208122,
        -0.19677569,
        -0.371263176,
        -0.316446841,
        -0.336172283,
        -0.1497484,
        -0.823941052,
        0.413311571,
        -0.235991254,
        0.08957505,
        0.2841725,
        0.670141339,
        -0.6809319,
        -0.764135242,
        -1.53198636,
        -0.3711874,
        -0.217313334,
        0.5130423,
        -0.582966,
        0.6059555,
        -0.05850269,
        -0.52253443,
        -0.499219149,
        -0.155658022,
        -0.10829971,
        0.9016359,
        -0.6336392,
        0.64920944,
        0.09198429,
        -1.15767717,
        -0.382738739,
        1.49977064,
        0.188074648,
        0.345310628,
        0.171715721,
        -0.08761255,
        -0.05675361,
        -0.0111625558,
        -0.222761035,
        -0.269556463,
        0.5325816,
        0.3941076,
        0.445884645,
        0.565238,
        0.277343482,
        -0.324156582,
        0.07081163,
        0.168800637,
        -0.61421895,
        -0.8068949,
        1.68435073,
        -0.357868,
        -0.011216837,
        -0.228119165,
        -0.8197702,
        0.250470549,
        -0.617373168,
        -0.113213427,
        -0.0129253035,
        0.136834115,
        -1.07767951,
        -0.383522123,
        -0.9705967,
        -0.5956071,
        -0.31231603,
        -0.129125267,
        -1.27592742,
        -0.273282737,
        0.7907304,
        0.8806586,
        -0.3424664,
        0.178743392,
        1.02088964,
        0.6407829,
        1.201436,
        -0.457452774,
        0.8124287,
        0.0333063677,
        -0.198186249,
        0.01158162,
        0.212117538,
        -0.492045254,
        -1.50221884,
        0.6745692,
        -0.7099889,
        0.4549668,
        0.397383749,
        -0.518552363,
        -0.132536948,
        -0.1855905,
        0.553969741,
        0.7770927,
        -0.09993353,
        0.4743585,
        -0.507056355,
        -0.179480046,
        -0.846857667,
        0.7932954,
        0.241378978,
        0.3085447,
        -0.401724279,
        -0.674714863,
        -0.0236688517,
        -0.8004684,
        -0.09191734,
        0.356325954,
        0.5047735,
        1.049999,
        0.5624756,
        0.0536893569,
        0.0617338046,
        -0.08098019,
        0.7629521,
        -0.5656613,
        -0.04328976,
        0.7171504,
        -0.2691777,
        -0.306894869,
        -0.273427725,
        0.157108948,
        0.24327077,
        -0.019095948,
        0.06524999,
        0.0403872021,
        0.5312763,
        0.248806268,
        0.04716701,
        0.275810659,
        -0.88160634,
        -0.201482728,
        -0.9942399,
        0.18306753,
        0.160631642,
        -0.173967853,
        0.4333389,
        -0.03556957,
        0.3367584,
        0.978820562,
        0.243975043,
        -0.623933256,
        -0.00706332363,
        -0.076408,
        0.0304700956,
        -0.043067,
        0.590942,
        0.0131768482,
        -0.08011205,
        0.3617116,
        0.19565028,
        -0.008483151,
        -0.73407805,
        -0.339838445,
        -0.7161331,
        0.9536595,
        0.3876216,
        0.398447663,
        0.07053489,
        -0.5333209,
        0.67363,
        -0.128418148,
        0.8516805,
        0.0571018234,
        0.164131775,
        0.279042631,
        -0.003294295,
        0.07688814,
        -0.682749331,
        0.258805484,
        -0.400686473,
        0.3974593,
        -0.268066853,
        -1.22906959,
        0.518086135,
        0.192763522,
        -0.09781365,
        0.06331918,
        -0.152420372,
        -0.0704889148,
        -0.3258578,
        0.550415158,
        0.220432535,
        -0.289207518,
        -0.260363,
        0.317835271,
        0.3824799,
        -0.479020536,
        -0.7653127,
        0.405800641,
        -0.535637259,
        0.339935422,
        -1.47279906,
        -0.0570390038,
        0.497377366,
        -1.21995127,
        -1.64451134,
        0.9997779,
        -0.8265544,
        -0.297686547,
        0.06665383,
        0.09392755,
        0.413399339,
        0.0122793391,
        0.109422028,
        0.516437232,
        -1.23298347,
        -0.162444681,
        0.362955064,
        -0.004614599,
        -0.0509328358,
        -0.157620415,
        -0.744928837,
        0.8082749,
        -0.04284915,
        -0.7671727,
        -0.373565644,
        -0.128122777,
        0.0380378626,
        0.5031293,
        0.2005659,
        0.557047367,
        0.30569917,
        -0.7176473,
        0.0212873742,
        0.2817619,
        -0.8521871,
        -0.624667,
        -0.94337827,
        0.6595013,
        -0.337715924,
        -0.335575968,
        0.316492677,
        -0.6427332,
        0.501060247,
        0.09352899,
        0.0147674754,
        0.161050543,
        0.5038853,
        0.374014825,
        -0.562534,
        0.719735146,
        -0.383554339,
        1.57943177,
        -0.20680888,
        -0.584681034,
        0.3137607,
        -0.230607063,
        -1.37225366,
        0.7618956,
        0.32477212,
        0.754191041,
        0.5090159,
        0.626723,
        -0.367640525,
        0.00663415529,
        -1.6248889,
        -0.1761642,
        -0.6044378,
        0.708027,
        -0.3555958,
        0.07655916,
        0.403850943,
        -0.375885934,
        0.0304237735,
        0.308223069,
        -0.218644455,
        -0.3578717,
        0.252487332,
        -0.9480752,
        0.8773238,
        0.007174847,
        -0.9015167,
        0.0477357544,
        0.739664,
        0.3021018,
        -1.50695515,
        0.316122949,
        -0.0437747277,
        0.456182837,
        0.9532826,
        -0.2360739,
        -0.83965075,
        -1.449297,
        0.45992738,
        0.131578058,
        0.415636539,
        0.4299544,
        0.6231127,
        -0.7198066,
        0.137433559,
        1.1475662,
        -0.000517482054,
        -0.440295,
        0.479402483,
        -1.38459516,
        0.116560347,
        -0.117538,
        -0.8609952,
        -0.484379232,
        0.0874667,
        0.5587141,
        0.514414251,
        -0.130271375,
        0.4352128,
        0.6217155,
        0.245801657,
        0.4240447,
        -0.682189763,
        0.05025802,
        0.692285836,
        -0.130034655,
        -0.6872159,
        -0.6923619,
        0.00821871,
        -0.226856172,
        -0.483709663,
        0.200818956,
        -0.506975234,
        -0.0156479347,
        -0.7930535,
        -0.09546135,
        0.323954552,
        1.749069,
        -0.699512064,
        -0.5564191,
        0.2658233,
        0.243347362,
        -0.369599283,
        0.213664159,
        0.213734254,
        0.3412697,
        0.209613532,
        0.458810151,
        0.223550916,
        -0.269045234,
        -0.102360681,
        -0.07178951,
        -0.5284967,
        0.4212654,
        0.862126648,
        -1.60568583,
        -0.272597134,
        0.118557461,
        0.615339,
        1.16190159,
        0.0978013054,
        0.5181271,
        0.305008471,
        -1.04601932,
        -0.402343363,
        0.5539686,
